FANN_FLO_2.1
num_layers=3
learning_rate=0.700000
connection_rate=1.000000
network_type=0
learning_momentum=0.000000
training_algorithm=2
train_error_function=1
train_stop_function=0
cascade_output_change_fraction=0.010000
quickprop_decay=-0.000100
quickprop_mu=1.750000
rprop_increase_factor=1.200000
rprop_decrease_factor=0.500000
rprop_delta_min=0.000000
rprop_delta_max=50.000000
rprop_delta_zero=0.100000
cascade_output_stagnation_epochs=12
cascade_candidate_change_fraction=0.010000
cascade_candidate_stagnation_epochs=12
cascade_max_out_epochs=150
cascade_min_out_epochs=50
cascade_max_cand_epochs=150
cascade_min_cand_epochs=50
cascade_num_candidate_groups=2
bit_fail_limit=3.49999994039535522461e-01
cascade_candidate_limit=1.00000000000000000000e+03
cascade_weight_multiplier=4.00000005960464477539e-01
cascade_activation_functions_count=10
cascade_activation_functions=3 5 7 8 10 11 14 15 16 17 
cascade_activation_steepnesses_count=4
cascade_activation_steepnesses=2.50000000000000000000e-01 5.00000000000000000000e-01 7.50000000000000000000e-01 1.00000000000000000000e+00 
layer_sizes=130 130 130 
scale_included=0
neurons (num_inputs, activation_function, activation_steepness)=(0, 0, 0.00000000000000000000e+00) (0, 0, 0.00000000000000000000e+00) (0, 0, 0.00000000000000000000e+00) (0, 0, 0.00000000000000000000e+00) (0, 0, 0.00000000000000000000e+00) (0, 0, 0.00000000000000000000e+00) (0, 0, 0.00000000000000000000e+00) (0, 0, 0.00000000000000000000e+00) (0, 0, 0.00000000000000000000e+00) (0, 0, 0.00000000000000000000e+00) (0, 0, 0.00000000000000000000e+00) (0, 0, 0.00000000000000000000e+00) (0, 0, 0.00000000000000000000e+00) (0, 0, 0.00000000000000000000e+00) (0, 0, 0.00000000000000000000e+00) (0, 0, 0.00000000000000000000e+00) (0, 0, 0.00000000000000000000e+00) (0, 0, 0.00000000000000000000e+00) (0, 0, 0.00000000000000000000e+00) (0, 0, 0.00000000000000000000e+00) (0, 0, 0.00000000000000000000e+00) (0, 0, 0.00000000000000000000e+00) (0, 0, 0.00000000000000000000e+00) (0, 0, 0.00000000000000000000e+00) (0, 0, 0.00000000000000000000e+00) (0, 0, 0.00000000000000000000e+00) (0, 0, 0.00000000000000000000e+00) (0, 0, 0.00000000000000000000e+00) (0, 0, 0.00000000000000000000e+00) (0, 0, 0.00000000000000000000e+00) (0, 0, 0.00000000000000000000e+00) (0, 0, 0.00000000000000000000e+00) (0, 0, 0.00000000000000000000e+00) (0, 0, 0.00000000000000000000e+00) (0, 0, 0.00000000000000000000e+00) (0, 0, 0.00000000000000000000e+00) (0, 0, 0.00000000000000000000e+00) (0, 0, 0.00000000000000000000e+00) (0, 0, 0.00000000000000000000e+00) (0, 0, 0.00000000000000000000e+00) (0, 0, 0.00000000000000000000e+00) (0, 0, 0.00000000000000000000e+00) (0, 0, 0.00000000000000000000e+00) (0, 0, 0.00000000000000000000e+00) (0, 0, 0.00000000000000000000e+00) (0, 0, 0.00000000000000000000e+00) (0, 0, 0.00000000000000000000e+00) (0, 0, 0.00000000000000000000e+00) (0, 0, 0.00000000000000000000e+00) (0, 0, 0.00000000000000000000e+00) (0, 0, 0.00000000000000000000e+00) (0, 0, 0.00000000000000000000e+00) (0, 0, 0.00000000000000000000e+00) (0, 0, 0.00000000000000000000e+00) (0, 0, 0.00000000000000000000e+00) (0, 0, 0.00000000000000000000e+00) (0, 0, 0.00000000000000000000e+00) (0, 0, 0.00000000000000000000e+00) (0, 0, 0.00000000000000000000e+00) (0, 0, 0.00000000000000000000e+00) (0, 0, 0.00000000000000000000e+00) (0, 0, 0.00000000000000000000e+00) (0, 0, 0.00000000000000000000e+00) (0, 0, 0.00000000000000000000e+00) (0, 0, 0.00000000000000000000e+00) (0, 0, 0.00000000000000000000e+00) (0, 0, 0.00000000000000000000e+00) (0, 0, 0.00000000000000000000e+00) (0, 0, 0.00000000000000000000e+00) (0, 0, 0.00000000000000000000e+00) (0, 0, 0.00000000000000000000e+00) (0, 0, 0.00000000000000000000e+00) (0, 0, 0.00000000000000000000e+00) (0, 0, 0.00000000000000000000e+00) (0, 0, 0.00000000000000000000e+00) (0, 0, 0.00000000000000000000e+00) (0, 0, 0.00000000000000000000e+00) (0, 0, 0.00000000000000000000e+00) (0, 0, 0.00000000000000000000e+00) (0, 0, 0.00000000000000000000e+00) (0, 0, 0.00000000000000000000e+00) (0, 0, 0.00000000000000000000e+00) (0, 0, 0.00000000000000000000e+00) (0, 0, 0.00000000000000000000e+00) (0, 0, 0.00000000000000000000e+00) (0, 0, 0.00000000000000000000e+00) (0, 0, 0.00000000000000000000e+00) (0, 0, 0.00000000000000000000e+00) (0, 0, 0.00000000000000000000e+00) (0, 0, 0.00000000000000000000e+00) (0, 0, 0.00000000000000000000e+00) (0, 0, 0.00000000000000000000e+00) (0, 0, 0.00000000000000000000e+00) (0, 0, 0.00000000000000000000e+00) (0, 0, 0.00000000000000000000e+00) (0, 0, 0.00000000000000000000e+00) (0, 0, 0.00000000000000000000e+00) (0, 0, 0.00000000000000000000e+00) (0, 0, 0.00000000000000000000e+00) (0, 0, 0.00000000000000000000e+00) (0, 0, 0.00000000000000000000e+00) (0, 0, 0.00000000000000000000e+00) (0, 0, 0.00000000000000000000e+00) (0, 0, 0.00000000000000000000e+00) (0, 0, 0.00000000000000000000e+00) (0, 0, 0.00000000000000000000e+00) (0, 0, 0.00000000000000000000e+00) (0, 0, 0.00000000000000000000e+00) (0, 0, 0.00000000000000000000e+00) (0, 0, 0.00000000000000000000e+00) (0, 0, 0.00000000000000000000e+00) (0, 0, 0.00000000000000000000e+00) (0, 0, 0.00000000000000000000e+00) (0, 0, 0.00000000000000000000e+00) (0, 0, 0.00000000000000000000e+00) (0, 0, 0.00000000000000000000e+00) (0, 0, 0.00000000000000000000e+00) (0, 0, 0.00000000000000000000e+00) (0, 0, 0.00000000000000000000e+00) (0, 0, 0.00000000000000000000e+00) (0, 0, 0.00000000000000000000e+00) (0, 0, 0.00000000000000000000e+00) (0, 0, 0.00000000000000000000e+00) (0, 0, 0.00000000000000000000e+00) (0, 0, 0.00000000000000000000e+00) (0, 0, 0.00000000000000000000e+00) (0, 0, 0.00000000000000000000e+00) (0, 0, 0.00000000000000000000e+00) (0, 0, 0.00000000000000000000e+00) (0, 0, 0.00000000000000000000e+00) (130, 5, 5.00000000000000000000e-01) (130, 5, 5.00000000000000000000e-01) (130, 5, 5.00000000000000000000e-01) (130, 5, 5.00000000000000000000e-01) (130, 5, 5.00000000000000000000e-01) (130, 5, 5.00000000000000000000e-01) (130, 5, 5.00000000000000000000e-01) (130, 5, 5.00000000000000000000e-01) (130, 5, 5.00000000000000000000e-01) (130, 5, 5.00000000000000000000e-01) (130, 5, 5.00000000000000000000e-01) (130, 5, 5.00000000000000000000e-01) (130, 5, 5.00000000000000000000e-01) (130, 5, 5.00000000000000000000e-01) (130, 5, 5.00000000000000000000e-01) (130, 5, 5.00000000000000000000e-01) (130, 5, 5.00000000000000000000e-01) (130, 5, 5.00000000000000000000e-01) (130, 5, 5.00000000000000000000e-01) (130, 5, 5.00000000000000000000e-01) (130, 5, 5.00000000000000000000e-01) (130, 5, 5.00000000000000000000e-01) (130, 5, 5.00000000000000000000e-01) (130, 5, 5.00000000000000000000e-01) (130, 5, 5.00000000000000000000e-01) (130, 5, 5.00000000000000000000e-01) (130, 5, 5.00000000000000000000e-01) (130, 5, 5.00000000000000000000e-01) (130, 5, 5.00000000000000000000e-01) (130, 5, 5.00000000000000000000e-01) (130, 5, 5.00000000000000000000e-01) (130, 5, 5.00000000000000000000e-01) (130, 5, 5.00000000000000000000e-01) (130, 5, 5.00000000000000000000e-01) (130, 5, 5.00000000000000000000e-01) (130, 5, 5.00000000000000000000e-01) (130, 5, 5.00000000000000000000e-01) (130, 5, 5.00000000000000000000e-01) (130, 5, 5.00000000000000000000e-01) (130, 5, 5.00000000000000000000e-01) (130, 5, 5.00000000000000000000e-01) (130, 5, 5.00000000000000000000e-01) (130, 5, 5.00000000000000000000e-01) (130, 5, 5.00000000000000000000e-01) (130, 5, 5.00000000000000000000e-01) (130, 5, 5.00000000000000000000e-01) (130, 5, 5.00000000000000000000e-01) (130, 5, 5.00000000000000000000e-01) (130, 5, 5.00000000000000000000e-01) (130, 5, 5.00000000000000000000e-01) (130, 5, 5.00000000000000000000e-01) (130, 5, 5.00000000000000000000e-01) (130, 5, 5.00000000000000000000e-01) (130, 5, 5.00000000000000000000e-01) (130, 5, 5.00000000000000000000e-01) (130, 5, 5.00000000000000000000e-01) (130, 5, 5.00000000000000000000e-01) (130, 5, 5.00000000000000000000e-01) (130, 5, 5.00000000000000000000e-01) (130, 5, 5.00000000000000000000e-01) (130, 5, 5.00000000000000000000e-01) (130, 5, 5.00000000000000000000e-01) (130, 5, 5.00000000000000000000e-01) (130, 5, 5.00000000000000000000e-01) (130, 5, 5.00000000000000000000e-01) (130, 5, 5.00000000000000000000e-01) (130, 5, 5.00000000000000000000e-01) (130, 5, 5.00000000000000000000e-01) (130, 5, 5.00000000000000000000e-01) (130, 5, 5.00000000000000000000e-01) (130, 5, 5.00000000000000000000e-01) (130, 5, 5.00000000000000000000e-01) (130, 5, 5.00000000000000000000e-01) (130, 5, 5.00000000000000000000e-01) (130, 5, 5.00000000000000000000e-01) (130, 5, 5.00000000000000000000e-01) (130, 5, 5.00000000000000000000e-01) (130, 5, 5.00000000000000000000e-01) (130, 5, 5.00000000000000000000e-01) (130, 5, 5.00000000000000000000e-01) (130, 5, 5.00000000000000000000e-01) (130, 5, 5.00000000000000000000e-01) (130, 5, 5.00000000000000000000e-01) (130, 5, 5.00000000000000000000e-01) (130, 5, 5.00000000000000000000e-01) (130, 5, 5.00000000000000000000e-01) (130, 5, 5.00000000000000000000e-01) (130, 5, 5.00000000000000000000e-01) (130, 5, 5.00000000000000000000e-01) (130, 5, 5.00000000000000000000e-01) (130, 5, 5.00000000000000000000e-01) (130, 5, 5.00000000000000000000e-01) (130, 5, 5.00000000000000000000e-01) (130, 5, 5.00000000000000000000e-01) (130, 5, 5.00000000000000000000e-01) (130, 5, 5.00000000000000000000e-01) (130, 5, 5.00000000000000000000e-01) (130, 5, 5.00000000000000000000e-01) (130, 5, 5.00000000000000000000e-01) (130, 5, 5.00000000000000000000e-01) (130, 5, 5.00000000000000000000e-01) (130, 5, 5.00000000000000000000e-01) (130, 5, 5.00000000000000000000e-01) (130, 5, 5.00000000000000000000e-01) (130, 5, 5.00000000000000000000e-01) (130, 5, 5.00000000000000000000e-01) (130, 5, 5.00000000000000000000e-01) (130, 5, 5.00000000000000000000e-01) (130, 5, 5.00000000000000000000e-01) (130, 5, 5.00000000000000000000e-01) (130, 5, 5.00000000000000000000e-01) (130, 5, 5.00000000000000000000e-01) (130, 5, 5.00000000000000000000e-01) (130, 5, 5.00000000000000000000e-01) (130, 5, 5.00000000000000000000e-01) (130, 5, 5.00000000000000000000e-01) (130, 5, 5.00000000000000000000e-01) (130, 5, 5.00000000000000000000e-01) (130, 5, 5.00000000000000000000e-01) (130, 5, 5.00000000000000000000e-01) (130, 5, 5.00000000000000000000e-01) (130, 5, 5.00000000000000000000e-01) (130, 5, 5.00000000000000000000e-01) (130, 5, 5.00000000000000000000e-01) (130, 5, 5.00000000000000000000e-01) (130, 5, 5.00000000000000000000e-01) (130, 5, 5.00000000000000000000e-01) (130, 5, 5.00000000000000000000e-01) (130, 5, 5.00000000000000000000e-01) (0, 5, 0.00000000000000000000e+00) (130, 5, 5.00000000000000000000e-01) (130, 5, 5.00000000000000000000e-01) (130, 5, 5.00000000000000000000e-01) (130, 5, 5.00000000000000000000e-01) (130, 5, 5.00000000000000000000e-01) (130, 5, 5.00000000000000000000e-01) (130, 5, 5.00000000000000000000e-01) (130, 5, 5.00000000000000000000e-01) (130, 5, 5.00000000000000000000e-01) (130, 5, 5.00000000000000000000e-01) (130, 5, 5.00000000000000000000e-01) (130, 5, 5.00000000000000000000e-01) (130, 5, 5.00000000000000000000e-01) (130, 5, 5.00000000000000000000e-01) (130, 5, 5.00000000000000000000e-01) (130, 5, 5.00000000000000000000e-01) (130, 5, 5.00000000000000000000e-01) (130, 5, 5.00000000000000000000e-01) (130, 5, 5.00000000000000000000e-01) (130, 5, 5.00000000000000000000e-01) (130, 5, 5.00000000000000000000e-01) (130, 5, 5.00000000000000000000e-01) (130, 5, 5.00000000000000000000e-01) (130, 5, 5.00000000000000000000e-01) (130, 5, 5.00000000000000000000e-01) (130, 5, 5.00000000000000000000e-01) (130, 5, 5.00000000000000000000e-01) (130, 5, 5.00000000000000000000e-01) (130, 5, 5.00000000000000000000e-01) (130, 5, 5.00000000000000000000e-01) (130, 5, 5.00000000000000000000e-01) (130, 5, 5.00000000000000000000e-01) (130, 5, 5.00000000000000000000e-01) (130, 5, 5.00000000000000000000e-01) (130, 5, 5.00000000000000000000e-01) (130, 5, 5.00000000000000000000e-01) (130, 5, 5.00000000000000000000e-01) (130, 5, 5.00000000000000000000e-01) (130, 5, 5.00000000000000000000e-01) (130, 5, 5.00000000000000000000e-01) (130, 5, 5.00000000000000000000e-01) (130, 5, 5.00000000000000000000e-01) (130, 5, 5.00000000000000000000e-01) (130, 5, 5.00000000000000000000e-01) (130, 5, 5.00000000000000000000e-01) (130, 5, 5.00000000000000000000e-01) (130, 5, 5.00000000000000000000e-01) (130, 5, 5.00000000000000000000e-01) (130, 5, 5.00000000000000000000e-01) (130, 5, 5.00000000000000000000e-01) (130, 5, 5.00000000000000000000e-01) (130, 5, 5.00000000000000000000e-01) (130, 5, 5.00000000000000000000e-01) (130, 5, 5.00000000000000000000e-01) (130, 5, 5.00000000000000000000e-01) (130, 5, 5.00000000000000000000e-01) (130, 5, 5.00000000000000000000e-01) (130, 5, 5.00000000000000000000e-01) (130, 5, 5.00000000000000000000e-01) (130, 5, 5.00000000000000000000e-01) (130, 5, 5.00000000000000000000e-01) (130, 5, 5.00000000000000000000e-01) (130, 5, 5.00000000000000000000e-01) (130, 5, 5.00000000000000000000e-01) (130, 5, 5.00000000000000000000e-01) (130, 5, 5.00000000000000000000e-01) (130, 5, 5.00000000000000000000e-01) (130, 5, 5.00000000000000000000e-01) (130, 5, 5.00000000000000000000e-01) (130, 5, 5.00000000000000000000e-01) (130, 5, 5.00000000000000000000e-01) (130, 5, 5.00000000000000000000e-01) (130, 5, 5.00000000000000000000e-01) (130, 5, 5.00000000000000000000e-01) (130, 5, 5.00000000000000000000e-01) (130, 5, 5.00000000000000000000e-01) (130, 5, 5.00000000000000000000e-01) (130, 5, 5.00000000000000000000e-01) (130, 5, 5.00000000000000000000e-01) (130, 5, 5.00000000000000000000e-01) (130, 5, 5.00000000000000000000e-01) (130, 5, 5.00000000000000000000e-01) (130, 5, 5.00000000000000000000e-01) (130, 5, 5.00000000000000000000e-01) (130, 5, 5.00000000000000000000e-01) (130, 5, 5.00000000000000000000e-01) (130, 5, 5.00000000000000000000e-01) (130, 5, 5.00000000000000000000e-01) (130, 5, 5.00000000000000000000e-01) (130, 5, 5.00000000000000000000e-01) (130, 5, 5.00000000000000000000e-01) (130, 5, 5.00000000000000000000e-01) (130, 5, 5.00000000000000000000e-01) (130, 5, 5.00000000000000000000e-01) (130, 5, 5.00000000000000000000e-01) (130, 5, 5.00000000000000000000e-01) (130, 5, 5.00000000000000000000e-01) (130, 5, 5.00000000000000000000e-01) (130, 5, 5.00000000000000000000e-01) (130, 5, 5.00000000000000000000e-01) (130, 5, 5.00000000000000000000e-01) (130, 5, 5.00000000000000000000e-01) (130, 5, 5.00000000000000000000e-01) (130, 5, 5.00000000000000000000e-01) (130, 5, 5.00000000000000000000e-01) (130, 5, 5.00000000000000000000e-01) (130, 5, 5.00000000000000000000e-01) (130, 5, 5.00000000000000000000e-01) (130, 5, 5.00000000000000000000e-01) (130, 5, 5.00000000000000000000e-01) (130, 5, 5.00000000000000000000e-01) (130, 5, 5.00000000000000000000e-01) (130, 5, 5.00000000000000000000e-01) (130, 5, 5.00000000000000000000e-01) (130, 5, 5.00000000000000000000e-01) (130, 5, 5.00000000000000000000e-01) (130, 5, 5.00000000000000000000e-01) (130, 5, 5.00000000000000000000e-01) (130, 5, 5.00000000000000000000e-01) (130, 5, 5.00000000000000000000e-01) (130, 5, 5.00000000000000000000e-01) (130, 5, 5.00000000000000000000e-01) (130, 5, 5.00000000000000000000e-01) (130, 5, 5.00000000000000000000e-01) (130, 5, 5.00000000000000000000e-01) (130, 5, 5.00000000000000000000e-01) (130, 5, 5.00000000000000000000e-01) (130, 5, 5.00000000000000000000e-01) (130, 5, 5.00000000000000000000e-01) (0, 5, 0.00000000000000000000e+00) 
connections (connected_to_neuron, weight)=(0, 5.17137587070465087891e-01) (1, 4.82850641012191772461e-01) (2, 4.23736780881881713867e-01) (3, 4.96137350797653198242e-01) (4, 5.33706188201904296875e-01) (5, 5.51672875881195068359e-01) (6, 5.17456293106079101562e-01) (7, 4.39607530832290649414e-01) (8, 4.36523765325546264648e-01) (9, 4.07792717218399047852e-01) (10, 5.24771153926849365234e-01) (11, 3.80766123533248901367e-01) (12, 4.88746613264083862305e-01) (13, 5.17766654491424560547e-01) (14, 4.56211358308792114258e-01) (15, 4.96908277273178100586e-01) (16, 4.90459233522415161133e-01) (17, 5.01003563404083251953e-01) (18, 5.20725369453430175781e-01) (19, 3.82720202207565307617e-01) (20, 5.30347526073455810547e-01) (21, 5.02322137355804443359e-01) (22, 4.81847435235977172852e-01) (23, 3.62705439329147338867e-01) (24, 5.42737960815429687500e-01) (25, 5.48196256160736083984e-01) (26, 4.86448556184768676758e-01) (27, 4.94042605161666870117e-01) (28, 5.27468085289001464844e-01) (29, 5.08113503456115722656e-01) (30, 4.15467113256454467773e-01) (31, 5.07171511650085449219e-01) (32, 3.82881730794906616211e-01) (33, 4.45128649473190307617e-01) (34, 4.30429726839065551758e-01) (35, 3.84710282087326049805e-01) (36, 3.77596527338027954102e-01) (37, 4.17535990476608276367e-01) (38, 4.78704780340194702148e-01) (39, 5.44151604175567626953e-01) (40, 5.07344067096710205078e-01) (41, 4.83398288488388061523e-01) (42, 4.28024441003799438477e-01) (43, 3.58798831701278686523e-01) (44, 4.84532147645950317383e-01) (45, 4.84472781419754028320e-01) (46, 4.87454384565353393555e-01) (47, 3.99239748716354370117e-01) (48, 3.74913603067398071289e-01) (49, 5.25577664375305175781e-01) (50, 5.35115778446197509766e-01) (51, 4.42659169435501098633e-01) (52, 5.25501549243927001953e-01) (53, 4.55717235803604125977e-01) (54, 3.92125636339187622070e-01) (55, 4.07787352800369262695e-01) (56, 4.34431344270706176758e-01) (57, 4.40077573060989379883e-01) (58, 5.36512613296508789062e-01) (59, 5.19293904304504394531e-01) (60, 5.23989975452423095703e-01) (61, 4.51020509004592895508e-01) (62, 4.54454272985458374023e-01) (63, 3.65576833486557006836e-01) (64, 4.02312725782394409180e-01) (65, 4.22622352838516235352e-01) (66, 3.65866988897323608398e-01) (67, 4.79139417409896850586e-01) (68, 4.48857277631759643555e-01) (69, 4.96833592653274536133e-01) (70, 4.35084551572799682617e-01) (71, 4.18864578008651733398e-01) (72, 4.09108191728591918945e-01) (73, 4.33879286050796508789e-01) (74, 3.60611408948898315430e-01) (75, 5.48165857791900634766e-01) (76, 3.74863892793655395508e-01) (77, 4.89752620458602905273e-01) (78, 4.25493210554122924805e-01) (79, 4.16670113801956176758e-01) (80, 5.26012599468231201172e-01) (81, 4.45830553770065307617e-01) (82, 4.26862567663192749023e-01) (83, 4.30954128503799438477e-01) (84, 3.98128658533096313477e-01) (85, 5.01119792461395263672e-01) (86, 4.73997622728347778320e-01) (87, 4.31426256895065307617e-01) (88, 5.33118605613708496094e-01) (89, 4.75917071104049682617e-01) (90, 4.91338342428207397461e-01) (91, 4.76800590753555297852e-01) (92, 5.40465354919433593750e-01) (93, 5.53000450134277343750e-01) (94, 4.30372446775436401367e-01) (95, 4.21301454305648803711e-01) (96, 3.65259259939193725586e-01) (97, 4.64705377817153930664e-01) (98, 4.56495314836502075195e-01) (99, 4.69314008951187133789e-01) (100, 5.13217270374298095703e-01) (101, 3.94640475511550903320e-01) (102, 4.74880248308181762695e-01) (103, 4.65692430734634399414e-01) (104, 4.45366173982620239258e-01) (105, 4.22438472509384155273e-01) (106, 4.74768847227096557617e-01) (107, 3.93257111310958862305e-01) (108, 4.24166351556777954102e-01) (109, 5.15919268131256103516e-01) (110, 4.06656593084335327148e-01) (111, 4.30007964372634887695e-01) (112, 4.95714873075485229492e-01) (113, 4.32623773813247680664e-01) (114, 4.59739953279495239258e-01) (115, 4.02800768613815307617e-01) (116, 4.24439758062362670898e-01) (117, 5.11090576648712158203e-01) (118, 4.50971812009811401367e-01) (119, 4.36639398336410522461e-01) (120, 5.50712406635284423828e-01) (121, 3.75291019678115844727e-01) (122, 4.68816965818405151367e-01) (123, 3.59947055578231811523e-01) (124, 3.82755905389785766602e-01) (125, 5.31094908714294433594e-01) (126, 4.64017361402511596680e-01) (127, 4.93015915155410766602e-01) (128, 4.71641749143600463867e-01) (129, 4.36221271753311157227e-01) (0, 5.04562497138977050781e-01) (1, 3.83561789989471435547e-01) (2, 5.22989869117736816406e-01) (3, 4.92601484060287475586e-01) (4, 3.54589462280273437500e-01) (5, 3.52539658546447753906e-01) (6, 3.43947291374206542969e-01) (7, 3.31975817680358886719e-01) (8, 3.27295243740081787109e-01) (9, 4.61164444684982299805e-01) (10, 4.01436239480972290039e-01) (11, 3.49334418773651123047e-01) (12, 4.73396271467208862305e-01) (13, 3.81713062524795532227e-01) (14, 4.61903780698776245117e-01) (15, 4.27957504987716674805e-01) (16, 4.92441147565841674805e-01) (17, 4.69449788331985473633e-01) (18, 4.53577905893325805664e-01) (19, 4.95053142309188842773e-01) (20, 3.68988811969757080078e-01) (21, 4.04995709657669067383e-01) (22, 3.74140173196792602539e-01) (23, 3.83651584386825561523e-01) (24, 4.42598491907119750977e-01) (25, 3.63577365875244140625e-01) (26, 4.54572290182113647461e-01) (27, 4.07529026269912719727e-01) (28, 3.51016461849212646484e-01) (29, 3.43642979860305786133e-01) (30, 4.17750209569931030273e-01) (31, 3.39024990797042846680e-01) (32, 4.02838617563247680664e-01) (33, 3.19309473037719726562e-01) (34, 4.44161206483840942383e-01) (35, 4.28330928087234497070e-01) (36, 3.69165867567062377930e-01) (37, 3.80927294492721557617e-01) (38, 4.55162376165390014648e-01) (39, 3.24905395507812500000e-01) (40, 4.95091587305068969727e-01) (41, 4.15553301572799682617e-01) (42, 4.15210276842117309570e-01) (43, 4.49985831975936889648e-01) (44, 3.22190284729003906250e-01) (45, 4.62043136358261108398e-01) (46, 3.70213001966476440430e-01) (47, 3.79678457975387573242e-01) (48, 4.65702503919601440430e-01) (49, 4.72569614648818969727e-01) (50, 4.88671034574508666992e-01) (51, 3.04979205131530761719e-01) (52, 3.95420402288436889648e-01) (53, 4.41556185483932495117e-01) (54, 4.45819705724716186523e-01) (55, 3.02294194698333740234e-01) (56, 4.68223065137863159180e-01) (57, 4.35922235250473022461e-01) (58, 3.55803668498992919922e-01) (59, 4.02367562055587768555e-01) (60, 4.02778834104537963867e-01) (61, 3.14391136169433593750e-01) (62, 3.81703227758407592773e-01) (63, 4.95992571115493774414e-01) (64, 3.58386695384979248047e-01) (65, 4.15215939283370971680e-01) (66, 3.45303207635879516602e-01) (67, 3.20912092924118041992e-01) (68, 3.79262179136276245117e-01) (69, 4.70169633626937866211e-01) (70, 3.51862907409667968750e-01) (71, 3.69632840156555175781e-01) (72, 4.28950518369674682617e-01) (73, 3.82057815790176391602e-01) (74, 4.55905824899673461914e-01) (75, 4.20200079679489135742e-01) (76, 3.13358008861541748047e-01) (77, 4.17815119028091430664e-01) (78, 4.29244428873062133789e-01) (79, 3.21957230567932128906e-01) (80, 3.45175504684448242188e-01) (81, 3.74458312988281250000e-01) (82, 3.30716311931610107422e-01) (83, 3.58988732099533081055e-01) (84, 3.33601683378219604492e-01) (85, 4.53313916921615600586e-01) (86, 4.57675546407699584961e-01) (87, 3.63250523805618286133e-01) (88, 3.61749351024627685547e-01) (89, 3.31372499465942382812e-01) (90, 3.87471526861190795898e-01) (91, 4.44844394922256469727e-01) (92, 3.10574233531951904297e-01) (93, 4.30904656648635864258e-01) (94, 4.25799876451492309570e-01) (95, 4.29200261831283569336e-01) (96, 3.79452317953109741211e-01) (97, 4.65831190347671508789e-01) (98, 4.35209900140762329102e-01) (99, 3.83670419454574584961e-01) (100, 3.59087526798248291016e-01) (101, 3.93884450197219848633e-01) (102, 4.27075475454330444336e-01) (103, 4.68483835458755493164e-01) (104, 4.18776661157608032227e-01) (105, 3.90387028455734252930e-01) (106, 4.45576399564743041992e-01) (107, 4.13537412881851196289e-01) (108, 3.34334999322891235352e-01) (109, 3.78389805555343627930e-01) (110, 4.07972425222396850586e-01) (111, 4.03117746114730834961e-01) (112, 4.10604208707809448242e-01) (113, 4.35590475797653198242e-01) (114, 3.79529625177383422852e-01) (115, 3.65083634853363037109e-01) (116, 3.70804488658905029297e-01) (117, 3.20965915918350219727e-01) (118, 4.84028011560440063477e-01) (119, 4.69860345125198364258e-01) (120, 3.54014188051223754883e-01) (121, 3.26403826475143432617e-01) (122, 4.78878110647201538086e-01) (123, 3.15001457929611206055e-01) (124, 4.39354389905929565430e-01) (125, 4.40020710229873657227e-01) (126, 4.38495427370071411133e-01) (127, 4.03111785650253295898e-01) (128, 3.10212284326553344727e-01) (129, 3.80660474300384521484e-01) (0, 3.60713332891464233398e-01) (1, 5.09274959564208984375e-01) (2, 3.85236889123916625977e-01) (3, 4.76792782545089721680e-01) (4, 4.49770063161849975586e-01) (5, 4.26443308591842651367e-01) (6, 3.73150050640106201172e-01) (7, 4.72602456808090209961e-01) (8, 3.70181441307067871094e-01) (9, 3.79282474517822265625e-01) (10, 3.40325802564620971680e-01) (11, 3.95582228899002075195e-01) (12, 4.90570098161697387695e-01) (13, 3.52703899145126342773e-01) (14, 4.34455007314682006836e-01) (15, 4.25905078649520874023e-01) (16, 3.27753335237503051758e-01) (17, 4.90115910768508911133e-01) (18, 5.18606603145599365234e-01) (19, 3.61460745334625244141e-01) (20, 4.10781532526016235352e-01) (21, 3.45350861549377441406e-01) (22, 4.51978653669357299805e-01) (23, 3.46400886774063110352e-01) (24, 4.99741673469543457031e-01) (25, 4.99185383319854736328e-01) (26, 3.50175738334655761719e-01) (27, 3.43351066112518310547e-01) (28, 4.41149085760116577148e-01) (29, 3.33569645881652832031e-01) (30, 4.44924086332321166992e-01) (31, 3.79602015018463134766e-01) (32, 5.10986983776092529297e-01) (33, 4.98403608798980712891e-01) (34, 4.10640865564346313477e-01) (35, 3.81593257188796997070e-01) (36, 3.77822339534759521484e-01) (37, 4.00086015462875366211e-01) (38, 3.85377585887908935547e-01) (39, 3.80859524011611938477e-01) (40, 4.45716768503189086914e-01) (41, 5.02547800540924072266e-01) (42, 4.60809916257858276367e-01) (43, 3.72456133365631103516e-01) (44, 4.09966140985488891602e-01) (45, 4.41348522901535034180e-01) (46, 4.85096424818038940430e-01) (47, 3.55937182903289794922e-01) (48, 3.75873267650604248047e-01) (49, 4.41961199045181274414e-01) (50, 3.82870346307754516602e-01) (51, 4.41589921712875366211e-01) (52, 3.42226803302764892578e-01) (53, 3.45623403787612915039e-01) (54, 4.32298690080642700195e-01) (55, 3.84609371423721313477e-01) (56, 4.69713777303695678711e-01) (57, 4.26734060049057006836e-01) (58, 5.13733267784118652344e-01) (59, 4.55476015806198120117e-01) (60, 5.26431679725646972656e-01) (61, 4.78199034929275512695e-01) (62, 4.32068735361099243164e-01) (63, 5.19408226013183593750e-01) (64, 4.33821290731430053711e-01) (65, 3.74825477600097656250e-01) (66, 4.31730359792709350586e-01) (67, 4.32702511548995971680e-01) (68, 3.72039079666137695312e-01) (69, 4.00633871555328369141e-01) (70, 3.93213719129562377930e-01) (71, 4.82754021883010864258e-01) (72, 3.87995928525924682617e-01) (73, 3.87317627668380737305e-01) (74, 3.87473583221435546875e-01) (75, 4.08183366060256958008e-01) (76, 4.78384941816329956055e-01) (77, 3.56396049261093139648e-01) (78, 4.88431423902511596680e-01) (79, 4.07589226961135864258e-01) (80, 4.92469936609268188477e-01) (81, 4.83294934034347534180e-01) (82, 4.78472441434860229492e-01) (83, 4.27463859319686889648e-01) (84, 5.25704145431518554688e-01) (85, 4.50764924287796020508e-01) (86, 3.47216725349426269531e-01) (87, 4.11540657281875610352e-01) (88, 5.04012286663055419922e-01) (89, 4.74661380052566528320e-01) (90, 3.74480932950973510742e-01) (91, 4.41095203161239624023e-01) (92, 4.28016394376754760742e-01) (93, 4.12531882524490356445e-01) (94, 3.63555312156677246094e-01) (95, 4.14012700319290161133e-01) (96, 4.52091962099075317383e-01) (97, 4.50403064489364624023e-01) (98, 4.65456277132034301758e-01) (99, 4.64211136102676391602e-01) (100, 3.37730109691619873047e-01) (101, 3.69975596666336059570e-01) (102, 5.19582688808441162109e-01) (103, 3.66620153188705444336e-01) (104, 5.24789631366729736328e-01) (105, 4.80932444334030151367e-01) (106, 3.72588634490966796875e-01) (107, 4.37216192483901977539e-01) (108, 4.33404117822647094727e-01) (109, 3.63381624221801757812e-01) (110, 4.94700282812118530273e-01) (111, 3.68044286966323852539e-01) (112, 4.60292190313339233398e-01) (113, 4.71477538347244262695e-01) (114, 4.63537484407424926758e-01) (115, 4.15429681539535522461e-01) (116, 4.67090278863906860352e-01) (117, 3.27316612005233764648e-01) (118, 3.50138336420059204102e-01) (119, 5.14613389968872070312e-01) (120, 4.47708398103713989258e-01) (121, 3.75526845455169677734e-01) (122, 4.19655889272689819336e-01) (123, 4.97370660305023193359e-01) (124, 4.49585944414138793945e-01) (125, 3.31524401903152465820e-01) (126, 4.70519453287124633789e-01) (127, 3.61393243074417114258e-01) (128, 4.76272553205490112305e-01) (129, 4.60930675268173217773e-01) (0, 5.68389475345611572266e-01) (1, 6.27802371978759765625e-01) (2, 5.80354988574981689453e-01) (3, 5.32122254371643066406e-01) (4, 4.84813302755355834961e-01) (5, 5.62561869621276855469e-01) (6, 4.82813507318496704102e-01) (7, 5.51107764244079589844e-01) (8, 5.73266685009002685547e-01) (9, 5.98985433578491210938e-01) (10, 4.53402727842330932617e-01) (11, 4.44971174001693725586e-01) (12, 5.35512208938598632812e-01) (13, 4.60302561521530151367e-01) (14, 6.10131502151489257812e-01) (15, 5.85347592830657958984e-01) (16, 4.42122429609298706055e-01) (17, 4.56272393465042114258e-01) (18, 4.75151747465133666992e-01) (19, 5.80313682556152343750e-01) (20, 6.37251853942871093750e-01) (21, 5.97062766551971435547e-01) (22, 5.39546489715576171875e-01) (23, 4.63930577039718627930e-01) (24, 5.85720300674438476562e-01) (25, 5.06741225719451904297e-01) (26, 5.05099117755889892578e-01) (27, 5.06423771381378173828e-01) (28, 5.70141792297363281250e-01) (29, 4.78991895914077758789e-01) (30, 5.21550953388214111328e-01) (31, 6.12004339694976806641e-01) (32, 4.62320774793624877930e-01) (33, 5.29631435871124267578e-01) (34, 6.22235655784606933594e-01) (35, 6.19726300239562988281e-01) (36, 4.45328921079635620117e-01) (37, 5.47630488872528076172e-01) (38, 5.31777918338775634766e-01) (39, 4.98014658689498901367e-01) (40, 6.37699484825134277344e-01) (41, 5.21035194396972656250e-01) (42, 5.44323801994323730469e-01) (43, 5.56565523147583007812e-01) (44, 5.02116560935974121094e-01) (45, 5.77080786228179931641e-01) (46, 5.02594113349914550781e-01) (47, 6.03348076343536376953e-01) (48, 5.76306819915771484375e-01) (49, 4.94440525770187377930e-01) (50, 5.66439807415008544922e-01) (51, 4.59523767232894897461e-01) (52, 5.20721435546875000000e-01) (53, 4.70507770776748657227e-01) (54, 5.28642058372497558594e-01) (55, 5.93423664569854736328e-01) (56, 5.76653897762298583984e-01) (57, 5.27575910091400146484e-01) (58, 4.73930686712265014648e-01) (59, 4.58172589540481567383e-01) (60, 6.11476361751556396484e-01) (61, 5.88914752006530761719e-01) (62, 5.95269620418548583984e-01) (63, 6.02100312709808349609e-01) (64, 6.05473697185516357422e-01) (65, 5.02040565013885498047e-01) (66, 5.00686049461364746094e-01) (67, 5.36263465881347656250e-01) (68, 4.86956626176834106445e-01) (69, 5.84941565990447998047e-01) (70, 6.18458151817321777344e-01) (71, 5.31700730323791503906e-01) (72, 6.00109934806823730469e-01) (73, 5.52912116050720214844e-01) (74, 4.98976260423660278320e-01) (75, 5.98936021327972412109e-01) (76, 6.23107910156250000000e-01) (77, 4.79949742555618286133e-01) (78, 6.20243787765502929688e-01) (79, 5.42996764183044433594e-01) (80, 4.53574806451797485352e-01) (81, 5.36645472049713134766e-01) (82, 5.07014930248260498047e-01) (83, 5.05778610706329345703e-01) (84, 5.27034342288970947266e-01) (85, 5.71799039840698242188e-01) (86, 5.31952142715454101562e-01) (87, 6.25799894332885742188e-01) (88, 5.24556696414947509766e-01) (89, 5.29467880725860595703e-01) (90, 4.72935467958450317383e-01) (91, 5.31050324440002441406e-01) (92, 4.69632059335708618164e-01) (93, 6.10467553138732910156e-01) (94, 6.33802592754364013672e-01) (95, 6.26118838787078857422e-01) (96, 4.85012322664260864258e-01) (97, 5.07013618946075439453e-01) (98, 4.83666032552719116211e-01) (99, 4.80167776346206665039e-01) (100, 4.84521716833114624023e-01) (101, 4.61869508028030395508e-01) (102, 5.45247256755828857422e-01) (103, 4.77271646261215209961e-01) (104, 6.09609246253967285156e-01) (105, 6.08564376831054687500e-01) (106, 4.46985393762588500977e-01) (107, 5.88323831558227539062e-01) (108, 4.63697880506515502930e-01) (109, 4.74785000085830688477e-01) (110, 6.16629958152770996094e-01) (111, 6.04971230030059814453e-01) (112, 4.56510037183761596680e-01) (113, 4.68739777803421020508e-01) (114, 6.14697933197021484375e-01) (115, 5.34066319465637207031e-01) (116, 5.59289813041687011719e-01) (117, 4.89189475774765014648e-01) (118, 5.12399375438690185547e-01) (119, 6.01987779140472412109e-01) (120, 5.13957679271697998047e-01) (121, 5.91713130474090576172e-01) (122, 6.28391385078430175781e-01) (123, 4.79129642248153686523e-01) (124, 6.37182652950286865234e-01) (125, 6.33993864059448242188e-01) (126, 4.40388411283493041992e-01) (127, 5.12604415416717529297e-01) (128, 4.48265343904495239258e-01) (129, 5.00356614589691162109e-01) (0, 5.92193603515625000000e-02) (1, -8.71059000492095947266e-02) (2, 2.32740174978971481323e-02) (3, -2.07418072968721389771e-02) (4, 4.81934426352381706238e-03) (5, 1.16119217127561569214e-02) (6, -2.54746247082948684692e-02) (7, 6.03523850440979003906e-02) (8, -4.46964278817176818848e-02) (9, -5.54759521037340164185e-04) (10, 8.91388058662414550781e-02) (11, -3.13465110957622528076e-02) (12, -2.81353723257780075073e-02) (13, -5.85870891809463500977e-02) (14, -6.05345815420150756836e-02) (15, 7.69830821081995964050e-03) (16, -1.84603454545140266418e-03) (17, -1.35114975273609161377e-02) (18, -7.50872269272804260254e-02) (19, 2.14904975146055221558e-02) (20, 3.72702954337000846863e-03) (21, 5.27387559413909912109e-02) (22, -6.92014768719673156738e-03) (23, -9.41404700279235839844e-02) (24, -6.76869228482246398926e-03) (25, 5.10667860507965087891e-02) (26, 9.20830965042114257812e-02) (27, 5.34135401248931884766e-02) (28, -6.54341727495193481445e-02) (29, 6.04785680770874023438e-02) (30, 7.63842016458511352539e-02) (31, 2.48200772330164909363e-03) (32, -7.21347704529762268066e-02) (33, 4.31869998574256896973e-02) (34, 5.67997992038726806641e-02) (35, 4.70058098435401916504e-02) (36, 3.96269336342811584473e-02) (37, 2.24427413195371627808e-02) (38, 8.03388282656669616699e-03) (39, 3.80062833428382873535e-02) (40, -1.58517528325319290161e-02) (41, -7.71748274564743041992e-03) (42, -9.48725640773773193359e-02) (43, 8.93319845199584960938e-02) (44, 1.57170426100492477417e-02) (45, -3.09033524245023727417e-02) (46, 2.00856458395719528198e-02) (47, -8.06119292974472045898e-03) (48, -7.18131139874458312988e-02) (49, 4.94675710797309875488e-02) (50, 1.44026409834623336792e-02) (51, 7.80189186334609985352e-02) (52, 7.69966691732406616211e-02) (53, 9.60609614849090576172e-02) (54, -9.07364189624786376953e-02) (55, 5.08783338591456413269e-03) (56, -7.60087594389915466309e-02) (57, -6.68050199747085571289e-02) (58, 2.05224882811307907104e-02) (59, -6.59845322370529174805e-02) (60, 1.06148514896631240845e-02) (61, 1.65673177689313888550e-02) (62, 5.96227049827575683594e-02) (63, 9.18869078159332275391e-02) (64, -4.35414984822273254395e-02) (65, 1.02419350296258926392e-02) (66, -5.10020405054092407227e-02) (67, 2.10498403757810592651e-02) (68, -2.59159924462437629700e-03) (69, 5.55305778980255126953e-02) (70, -8.47465693950653076172e-02) (71, 7.68965035676956176758e-02) (72, 1.27717088907957077026e-02) (73, 6.70199394226074218750e-02) (74, 1.68743859976530075073e-02) (75, 2.05372404307126998901e-02) (76, -1.80138517171144485474e-02) (77, 5.38943707942962646484e-02) (78, 1.55957471579313278198e-02) (79, -6.95974081754684448242e-02) (80, 8.90370905399322509766e-02) (81, 5.93180954456329345703e-02) (82, -2.81379055231809616089e-02) (83, 9.86872017383575439453e-02) (84, 4.83723655343055725098e-02) (85, 7.12337670847773551941e-03) (86, -6.46462291479110717773e-02) (87, -9.64139699935913085938e-02) (88, -1.70772243291139602661e-02) (89, -4.47832420468330383301e-03) (90, -5.45352846384048461914e-02) (91, 3.78000214695930480957e-02) (92, -8.23776423931121826172e-02) (93, 9.13180410861968994141e-02) (94, -4.62709739804267883301e-03) (95, 4.50492873787879943848e-02) (96, -4.39826622605323791504e-02) (97, -4.34445217251777648926e-03) (98, -4.72964718937873840332e-03) (99, -7.82389268279075622559e-02) (100, 5.04460632801055908203e-02) (101, 5.97614049911499023438e-02) (102, 2.27221380919218063354e-02) (103, -9.62447226047515869141e-02) (104, 2.72084902971982955933e-02) (105, -9.42828357219696044922e-02) (106, 7.14908819645643234253e-04) (107, 2.81540881842374801636e-02) (108, -1.54872657731175422668e-03) (109, -1.67253483086824417114e-02) (110, -9.02507007122039794922e-02) (111, -3.14063839614391326904e-02) (112, -3.45657579600811004639e-02) (113, 6.58541917800903320312e-02) (114, 2.41787862032651901245e-02) (115, -1.42863579094409942627e-02) (116, -9.81875658035278320312e-02) (117, -2.62855123728513717651e-02) (118, 3.18995863199234008789e-02) (119, -5.10022193193435668945e-02) (120, 1.82777475565671920776e-02) (121, 6.72383187338709831238e-03) (122, 2.01254617422819137573e-02) (123, 6.13766610622406005859e-02) (124, -2.92589496821165084839e-02) (125, 5.74279129505157470703e-02) (126, 3.81688354536890983582e-03) (127, -3.70083265006542205811e-02) (128, 1.37502830475568771362e-02) (129, -1.45059093832969665527e-01) (0, 1.64480045437812805176e-01) (1, 1.85338273644447326660e-01) (2, 1.49498507380485534668e-01) (3, 1.90617069602012634277e-01) (4, 7.02284649014472961426e-02) (5, -6.67853420600295066833e-03) (6, 1.88432354480028152466e-02) (7, -3.70572917163372039795e-02) (8, 4.25677932798862457275e-02) (9, 1.01101137697696685791e-01) (10, 7.13217630982398986816e-02) (11, -3.07040922343730926514e-02) (12, 2.12626475840806961060e-02) (13, 2.61261481791734695435e-02) (14, -3.32447402179241180420e-02) (15, 1.20717205107212066650e-01) (16, -4.13783900439739227295e-02) (17, 1.85443181544542312622e-02) (18, 1.39344975352287292480e-01) (19, 3.55766415596008300781e-02) (20, 1.28524168394505977631e-03) (21, 6.59926012158393859863e-02) (22, 2.17853649519383907318e-03) (23, 7.97832086682319641113e-02) (24, -1.91742312163114547729e-02) (25, 3.42713459394872188568e-03) (26, 6.44424036145210266113e-02) (27, -5.21177612245082855225e-02) (28, 1.21543087065219879150e-01) (29, 3.90256345272064208984e-02) (30, -3.17513458430767059326e-02) (31, 2.04077977687120437622e-02) (32, 5.82285858690738677979e-02) (33, 1.12380392849445343018e-01) (34, 4.19823266565799713135e-02) (35, 6.13623894751071929932e-02) (36, -1.78951155394315719604e-02) (37, 1.02181740105152130127e-01) (38, 3.31112779676914215088e-02) (39, -3.38395945727825164795e-02) (40, 1.22532047331333160400e-01) (41, 6.05763234198093414307e-02) (42, -2.94387452304363250732e-02) (43, 8.75428095459938049316e-02) (44, -3.66396969184279441833e-03) (45, 8.45429524779319763184e-02) (46, -2.18125116080045700073e-02) (47, 6.21522404253482818604e-02) (48, 5.71862198412418365479e-02) (49, -6.80006807669997215271e-03) (50, -2.38657705485820770264e-02) (51, -4.69911806285381317139e-02) (52, 8.44167694449424743652e-02) (53, 5.72586692869663238525e-02) (54, 1.09485425055027008057e-02) (55, 7.72030726075172424316e-02) (56, 1.64789576083421707153e-02) (57, 2.68834847956895828247e-02) (58, 9.52241495251655578613e-02) (59, 9.69207957386970520020e-02) (60, 1.24897398054599761963e-02) (61, -2.05810796469449996948e-02) (62, -4.12725321948528289795e-02) (63, -2.81621376052498817444e-03) (64, 1.32769063115119934082e-01) (65, 1.14551462233066558838e-01) (66, 1.31026491522789001465e-01) (67, 2.70082373172044754028e-02) (68, -7.63447349891066551208e-03) (69, -4.78288643062114715576e-02) (70, 5.65660186111927032471e-03) (71, 1.34928941726684570312e-01) (72, 1.52368564158678054810e-02) (73, -4.95824329555034637451e-02) (74, 1.32858499884605407715e-01) (75, 1.78999323397874832153e-02) (76, 1.09060235321521759033e-01) (77, 3.98959219455718994141e-02) (78, -4.55362861976027488708e-03) (79, 1.32164314389228820801e-01) (80, -4.97437231242656707764e-02) (81, 2.23504919558763504028e-02) (82, 1.09424777328968048096e-01) (83, -3.32966558635234832764e-02) (84, 4.79768551886081695557e-02) (85, 1.15599669516086578369e-02) (86, -4.66285459697246551514e-02) (87, -2.10862290114164352417e-02) (88, 6.91845491528511047363e-02) (89, 4.93320859968662261963e-02) (90, -1.08864437788724899292e-02) (91, 9.67793837189674377441e-02) (92, 3.55384349822998046875e-02) (93, -4.11406867206096649170e-02) (94, 1.29604358226060867310e-02) (95, 9.04272571206092834473e-02) (96, 7.54343047738075256348e-02) (97, 8.86962488293647766113e-02) (98, -1.75907742232084274292e-02) (99, 1.65293235331773757935e-02) (100, 7.33710601925849914551e-02) (101, 1.19292773306369781494e-02) (102, -4.03991453349590301514e-02) (103, 7.69183710217475891113e-02) (104, 3.13898660242557525635e-02) (105, 3.39860320091247558594e-02) (106, 6.76021948456764221191e-02) (107, 5.43620027601718902588e-02) (108, 1.26932501792907714844e-01) (109, 1.91428083926439285278e-02) (110, -1.89377227798104286194e-03) (111, 3.61022055149078369141e-02) (112, 3.44621539115905761719e-02) (113, 6.98158815503120422363e-02) (114, 5.98367489874362945557e-02) (115, -5.93723021447658538818e-02) (116, -6.03963201865553855896e-03) (117, -4.36380021274089813232e-02) (118, 4.12205494940280914307e-02) (119, 5.85226751863956451416e-02) (120, 5.49157299101352691650e-02) (121, 3.31789888441562652588e-02) (122, 1.03493101894855499268e-01) (123, 7.28277042508125305176e-02) (124, 7.93608799576759338379e-02) (125, 8.29224511981010437012e-02) (126, -5.78561387956142425537e-02) (127, 7.66687765717506408691e-02) (128, 3.63980233669281005859e-02) (129, 1.11915238201618194580e-01) (0, 4.35964137315750122070e-01) (1, 4.02177959680557250977e-01) (2, 3.57739955186843872070e-01) (3, 4.87510889768600463867e-01) (4, 5.48223078250885009766e-01) (5, 5.36799848079681396484e-01) (6, 5.46678245067596435547e-01) (7, 3.73402088880538940430e-01) (8, 5.20924746990203857422e-01) (9, 5.34056067466735839844e-01) (10, 4.31838542222976684570e-01) (11, 4.61823552846908569336e-01) (12, 4.21758562326431274414e-01) (13, 4.47651475667953491211e-01) (14, 4.31082814931869506836e-01) (15, 3.60941141843795776367e-01) (16, 4.89950507879257202148e-01) (17, 5.51423132419586181641e-01) (18, 5.20193219184875488281e-01) (19, 4.39517050981521606445e-01) (20, 5.15683412551879882812e-01) (21, 4.42802459001541137695e-01) (22, 5.33988416194915771484e-01) (23, 4.94640380144119262695e-01) (24, 3.73977929353713989258e-01) (25, 3.99385482072830200195e-01) (26, 4.24072593450546264648e-01) (27, 5.40078222751617431641e-01) (28, 4.46706384420394897461e-01) (29, 5.47262966632843017578e-01) (30, 3.99922102689743041992e-01) (31, 4.42817300558090209961e-01) (32, 3.83781045675277709961e-01) (33, 3.59917014837265014648e-01) (34, 4.77925330400466918945e-01) (35, 4.43915992975234985352e-01) (36, 4.49435561895370483398e-01) (37, 4.16636437177658081055e-01) (38, 3.60313206911087036133e-01) (39, 5.36658287048339843750e-01) (40, 3.67447882890701293945e-01) (41, 4.49038475751876831055e-01) (42, 5.42887866497039794922e-01) (43, 4.68381017446517944336e-01) (44, 4.32684212923049926758e-01) (45, 4.75053280591964721680e-01) (46, 3.73748987913131713867e-01) (47, 5.51767051219940185547e-01) (48, 5.00974833965301513672e-01) (49, 4.38127905130386352539e-01) (50, 3.68089884519577026367e-01) (51, 4.39364939928054809570e-01) (52, 3.59237402677536010742e-01) (53, 4.55686897039413452148e-01) (54, 4.82398837804794311523e-01) (55, 4.30568307638168334961e-01) (56, 5.13160049915313720703e-01) (57, 4.32175546884536743164e-01) (58, 5.26000320911407470703e-01) (59, 4.38863784074783325195e-01) (60, 5.36362707614898681641e-01) (61, 3.99329751729965209961e-01) (62, 4.87119942903518676758e-01) (63, 3.78079980611801147461e-01) (64, 5.42107105255126953125e-01) (65, 5.45959413051605224609e-01) (66, 4.91453856229782104492e-01) (67, 4.18324083089828491211e-01) (68, 5.24643838405609130859e-01) (69, 4.41061764955520629883e-01) (70, 4.78389233350753784180e-01) (71, 4.40615504980087280273e-01) (72, 3.77823919057846069336e-01) (73, 4.39054936170578002930e-01) (74, 5.49586594104766845703e-01) (75, 4.53473359346389770508e-01) (76, 4.79500561952590942383e-01) (77, 5.19113004207611083984e-01) (78, 4.83614474534988403320e-01) (79, 4.61543112993240356445e-01) (80, 5.07856547832489013672e-01) (81, 4.96167391538619995117e-01) (82, 4.38350409269332885742e-01) (83, 5.08252322673797607422e-01) (84, 5.48631429672241210938e-01) (85, 4.00113970041275024414e-01) (86, 4.67992097139358520508e-01) (87, 4.96127098798751831055e-01) (88, 3.61624628305435180664e-01) (89, 3.77709776163101196289e-01) (90, 5.20995080471038818359e-01) (91, 5.15696942806243896484e-01) (92, 4.70167905092239379883e-01) (93, 4.64579194784164428711e-01) (94, 5.35976648330688476562e-01) (95, 5.10690510272979736328e-01) (96, 5.26953041553497314453e-01) (97, 4.51186388731002807617e-01) (98, 4.42632764577865600586e-01) (99, 4.81369048357009887695e-01) (100, 5.23008167743682861328e-01) (101, 5.50180673599243164062e-01) (102, 4.38370913267135620117e-01) (103, 4.52689200639724731445e-01) (104, 5.00379920005798339844e-01) (105, 4.39222663640975952148e-01) (106, 3.68568032979965209961e-01) (107, 4.75692182779312133789e-01) (108, 5.11623144149780273438e-01) (109, 4.01860505342483520508e-01) (110, 4.21411484479904174805e-01) (111, 4.14658516645431518555e-01) (112, 5.17579734325408935547e-01) (113, 5.14309227466583251953e-01) (114, 5.46628057956695556641e-01) (115, 5.29379844665527343750e-01) (116, 4.38622862100601196289e-01) (117, 4.87052351236343383789e-01) (118, 4.42201405763626098633e-01) (119, 4.31532531976699829102e-01) (120, 5.18643677234649658203e-01) (121, 3.96287232637405395508e-01) (122, 5.51875710487365722656e-01) (123, 5.26927947998046875000e-01) (124, 4.30096477270126342773e-01) (125, 3.83479505777359008789e-01) (126, 4.92613703012466430664e-01) (127, 5.11310160160064697266e-01) (128, 5.41738927364349365234e-01) (129, 3.58309715986251831055e-01) (0, 4.89820092916488647461e-02) (1, 4.79772090911865234375e-02) (2, -3.97733077406883239746e-02) (3, 1.36818453669548034668e-01) (4, 1.14738516509532928467e-01) (5, 1.79639589041471481323e-02) (6, 1.27201840281486511230e-01) (7, 8.84001925587654113770e-02) (8, -5.03298267722129821777e-02) (9, 1.13201044499874114990e-01) (10, -2.23281253129243850708e-02) (11, -6.17592819035053253174e-02) (12, 1.85301732271909713745e-02) (13, 4.36990112066268920898e-02) (14, 5.65062612295150756836e-02) (15, 1.08009137213230133057e-01) (16, 1.17063753306865692139e-01) (17, 9.83049049973487854004e-02) (18, 1.77338849753141403198e-02) (19, 6.07500113546848297119e-02) (20, 3.27691845595836639404e-02) (21, -4.09274622797966003418e-02) (22, -6.10928721725940704346e-02) (23, 1.86938177794218063354e-02) (24, -5.82994380965828895569e-03) (25, 2.32352744787931442261e-02) (26, 1.22262194752693176270e-01) (27, 6.82864859700202941895e-02) (28, 9.82589796185493469238e-02) (29, 4.59239631891250610352e-02) (30, 5.13118058443069458008e-02) (31, 4.95241908356547355652e-03) (32, 4.24726754426956176758e-02) (33, 4.53621000051498413086e-02) (34, 8.19938071072101593018e-03) (35, 1.40706729143857955933e-02) (36, 9.29977372288703918457e-02) (37, 2.03263889998197555542e-02) (38, 3.28446440398693084717e-02) (39, 2.72840056568384170532e-02) (40, -3.06736957281827926636e-02) (41, 7.41603747010231018066e-02) (42, 2.09573637694120407104e-02) (43, 3.77941280603408813477e-02) (44, 1.32760535925626754761e-02) (45, 1.37849584221839904785e-01) (46, 4.51203584671020507812e-02) (47, -5.48664592206478118896e-02) (48, 6.61259144544601440430e-02) (49, -1.45040601491928100586e-02) (50, 3.74182313680648803711e-02) (51, 9.53283384442329406738e-02) (52, -9.46559011936187744141e-03) (53, 1.19182817637920379639e-01) (54, 1.13306395709514617920e-01) (55, -5.15698119997978210449e-02) (56, 7.31121376156806945801e-02) (57, 2.94553022831678390503e-03) (58, 1.12757377326488494873e-01) (59, 1.20913825929164886475e-01) (60, 6.29548868164420127869e-03) (61, 1.55232381075620651245e-02) (62, 1.06365807354450225830e-01) (63, 9.77550223469734191895e-02) (64, -2.42017377167940139771e-02) (65, 4.87124919891357421875e-02) (66, 1.18101261556148529053e-01) (67, 1.35677888989448547363e-01) (68, -5.46099208295345306396e-02) (69, -2.22082901746034622192e-02) (70, -4.76415976881980895996e-02) (71, 9.46163609623908996582e-02) (72, 2.44869682937860488892e-02) (73, -4.03131768107414245605e-02) (74, 6.31106048822402954102e-02) (75, 1.07457138597965240479e-01) (76, 3.96966189146041870117e-02) (77, -1.16070955991744995117e-02) (78, 1.26651361584663391113e-01) (79, 3.64781469106674194336e-02) (80, 9.54149439930915832520e-02) (81, 4.61420565843582153320e-02) (82, 1.16708867251873016357e-01) (83, 1.33728727698326110840e-01) (84, -1.42936855554580688477e-02) (85, -2.70429421216249465942e-02) (86, 9.65086296200752258301e-02) (87, 2.80200634151697158813e-02) (88, -5.96710927784442901611e-02) (89, 1.14505641162395477295e-01) (90, 1.03976316750049591064e-01) (91, 1.37353196740150451660e-01) (92, 1.02196641266345977783e-01) (93, 2.62048635631799697876e-02) (94, 3.25764231383800506592e-02) (95, 1.19295291602611541748e-01) (96, 3.35581880062818527222e-03) (97, 8.57605226337909698486e-03) (98, -5.50305210053920745850e-02) (99, 1.09044708311557769775e-01) (100, 1.21951028704643249512e-01) (101, 3.89100462198257446289e-02) (102, -3.17957773804664611816e-02) (103, 1.53716355562210083008e-02) (104, -4.19359728693962097168e-02) (105, -1.11382156610488891602e-02) (106, 7.10709579288959503174e-03) (107, 5.59676140546798706055e-02) (108, 5.48705905675888061523e-02) (109, 1.73972081393003463745e-02) (110, 1.94539420772343873978e-03) (111, 1.03201664984226226807e-01) (112, 1.17854498326778411865e-01) (113, -1.18892937898635864258e-02) (114, -1.60532761365175247192e-02) (115, -3.73852904886007308960e-04) (116, 1.23975805938243865967e-01) (117, 6.92377164959907531738e-02) (118, 8.54025855660438537598e-02) (119, -3.11779212206602096558e-02) (120, -9.13566909730434417725e-05) (121, 7.16361477971076965332e-02) (122, -4.18282859027385711670e-03) (123, 1.06131710112094879150e-01) (124, -3.70100066065788269043e-02) (125, -2.05703545361757278442e-02) (126, 8.14995542168617248535e-02) (127, -2.97341775149106979370e-02) (128, 6.45913630723953247070e-02) (129, -5.83438435569405555725e-03) (0, -7.43311494588851928711e-02) (1, 6.91630691289901733398e-02) (2, -2.34022736549377441406e-02) (3, 3.11344526708126068115e-02) (4, 2.91225574910640716553e-02) (5, 1.51814389973878860474e-02) (6, 1.07364758849143981934e-01) (7, 3.21044884622097015381e-02) (8, -6.74326866865158081055e-02) (9, 1.14798117429018020630e-02) (10, 9.39369946718215942383e-02) (11, -4.78601418435573577881e-02) (12, -3.27416658401489257812e-02) (13, 6.39730244874954223633e-02) (14, -5.25170527398586273193e-02) (15, 9.92581397294998168945e-02) (16, -1.58572494983673095703e-02) (17, 4.03633303940296173096e-02) (18, -6.10089711844921112061e-02) (19, -2.50664055347442626953e-02) (20, 6.19462542235851287842e-02) (21, 8.34894031286239624023e-02) (22, -4.08897362649440765381e-02) (23, -8.11616629362106323242e-02) (24, 6.91111832857131958008e-02) (25, 1.04668214917182922363e-01) (26, 1.11387625336647033691e-01) (27, 4.46610338985919952393e-02) (28, -2.90960669517517089844e-02) (29, -6.43415227532386779785e-02) (30, -3.56770120561122894287e-02) (31, -7.04894512891769409180e-02) (32, 3.64652760326862335205e-02) (33, 2.47998796403408050537e-02) (34, -3.56426201760768890381e-02) (35, 1.07606872916221618652e-01) (36, 1.01494029164314270020e-01) (37, -3.69551144540309906006e-02) (38, 4.80819530785083770752e-02) (39, 6.61517530679702758789e-02) (40, -3.44160161912441253662e-02) (41, -7.69695192575454711914e-02) (42, -7.38336294889450073242e-02) (43, 3.10281775891780853271e-02) (44, 4.32812459766864776611e-02) (45, -1.93153284490108489990e-02) (46, -7.96275585889816284180e-02) (47, 5.25118298828601837158e-02) (48, -8.08602422475814819336e-02) (49, -6.49504140019416809082e-02) (50, -6.89068287611007690430e-02) (51, 3.59965749084949493408e-02) (52, -5.27961216866970062256e-02) (53, 8.77572782337665557861e-03) (54, 4.63359542191028594971e-02) (55, -7.90029019117355346680e-02) (56, -4.90430556237697601318e-02) (57, 8.62956792116165161133e-02) (58, -7.58936852216720581055e-02) (59, 7.59787997230887413025e-03) (60, 5.04991002380847930908e-02) (61, 9.13444757461547851562e-02) (62, -2.09597051143646240234e-02) (63, 8.32915455102920532227e-02) (64, 3.39958928525447845459e-02) (65, -7.84472674131393432617e-02) (66, 8.96812975406646728516e-02) (67, 2.61591635644435882568e-02) (68, 9.79380495846271514893e-03) (69, -4.28259931504726409912e-02) (70, -2.35587954521179199219e-02) (71, 5.03884628415107727051e-04) (72, 2.16207131743431091309e-02) (73, -6.81360214948654174805e-02) (74, -9.57792811095714569092e-03) (75, -2.28034853935241699219e-02) (76, 9.50219780206680297852e-02) (77, -1.31006836891174316406e-02) (78, -3.01556587219238281250e-02) (79, -7.29755610227584838867e-02) (80, 5.23031540215015411377e-02) (81, 1.16788316518068313599e-02) (82, 3.88380177319049835205e-02) (83, 1.03261455893516540527e-01) (84, 6.80638402700424194336e-02) (85, 1.01745620369911193848e-01) (86, -8.79359059035778045654e-03) (87, -4.06399928033351898193e-02) (88, -8.31957906484603881836e-02) (89, 8.12950581312179565430e-02) (90, 7.88665562868118286133e-02) (91, 6.31597191095352172852e-02) (92, 7.79417306184768676758e-02) (93, -8.04353803396224975586e-02) (94, 7.50337392091751098633e-02) (95, 4.47557456791400909424e-02) (96, -3.75334285199642181396e-02) (97, -7.12825506925582885742e-02) (98, 1.07039257884025573730e-01) (99, -3.83116565644741058350e-02) (100, 4.90981824696063995361e-02) (101, -5.40276430547237396240e-02) (102, 1.10466167330741882324e-01) (103, -4.24355231225490570068e-02) (104, -6.07114247977733612061e-02) (105, -2.43294835090637207031e-02) (106, 4.70582135021686553955e-02) (107, 6.01591281592845916748e-02) (108, 4.74040694534778594971e-02) (109, 7.28552490472793579102e-02) (110, 3.08074019849300384521e-02) (111, -6.73553794622421264648e-02) (112, 1.10877826809883117676e-01) (113, 7.61343985795974731445e-02) (114, -5.63057027757167816162e-02) (115, 2.30913683772087097168e-02) (116, 4.94195409119129180908e-02) (117, -5.29375039041042327881e-02) (118, 3.22079323232173919678e-02) (119, 7.11279362440109252930e-02) (120, -1.09178945422172546387e-04) (121, -8.19431394338607788086e-02) (122, -6.54445067048072814941e-02) (123, 2.72512398660182952881e-02) (124, -3.58332060277462005615e-02) (125, 1.04391321539878845215e-01) (126, 5.78738637268543243408e-02) (127, 3.87502796947956085205e-02) (128, 2.88376770913600921631e-02) (129, 2.73875258862972259521e-02) (0, 4.51111458241939544678e-02) (1, 5.73865734040737152100e-02) (2, -2.93736420571804046631e-02) (3, -8.33121035248041152954e-03) (4, 5.14695309102535247803e-02) (5, -7.69972801208496093750e-02) (6, -1.93659327924251556396e-02) (7, -9.06831119209527969360e-03) (8, 6.29859864711761474609e-02) (9, 7.98538252711296081543e-02) (10, -2.24325321614742279053e-02) (11, 5.04379533231258392334e-02) (12, -1.48360710591077804565e-02) (13, -7.57400095462799072266e-02) (14, -8.87433588504791259766e-02) (15, -3.59554253518581390381e-02) (16, -2.85180769860744476318e-02) (17, -2.88725458085536956787e-02) (18, 1.34650738909840583801e-02) (19, -1.80804729461669921875e-02) (20, -4.13179863244295120239e-03) (21, 3.11341881752014160156e-02) (22, -5.33407256007194519043e-02) (23, -2.33737491071224212646e-02) (24, 3.16520631313323974609e-02) (25, 5.05492053925991058350e-02) (26, 5.51120601594448089600e-02) (27, -5.72492405772209167480e-02) (28, 8.64044055342674255371e-02) (29, 7.31449499726295471191e-02) (30, 2.13030241429805755615e-02) (31, -8.56505036354064941406e-02) (32, -5.40184900164604187012e-02) (33, -1.43708875402808189392e-02) (34, -5.73223754763603210449e-02) (35, 5.70070110261440277100e-02) (36, -8.76775477081537246704e-03) (37, -8.51286351680755615234e-02) (38, -8.29735398292541503906e-02) (39, -6.27401247620582580566e-02) (40, 8.03943374194204807281e-04) (41, -1.38158192858099937439e-02) (42, 7.18224719166755676270e-02) (43, -5.38218114525079727173e-03) (44, 1.60053633153438568115e-02) (45, 7.66860023140907287598e-02) (46, -6.41300529241561889648e-02) (47, 4.03752289712429046631e-02) (48, 6.07740841805934906006e-02) (49, 1.04343146085739135742e-01) (50, -3.05520258843898773193e-02) (51, -1.38429990038275718689e-02) (52, 1.48031972348690032959e-02) (53, 7.17867687344551086426e-02) (54, -5.66312763839960098267e-03) (55, 9.39623340964317321777e-02) (56, 9.95947048068046569824e-02) (57, -3.75185571610927581787e-02) (58, 9.98191460967063903809e-02) (59, -6.50254338979721069336e-02) (60, -8.31160042434930801392e-03) (61, -1.85628794133663177490e-02) (62, 8.76885876059532165527e-02) (63, 5.66231273114681243896e-02) (64, -6.08562976121902465820e-02) (65, 6.24825060367584228516e-02) (66, 1.81086026132106781006e-02) (67, 2.56316624581813812256e-02) (68, 6.57658278942108154297e-02) (69, 9.30394628085196018219e-04) (70, -8.85542631149291992188e-02) (71, -5.76543435454368591309e-02) (72, 7.77073279023170471191e-02) (73, 1.01439379155635833740e-01) (74, -3.41205857694149017334e-02) (75, 9.46017820388078689575e-03) (76, 7.17707350850105285645e-02) (77, -7.49496817588806152344e-02) (78, -5.63696119934320449829e-03) (79, -6.60892277956008911133e-02) (80, -8.77977013587951660156e-02) (81, 5.78211806714534759521e-02) (82, 7.48750641942024230957e-02) (83, 9.93515476584434509277e-02) (84, 7.58049860596656799316e-02) (85, -7.13248252868652343750e-02) (86, -8.26632082462310791016e-02) (87, -4.69377227127552032471e-02) (88, -8.28105304390192031860e-03) (89, 9.48657020926475524902e-02) (90, 8.22814628481864929199e-02) (91, -2.07880996167659759521e-02) (92, 8.85581895709037780762e-02) (93, 7.18981400132179260254e-02) (94, 6.62337839603424072266e-02) (95, 6.53624236583709716797e-02) (96, 2.04677246510982513428e-02) (97, 7.54646435379981994629e-02) (98, 8.68236646056175231934e-03) (99, -9.66016785241663455963e-04) (100, 3.83142791688442230225e-02) (101, 2.24611721932888031006e-02) (102, -2.06969343125820159912e-02) (103, 2.10270248353481292725e-02) (104, 7.57339969277381896973e-02) (105, -6.45957142114639282227e-02) (106, 1.38541134074330329895e-02) (107, -7.92021453380584716797e-02) (108, -7.65950977802276611328e-02) (109, -6.02880269289016723633e-02) (110, 1.30604030564427375793e-02) (111, -1.93330906331539154053e-02) (112, -5.70932850241661071777e-02) (113, -9.25069451332092285156e-02) (114, -9.02245044708251953125e-02) (115, 7.06116929650306701660e-02) (116, 4.50512729585170745850e-02) (117, 5.10735772550106048584e-02) (118, 6.81344643235206604004e-02) (119, 1.04620130732655525208e-02) (120, -9.07631218433380126953e-02) (121, 1.81696675717830657959e-02) (122, 5.22478185594081878662e-02) (123, 3.58771812170743942261e-03) (124, -2.65359841287136077881e-02) (125, 8.38506147265434265137e-02) (126, -4.80540283024311065674e-02) (127, 3.00147235393524169922e-02) (128, -6.80732876062393188477e-02) (129, -3.37501130998134613037e-02) (0, 4.84463185071945190430e-01) (1, 5.25966763496398925781e-01) (2, 4.74826723337173461914e-01) (3, 3.65816503763198852539e-01) (4, 4.30485576391220092773e-01) (5, 5.22492468357086181641e-01) (6, 4.82600301504135131836e-01) (7, 4.16299492120742797852e-01) (8, 4.96922284364700317383e-01) (9, 5.25946915149688720703e-01) (10, 5.41511118412017822266e-01) (11, 5.29264867305755615234e-01) (12, 5.06539642810821533203e-01) (13, 3.63753944635391235352e-01) (14, 3.65279644727706909180e-01) (15, 4.07304733991622924805e-01) (16, 5.23171305656433105469e-01) (17, 4.92293089628219604492e-01) (18, 5.22742211818695068359e-01) (19, 4.80458170175552368164e-01) (20, 4.13261860609054565430e-01) (21, 4.43767219781875610352e-01) (22, 5.48347175121307373047e-01) (23, 4.22603935003280639648e-01) (24, 4.56288665533065795898e-01) (25, 3.96699219942092895508e-01) (26, 4.75853592157363891602e-01) (27, 4.23945337533950805664e-01) (28, 4.00794953107833862305e-01) (29, 5.13082027435302734375e-01) (30, 5.21678209304809570312e-01) (31, 3.96911710500717163086e-01) (32, 4.47841376066207885742e-01) (33, 4.22912567853927612305e-01) (34, 4.43387061357498168945e-01) (35, 3.59622448682785034180e-01) (36, 5.26455521583557128906e-01) (37, 4.89180415868759155273e-01) (38, 4.08269077539443969727e-01) (39, 5.30923068523406982422e-01) (40, 3.76055866479873657227e-01) (41, 5.23039996623992919922e-01) (42, 4.85330492258071899414e-01) (43, 5.02940952777862548828e-01) (44, 4.82289165258407592773e-01) (45, 3.87370675802230834961e-01) (46, 4.90829020738601684570e-01) (47, 5.16018986701965332031e-01) (48, 4.83050793409347534180e-01) (49, 3.87460201978683471680e-01) (50, 3.95639508962631225586e-01) (51, 4.65311497449874877930e-01) (52, 4.43012624979019165039e-01) (53, 4.66385632753372192383e-01) (54, 4.96552556753158569336e-01) (55, 5.11487305164337158203e-01) (56, 5.18368601799011230469e-01) (57, 3.72502714395523071289e-01) (58, 4.05406981706619262695e-01) (59, 4.27238553762435913086e-01) (60, 5.50216674804687500000e-01) (61, 4.43792194128036499023e-01) (62, 3.68751496076583862305e-01) (63, 3.59046906232833862305e-01) (64, 4.54017847776412963867e-01) (65, 4.30645674467086791992e-01) (66, 4.13885384798049926758e-01) (67, 5.23181796073913574219e-01) (68, 4.68217343091964721680e-01) (69, 4.81759160757064819336e-01) (70, 4.79132562875747680664e-01) (71, 5.34387290477752685547e-01) (72, 3.98836702108383178711e-01) (73, 4.00521069765090942383e-01) (74, 5.10305047035217285156e-01) (75, 4.48940306901931762695e-01) (76, 4.93028134107589721680e-01) (77, 4.76645678281784057617e-01) (78, 5.37043988704681396484e-01) (79, 4.49772804975509643555e-01) (80, 4.84518021345138549805e-01) (81, 4.47407394647598266602e-01) (82, 5.28928935527801513672e-01) (83, 4.60667222738265991211e-01) (84, 3.87227565050125122070e-01) (85, 4.86295968294143676758e-01) (86, 5.29986381530761718750e-01) (87, 4.33007329702377319336e-01) (88, 5.05908668041229248047e-01) (89, 3.60006600618362426758e-01) (90, 3.83491843938827514648e-01) (91, 4.99758869409561157227e-01) (92, 4.00871604681015014648e-01) (93, 4.01164621114730834961e-01) (94, 5.26541471481323242188e-01) (95, 5.34291386604309082031e-01) (96, 3.87313693761825561523e-01) (97, 5.33487260341644287109e-01) (98, 4.71775025129318237305e-01) (99, 4.75466042757034301758e-01) (100, 5.10833024978637695312e-01) (101, 5.21964430809020996094e-01) (102, 4.08345967531204223633e-01) (103, 4.23241347074508666992e-01) (104, 3.69170099496841430664e-01) (105, 3.94019991159439086914e-01) (106, 4.46254163980484008789e-01) (107, 5.47144651412963867188e-01) (108, 4.11388844251632690430e-01) (109, 3.63760620355606079102e-01) (110, 4.76791292428970336914e-01) (111, 3.84017795324325561523e-01) (112, 5.38923025131225585938e-01) (113, 4.31102842092514038086e-01) (114, 4.96894270181655883789e-01) (115, 4.54736799001693725586e-01) (116, 5.14362633228302001953e-01) (117, 4.44026082754135131836e-01) (118, 4.99396711587905883789e-01) (119, 5.13923883438110351562e-01) (120, 4.70589190721511840820e-01) (121, 5.45051753520965576172e-01) (122, 4.36298042535781860352e-01) (123, 4.14290517568588256836e-01) (124, 5.32863438129425048828e-01) (125, 3.87376695871353149414e-01) (126, 3.92332345247268676758e-01) (127, 4.82208460569381713867e-01) (128, 4.30716544389724731445e-01) (129, 4.04481142759323120117e-01) (0, -3.17084044218063354492e-02) (1, -6.41741007566452026367e-02) (2, -1.15298613905906677246e-01) (3, 3.56878452003002166748e-02) (4, -1.35398387908935546875e-01) (5, 1.87750533223152160645e-02) (6, 1.14555442705750465393e-02) (7, -7.55818467587232589722e-03) (8, 2.86100357770919799805e-02) (9, -9.19880270957946777344e-02) (10, 1.67894139885902404785e-02) (11, 3.87228839099407196045e-02) (12, -1.25183448195457458496e-01) (13, -9.88536477088928222656e-02) (14, 2.62019746005535125732e-02) (15, 3.56041304767131805420e-02) (16, -1.42274320125579833984e-01) (17, -1.45559370517730712891e-01) (18, 4.31324355304241180420e-02) (19, -1.39228841289877891541e-02) (20, -1.42754435539245605469e-01) (21, -1.42815252766013145447e-02) (22, 2.95340865850448608398e-02) (23, 3.83539311587810516357e-02) (24, -1.26393020153045654297e-01) (25, -2.85208374261856079102e-02) (26, -9.07496809959411621094e-02) (27, 2.91448384523391723633e-02) (28, -1.03856861591339111328e-01) (29, -6.27198591828346252441e-02) (30, -7.38447755575180053711e-02) (31, -5.03770001232624053955e-02) (32, -2.71855145692825317383e-02) (33, -4.79330308735370635986e-02) (34, 4.87387105822563171387e-02) (35, 1.08953500166535377502e-02) (36, -2.26475447416305541992e-02) (37, 2.19325236976146697998e-02) (38, -1.21046289801597595215e-01) (39, 3.44160608947277069092e-02) (40, -1.10261552035808563232e-01) (41, -1.06707565486431121826e-01) (42, 2.54277400672435760498e-02) (43, 2.30411998927593231201e-02) (44, -8.75724554061889648438e-02) (45, 2.96190232038497924805e-02) (46, -1.34070932865142822266e-01) (47, -7.09165185689926147461e-02) (48, -3.52415889501571655273e-02) (49, -4.65160794556140899658e-02) (50, -1.36701226234436035156e-01) (51, -7.83073157072067260742e-02) (52, -5.18636032938957214355e-02) (53, -1.20726665481925010681e-02) (54, -4.60332520306110382080e-02) (55, -2.17470973730087280273e-02) (56, -4.46868427097797393799e-02) (57, 7.61888362467288970947e-03) (58, -9.03747677803039550781e-02) (59, -6.91690891981124877930e-02) (60, -6.57578557729721069336e-02) (61, -1.33520841598510742188e-01) (62, -2.52618342638015747070e-02) (63, -1.16447135806083679199e-01) (64, -6.81990832090377807617e-02) (65, 3.72361056506633758545e-02) (66, -1.13799080252647399902e-01) (67, 3.84438745677471160889e-02) (68, -1.46593581885099411011e-02) (69, -1.20900914072990417480e-01) (70, -1.22319802641868591309e-01) (71, 2.99770385026931762695e-02) (72, -1.17045566439628601074e-01) (73, -1.25247940421104431152e-01) (74, 1.71785727143287658691e-02) (75, -2.05314308404922485352e-02) (76, -1.27305230125784873962e-02) (77, -1.02846026420593261719e-01) (78, -7.34754055738449096680e-02) (79, -4.20923680067062377930e-02) (80, 1.26421833410859107971e-02) (81, -6.37701004743576049805e-02) (82, -1.25082716345787048340e-01) (83, -5.93953114002943038940e-03) (84, 3.36174480617046356201e-02) (85, -1.32757186889648437500e-01) (86, 9.11189056932926177979e-03) (87, 2.79802922159433364868e-03) (88, -1.14232107996940612793e-01) (89, -4.00341302156448364258e-02) (90, 5.28664328157901763916e-03) (91, -8.80314111709594726562e-02) (92, -8.48378539085388183594e-02) (93, -1.07663152739405632019e-02) (94, -9.03673768043518066406e-02) (95, -1.45468652248382568359e-01) (96, -3.20935994386672973633e-02) (97, -1.38040363788604736328e-01) (98, 1.52632966637611389160e-02) (99, -1.05995116755366325378e-02) (100, -8.68836641311645507812e-02) (101, 5.62212802469730377197e-03) (102, -4.96301241219043731689e-02) (103, -7.42840617895126342773e-02) (104, -3.26232761144638061523e-02) (105, -4.04649227857589721680e-02) (106, -3.49094420671463012695e-02) (107, -6.41484707593917846680e-02) (108, -8.40954184532165527344e-02) (109, -1.32029116153717041016e-01) (110, 4.65543530881404876709e-02) (111, -1.01826488971710205078e-01) (112, -1.38278543949127197266e-01) (113, 1.15635776892304420471e-02) (114, 8.19391943514347076416e-03) (115, -2.57744640111923217773e-02) (116, -1.32575333118438720703e-01) (117, -1.34543776512145996094e-01) (118, -1.80216282606124877930e-02) (119, -3.05349081754684448242e-02) (120, -1.40895545482635498047e-01) (121, 2.75201909244060516357e-02) (122, -9.33759193867444992065e-03) (123, -7.77672976255416870117e-02) (124, 2.38274447619915008545e-02) (125, -7.31157511472702026367e-02) (126, 2.62270215898752212524e-03) (127, -6.09947256743907928467e-02) (128, -7.97200053930282592773e-02) (129, 5.06866909563541412354e-03) (0, 5.27873098850250244141e-01) (1, 3.66036087274551391602e-01) (2, 3.68839263916015625000e-01) (3, 4.81816560029983520508e-01) (4, 4.91513401269912719727e-01) (5, 4.66566830873489379883e-01) (6, 3.89276266098022460938e-01) (7, 3.66208761930465698242e-01) (8, 4.70711380243301391602e-01) (9, 4.47057157754898071289e-01) (10, 4.90724295377731323242e-01) (11, 4.04591619968414306641e-01) (12, 3.71438086032867431641e-01) (13, 3.59858334064483642578e-01) (14, 3.39373886585235595703e-01) (15, 4.57188218832015991211e-01) (16, 3.63095432519912719727e-01) (17, 3.45118612051010131836e-01) (18, 4.08632665872573852539e-01) (19, 4.89476591348648071289e-01) (20, 4.33756858110427856445e-01) (21, 3.52730572223663330078e-01) (22, 3.42983543872833251953e-01) (23, 5.24383604526519775391e-01) (24, 5.16869902610778808594e-01) (25, 4.33737426996231079102e-01) (26, 4.25525695085525512695e-01) (27, 4.11136835813522338867e-01) (28, 3.77073347568511962891e-01) (29, 4.72154468297958374023e-01) (30, 5.01075625419616699219e-01) (31, 3.79863709211349487305e-01) (32, 3.69822144508361816406e-01) (33, 4.00990515947341918945e-01) (34, 4.48019236326217651367e-01) (35, 4.60482209920883178711e-01) (36, 5.25007963180541992188e-01) (37, 4.10138696432113647461e-01) (38, 4.01800274848937988281e-01) (39, 4.57222312688827514648e-01) (40, 3.36444288492202758789e-01) (41, 4.19325023889541625977e-01) (42, 3.96689236164093017578e-01) (43, 3.56031149625778198242e-01) (44, 4.15695577859878540039e-01) (45, 3.96178096532821655273e-01) (46, 3.65704953670501708984e-01) (47, 4.03130859136581420898e-01) (48, 4.20546561479568481445e-01) (49, 5.26723921298980712891e-01) (50, 4.50819700956344604492e-01) (51, 5.27371525764465332031e-01) (52, 3.34978073835372924805e-01) (53, 3.76570791006088256836e-01) (54, 4.25612777471542358398e-01) (55, 4.74447160959243774414e-01) (56, 4.34090465307235717773e-01) (57, 3.59334915876388549805e-01) (58, 3.41811686754226684570e-01) (59, 4.29223686456680297852e-01) (60, 3.63016456365585327148e-01) (61, 4.17564421892166137695e-01) (62, 4.06088650226593017578e-01) (63, 5.32214879989624023438e-01) (64, 3.38209301233291625977e-01) (65, 4.83870714902877807617e-01) (66, 4.15835291147232055664e-01) (67, 3.43722611665725708008e-01) (68, 3.46179395914077758789e-01) (69, 4.37460213899612426758e-01) (70, 3.95297437906265258789e-01) (71, 3.64440977573394775391e-01) (72, 3.59428226947784423828e-01) (73, 5.10547876358032226562e-01) (74, 3.79169821739196777344e-01) (75, 5.07249891757965087891e-01) (76, 3.50767523050308227539e-01) (77, 3.49796921014785766602e-01) (78, 4.37024623155593872070e-01) (79, 4.73990350961685180664e-01) (80, 3.56995165348052978516e-01) (81, 4.17732506990432739258e-01) (82, 4.31047886610031127930e-01) (83, 4.22996431589126586914e-01) (84, 5.01676857471466064453e-01) (85, 4.83589023351669311523e-01) (86, 4.81248110532760620117e-01) (87, 3.37864488363265991211e-01) (88, 4.88580435514450073242e-01) (89, 3.72472792863845825195e-01) (90, 3.50169807672500610352e-01) (91, 5.04002332687377929688e-01) (92, 3.68306517601013183594e-01) (93, 5.27711272239685058594e-01) (94, 4.44710403680801391602e-01) (95, 4.48833256959915161133e-01) (96, 3.41783374547958374023e-01) (97, 3.53382021188735961914e-01) (98, 4.91804867982864379883e-01) (99, 3.65096062421798706055e-01) (100, 3.69797736406326293945e-01) (101, 3.90733808279037475586e-01) (102, 4.63472336530685424805e-01) (103, 3.80613833665847778320e-01) (104, 3.76822620630264282227e-01) (105, 4.58106964826583862305e-01) (106, 4.05044794082641601562e-01) (107, 3.87849330902099609375e-01) (108, 3.83758991956710815430e-01) (109, 4.37590330839157104492e-01) (110, 3.82022589445114135742e-01) (111, 4.53829497098922729492e-01) (112, 5.13355016708374023438e-01) (113, 3.58927965164184570312e-01) (114, 5.02585470676422119141e-01) (115, 3.54914158582687377930e-01) (116, 4.42351967096328735352e-01) (117, 4.10240560770034790039e-01) (118, 5.13438105583190917969e-01) (119, 3.55642169713973999023e-01) (120, 4.78255718946456909180e-01) (121, 4.45286840200424194336e-01) (122, 3.37385416030883789062e-01) (123, 4.36623901128768920898e-01) (124, 3.39124172925949096680e-01) (125, 4.60167795419692993164e-01) (126, 4.40676301717758178711e-01) (127, 4.48043137788772583008e-01) (128, 4.61796492338180541992e-01) (129, 4.14478212594985961914e-01) (0, -1.80753603577613830566e-01) (1, -1.97746269404888153076e-02) (2, -4.67109791934490203857e-02) (3, -1.65686085820198059082e-01) (4, -1.80599942803382873535e-01) (5, -3.75705473124980926514e-02) (6, -1.42427042126655578613e-01) (7, -6.58602118492126464844e-02) (8, -7.21360463649034500122e-03) (9, -1.33220866322517395020e-01) (10, -1.36743023991584777832e-01) (11, -1.34547069668769836426e-01) (12, -2.64430455863475799561e-02) (13, -1.22546136379241943359e-01) (14, -1.27550736069679260254e-01) (15, -3.97075191140174865723e-02) (16, -5.85418790578842163086e-02) (17, -7.72507209330797195435e-03) (18, -1.29862919449806213379e-01) (19, -1.00302815437316894531e-01) (20, -8.36735665798187255859e-02) (21, 3.91959026455879211426e-03) (22, -1.80178694427013397217e-02) (23, -1.20789110660552978516e-01) (24, 3.54124885052442550659e-03) (25, -1.76617339253425598145e-01) (26, -1.01683408021926879883e-01) (27, -8.75608026981353759766e-02) (28, -1.28959670662879943848e-01) (29, -1.18963703513145446777e-01) (30, -1.17750212550163269043e-01) (31, -1.22577846050262451172e-01) (32, -6.06470108032226562500e-02) (33, 1.12379817292094230652e-02) (34, -1.73053257167339324951e-02) (35, -1.44921138882637023926e-01) (36, 1.66538394987583160400e-02) (37, 7.13676586747169494629e-03) (38, -1.46524861454963684082e-01) (39, -1.37815788388252258301e-01) (40, -1.64420023560523986816e-01) (41, -1.01273238658905029297e-01) (42, 6.13220408558845520020e-03) (43, -3.05672697722911834717e-02) (44, -3.86200025677680969238e-02) (45, -1.80698230862617492676e-01) (46, -8.96153450012207031250e-02) (47, -5.95128312706947326660e-02) (48, -1.26506403088569641113e-01) (49, -8.76109004020690917969e-02) (50, -1.71064451336860656738e-01) (51, -1.74507513642311096191e-01) (52, -4.14499118924140930176e-02) (53, -1.42932668328285217285e-01) (54, -1.62965014576911926270e-01) (55, -4.68762032687664031982e-02) (56, -1.42738655209541320801e-01) (57, -1.02272570133209228516e-01) (58, 1.02600781247019767761e-02) (59, -5.29578179121017456055e-02) (60, -1.56459465622901916504e-01) (61, -1.08384124934673309326e-01) (62, -1.06117129325866699219e-01) (63, -5.05064148455858230591e-03) (64, -1.80260017514228820801e-01) (65, -1.23849809169769287109e-01) (66, -3.85077074170112609863e-02) (67, -9.32174324989318847656e-02) (68, -1.71523890458047389984e-04) (69, -1.77322283387184143066e-01) (70, -1.49380519986152648926e-01) (71, -1.32624581456184387207e-01) (72, -1.15473195910453796387e-01) (73, -5.26417940855026245117e-02) (74, -4.50016073882579803467e-02) (75, -3.63148562610149383545e-02) (76, -3.80666665732860565186e-02) (77, -8.09492170810699462891e-02) (78, -7.93681759387254714966e-03) (79, -8.83298516273498535156e-02) (80, -5.45872598886489868164e-02) (81, -1.42511144280433654785e-01) (82, -7.86529183387756347656e-02) (83, -1.41158206388354301453e-02) (84, -1.39167502522468566895e-01) (85, -8.26074481010437011719e-02) (86, -7.79429674148559570312e-02) (87, -8.18814039230346679688e-02) (88, -7.55313336849212646484e-02) (89, -1.49645701050758361816e-01) (90, 1.10000697895884513855e-02) (91, -1.60384271293878555298e-02) (92, -5.22473305463790893555e-02) (93, -1.50995049625635147095e-02) (94, -7.16869533061981201172e-02) (95, -1.37349680066108703613e-01) (96, -1.30053773522377014160e-01) (97, -1.07818178832530975342e-01) (98, 5.84544613957405090332e-03) (99, -4.99390475451946258545e-02) (100, -1.96446292102336883545e-02) (101, -6.18735477328300476074e-02) (102, -3.21201607584953308105e-03) (103, -7.86768198013305664062e-02) (104, -1.56022999435663223267e-02) (105, -1.22469007968902587891e-01) (106, -3.11518125236034393311e-02) (107, -6.27905055880546569824e-02) (108, -1.49468872696161270142e-02) (109, -1.06622628867626190186e-01) (110, -1.00821763277053833008e-01) (111, -5.88349718600511550903e-03) (112, -1.78220763802528381348e-01) (113, -5.00547699630260467529e-02) (114, -1.64873078465461730957e-01) (115, -1.16040930151939392090e-01) (116, 5.16705587506294250488e-03) (117, -5.16661256551742553711e-02) (118, -4.69266287982463836670e-02) (119, 9.68748610466718673706e-03) (120, -7.64226913452148437500e-02) (121, -1.30438759922981262207e-01) (122, -1.78024783730506896973e-01) (123, -1.56522944569587707520e-01) (124, -1.75177708268165588379e-01) (125, -1.06328248977661132812e-01) (126, -1.53066292405128479004e-01) (127, -7.89821445941925048828e-02) (128, -1.47340133786201477051e-01) (129, -3.96940186619758605957e-02) (0, 5.53098283708095550537e-02) (1, 6.68038800358772277832e-02) (2, 4.71659563481807708740e-02) (3, -7.50684831291437149048e-03) (4, -9.31457877159118652344e-02) (5, -2.72940956056118011475e-02) (6, -5.73971197009086608887e-02) (7, 8.41881730593740940094e-04) (8, 2.37765572965145111084e-02) (9, 8.71166810393333435059e-02) (10, 4.45221327245235443115e-02) (11, -4.19671721756458282471e-02) (12, -6.82302862405776977539e-02) (13, -7.23055899143218994141e-02) (14, 3.35333012044429779053e-02) (15, 6.84361532330513000488e-02) (16, 8.04966911673545837402e-02) (17, -1.74598395824432373047e-02) (18, 2.66042612493038177490e-02) (19, 1.22697325423359870911e-02) (20, 9.18315574526786804199e-02) (21, 8.73795971274375915527e-02) (22, 6.36768639087677001953e-02) (23, 9.11851748824119567871e-02) (24, 2.35839150846004486084e-02) (25, 4.94948588311672210693e-02) (26, -6.55222386121749877930e-02) (27, 4.16207574307918548584e-02) (28, -5.18456194549798965454e-03) (29, -6.23989477753639221191e-02) (30, -6.54179006814956665039e-02) (31, -4.85301110893487930298e-03) (32, -9.02149975299835205078e-02) (33, 3.02179753780364990234e-02) (34, -5.22200092673301696777e-02) (35, 1.26512320712208747864e-02) (36, 1.03734843432903289795e-01) (37, -5.41585311293601989746e-02) (38, 3.15073132514953613281e-02) (39, 1.78459845483303070068e-02) (40, 1.19647951796650886536e-02) (41, -3.30894552171230316162e-02) (42, -6.04319125413894653320e-02) (43, -4.88227698951959609985e-03) (44, 1.77880786359310150146e-02) (45, 3.87041233479976654053e-02) (46, -2.51944623887538909912e-02) (47, 3.07579934597015380859e-02) (48, 2.41221450269222259521e-02) (49, 9.55521091818809509277e-02) (50, 1.87535993754863739014e-02) (51, 6.62847757339477539062e-02) (52, -7.72916674613952636719e-02) (53, 3.27000916004180908203e-02) (54, 6.49687647819519042969e-02) (55, 4.30401787161827087402e-03) (56, 1.22700603678822517395e-02) (57, 9.75479409098625183105e-02) (58, -3.74199114739894866943e-02) (59, -4.21958155930042266846e-02) (60, 8.92415270209312438965e-02) (61, -4.32258434593677520752e-02) (62, -2.27154456079006195068e-02) (63, 9.58653911948204040527e-02) (64, 8.44099745154380798340e-02) (65, -4.70897145569324493408e-02) (66, 3.72922085225582122803e-02) (67, 4.44994531571865081787e-02) (68, -2.31348536908626556396e-02) (69, 4.68737743794918060303e-02) (70, 8.16874727606773376465e-02) (71, -3.84176243096590042114e-03) (72, -9.43275094032287597656e-02) (73, -8.87549817562103271484e-02) (74, -3.14033292233943939209e-02) (75, 7.82986357808113098145e-02) (76, 3.94162796437740325928e-02) (77, -5.62794432044029235840e-02) (78, -1.43003752455115318298e-02) (79, -7.18919336795806884766e-02) (80, -1.40665164217352867126e-02) (81, 5.80849014222621917725e-02) (82, -9.25166904926300048828e-02) (83, -5.40382489562034606934e-02) (84, 5.31680546700954437256e-02) (85, 7.00524225831031799316e-02) (86, 4.51622866094112396240e-02) (87, -8.29117596149444580078e-02) (88, -2.42670141160488128662e-02) (89, 1.83748565614223480225e-02) (90, 1.00780926644802093506e-01) (91, 9.91772636771202087402e-02) (92, -5.34171983599662780762e-02) (93, 9.14800390601158142090e-02) (94, -2.02331207692623138428e-02) (95, 1.62864588201045989990e-02) (96, 1.16926024202257394791e-03) (97, -7.35563933849334716797e-02) (98, 1.15031870082020759583e-02) (99, 8.44126567244529724121e-03) (100, -5.30326887965202331543e-02) (101, -4.64230068027973175049e-02) (102, 4.26791571080684661865e-02) (103, -1.67096853256225585938e-02) (104, 3.45861576497554779053e-02) (105, -3.57751213014125823975e-02) (106, 1.76444242242723703384e-03) (107, -7.05267190933227539062e-02) (108, -6.85605853796005249023e-02) (109, -2.38811932504177093506e-02) (110, 1.03201143443584442139e-01) (111, -2.42624543607234954834e-02) (112, 9.51577946543693542480e-02) (113, -8.28716251999139785767e-03) (114, -8.12774989753961563110e-03) (115, 7.12970867753028869629e-02) (116, -3.57071124017238616943e-02) (117, -5.54478690028190612793e-02) (118, -3.83927486836910247803e-02) (119, 7.13350996375083923340e-03) (120, -3.23780439794063568115e-02) (121, 9.65666696429252624512e-02) (122, 7.06231370568275451660e-02) (123, 3.71103547513484954834e-02) (124, -1.16053810343146324158e-02) (125, 2.27411352097988128662e-02) (126, 8.46993848681449890137e-02) (127, 1.72429345548152923584e-02) (128, 7.66021981835365295410e-02) (129, -7.28702247142791748047e-02) (0, 3.92003506422042846680e-01) (1, 3.55527073144912719727e-01) (2, 4.95780795812606811523e-01) (3, 5.41191458702087402344e-01) (4, 3.56049090623855590820e-01) (5, 4.69784110784530639648e-01) (6, 4.14106100797653198242e-01) (7, 4.32987242937088012695e-01) (8, 3.68711143732070922852e-01) (9, 4.80711966753005981445e-01) (10, 4.79306071996688842773e-01) (11, 4.50554996728897094727e-01) (12, 4.31001156568527221680e-01) (13, 3.88413518667221069336e-01) (14, 4.18660789728164672852e-01) (15, 3.83738011121749877930e-01) (16, 4.37527447938919067383e-01) (17, 4.77004140615463256836e-01) (18, 3.61466795206069946289e-01) (19, 5.24958848953247070312e-01) (20, 5.35088837146759033203e-01) (21, 3.89496773481369018555e-01) (22, 4.24492448568344116211e-01) (23, 3.96351486444473266602e-01) (24, 4.32187050580978393555e-01) (25, 5.19206762313842773438e-01) (26, 4.59624558687210083008e-01) (27, 4.62709516286849975586e-01) (28, 5.11676490306854248047e-01) (29, 4.98803019523620605469e-01) (30, 5.35929203033447265625e-01) (31, 5.13729751110076904297e-01) (32, 4.07678812742233276367e-01) (33, 4.10106271505355834961e-01) (34, 4.07968968152999877930e-01) (35, 4.87029939889907836914e-01) (36, 4.65272456407546997070e-01) (37, 3.87502580881118774414e-01) (38, 5.08479356765747070312e-01) (39, 3.63823622465133666992e-01) (40, 5.35847842693328857422e-01) (41, 5.45971572399139404297e-01) (42, 4.95517045259475708008e-01) (43, 5.08304595947265625000e-01) (44, 4.26693707704544067383e-01) (45, 3.92871588468551635742e-01) (46, 5.44784128665924072266e-01) (47, 5.38648068904876708984e-01) (48, 4.09738153219223022461e-01) (49, 4.21909719705581665039e-01) (50, 3.88213068246841430664e-01) (51, 4.49103504419326782227e-01) (52, 4.35968667268753051758e-01) (53, 4.77714926004409790039e-01) (54, 5.07856011390686035156e-01) (55, 4.87838536500930786133e-01) (56, 4.55836266279220581055e-01) (57, 3.93068403005599975586e-01) (58, 4.53160971403121948242e-01) (59, 4.29219931364059448242e-01) (60, 4.51626032590866088867e-01) (61, 4.31246608495712280273e-01) (62, 5.13792991638183593750e-01) (63, 4.70474690198898315430e-01) (64, 4.20815199613571166992e-01) (65, 3.92786055803298950195e-01) (66, 5.07264792919158935547e-01) (67, 5.51257967948913574219e-01) (68, 5.44336616992950439453e-01) (69, 4.16818469762802124023e-01) (70, 4.20007258653640747070e-01) (71, 4.14011925458908081055e-01) (72, 4.50222998857498168945e-01) (73, 4.50433522462844848633e-01) (74, 3.89498978853225708008e-01) (75, 4.61606591939926147461e-01) (76, 3.74850422143936157227e-01) (77, 4.63745862245559692383e-01) (78, 5.29862344264984130859e-01) (79, 5.48417866230010986328e-01) (80, 4.10962969064712524414e-01) (81, 4.06655460596084594727e-01) (82, 4.11063462495803833008e-01) (83, 4.95344847440719604492e-01) (84, 4.14380878210067749023e-01) (85, 4.51230674982070922852e-01) (86, 3.86425882577896118164e-01) (87, 4.11833375692367553711e-01) (88, 4.34892505407333374023e-01) (89, 3.91038209199905395508e-01) (90, 5.31759500503540039062e-01) (91, 4.33088511228561401367e-01) (92, 4.70162242650985717773e-01) (93, 3.69546800851821899414e-01) (94, 5.25230288505554199219e-01) (95, 4.97505128383636474609e-01) (96, 5.21861135959625244141e-01) (97, 4.71729367971420288086e-01) (98, 5.08816897869110107422e-01) (99, 4.37412232160568237305e-01) (100, 5.40297150611877441406e-01) (101, 5.25643169879913330078e-01) (102, 4.36412662267684936523e-01) (103, 5.40363132953643798828e-01) (104, 4.35140520334243774414e-01) (105, 3.59411031007766723633e-01) (106, 3.73258799314498901367e-01) (107, 5.12442588806152343750e-01) (108, 3.74055534601211547852e-01) (109, 5.03349304199218750000e-01) (110, 5.45415580272674560547e-01) (111, 5.51777660846710205078e-01) (112, 4.79026347398757934570e-01) (113, 5.49115777015686035156e-01) (114, 5.40290951728820800781e-01) (115, 4.21596258878707885742e-01) (116, 5.20442008972167968750e-01) (117, 4.20967727899551391602e-01) (118, 3.56826692819595336914e-01) (119, 5.38649976253509521484e-01) (120, 4.42252010107040405273e-01) (121, 4.82496708631515502930e-01) (122, 4.74963515996932983398e-01) (123, 4.65211600065231323242e-01) (124, 3.64179760217666625977e-01) (125, 5.21758675575256347656e-01) (126, 5.50009608268737792969e-01) (127, 3.63418370485305786133e-01) (128, 5.24824738502502441406e-01) (129, 4.81235235929489135742e-01) (0, 4.47749465703964233398e-01) (1, 4.66153830289840698242e-01) (2, 3.87617737054824829102e-01) (3, 4.31180328130722045898e-01) (4, 3.88367384672164916992e-01) (5, 4.30515676736831665039e-01) (6, 4.17374104261398315430e-01) (7, 3.47688645124435424805e-01) (8, 3.42802077531814575195e-01) (9, 4.14207249879837036133e-01) (10, 5.21626591682434082031e-01) (11, 5.18932461738586425781e-01) (12, 4.38130110502243041992e-01) (13, 3.92943382263183593750e-01) (14, 3.39510738849639892578e-01) (15, 4.96904909610748291016e-01) (16, 4.21998888254165649414e-01) (17, 4.76101368665695190430e-01) (18, 3.76136362552642822266e-01) (19, 4.63509231805801391602e-01) (20, 3.40278327465057373047e-01) (21, 3.97511720657348632812e-01) (22, 5.19237637519836425781e-01) (23, 3.66789042949676513672e-01) (24, 3.63202542066574096680e-01) (25, 4.85171705484390258789e-01) (26, 4.21605020761489868164e-01) (27, 4.56511288881301879883e-01) (28, 5.25698065757751464844e-01) (29, 3.48364800214767456055e-01) (30, 5.06796658039093017578e-01) (31, 4.71505016088485717773e-01) (32, 5.25686144828796386719e-01) (33, 3.48127126693725585938e-01) (34, 5.12486994266510009766e-01) (35, 5.09336709976196289062e-01) (36, 3.62060964107513427734e-01) (37, 4.98357832431793212891e-01) (38, 4.41704779863357543945e-01) (39, 4.72830802202224731445e-01) (40, 4.08279865980148315430e-01) (41, 4.99814510345458984375e-01) (42, 5.23962080478668212891e-01) (43, 3.72178286314010620117e-01) (44, 3.40400516986846923828e-01) (45, 4.51434284448623657227e-01) (46, 3.96514326333999633789e-01) (47, 3.56245666742324829102e-01) (48, 3.60954046249389648438e-01) (49, 4.94442671537399291992e-01) (50, 4.38420087099075317383e-01) (51, 4.66821044683456420898e-01) (52, 4.02307122945785522461e-01) (53, 5.15786170959472656250e-01) (54, 3.58574390411376953125e-01) (55, 4.99413549900054931641e-01) (56, 3.84589523077011108398e-01) (57, 3.35892558097839355469e-01) (58, 4.85799759626388549805e-01) (59, 3.77683579921722412109e-01) (60, 4.67939049005508422852e-01) (61, 3.92347514629364013672e-01) (62, 5.24440884590148925781e-01) (63, 4.19235438108444213867e-01) (64, 4.31093722581863403320e-01) (65, 3.32504600286483764648e-01) (66, 3.44857752323150634766e-01) (67, 3.64218384027481079102e-01) (68, 3.58418226242065429688e-01) (69, 4.74745184183120727539e-01) (70, 3.82574677467346191406e-01) (71, 4.72709447145462036133e-01) (72, 3.68527710437774658203e-01) (73, 3.84857118129730224609e-01) (74, 4.33501869440078735352e-01) (75, 4.06355649232864379883e-01) (76, 3.59489619731903076172e-01) (77, 4.82121974229812622070e-01) (78, 3.65186661481857299805e-01) (79, 4.32092994451522827148e-01) (80, 3.27605038881301879883e-01) (81, 3.97622376680374145508e-01) (82, 3.79373073577880859375e-01) (83, 4.63201016187667846680e-01) (84, 3.60397398471832275391e-01) (85, 3.38736712932586669922e-01) (86, 4.87863868474960327148e-01) (87, 4.68705505132675170898e-01) (88, 4.73674684762954711914e-01) (89, 3.91492336988449096680e-01) (90, 3.51772457361221313477e-01) (91, 3.79424959421157836914e-01) (92, 3.35354447364807128906e-01) (93, 4.42124873399734497070e-01) (94, 3.33510428667068481445e-01) (95, 4.49535101652145385742e-01) (96, 4.77554768323898315430e-01) (97, 4.03688937425613403320e-01) (98, 3.40025126934051513672e-01) (99, 3.42317879199981689453e-01) (100, 4.76439267396926879883e-01) (101, 4.55353707075119018555e-01) (102, 4.69935804605484008789e-01) (103, 3.51297646760940551758e-01) (104, 3.99582177400588989258e-01) (105, 5.17493307590484619141e-01) (106, 4.50682669878005981445e-01) (107, 3.64229977130889892578e-01) (108, 3.53150814771652221680e-01) (109, 3.45374673604965209961e-01) (110, 4.51959401369094848633e-01) (111, 4.21831935644149780273e-01) (112, 4.69822019338607788086e-01) (113, 4.39747601747512817383e-01) (114, 3.78824710845947265625e-01) (115, 4.46694821119308471680e-01) (116, 3.40941101312637329102e-01) (117, 3.36881697177886962891e-01) (118, 5.10477900505065917969e-01) (119, 3.42496275901794433594e-01) (120, 4.74960833787918090820e-01) (121, 4.07047659158706665039e-01) (122, 3.90391588211059570312e-01) (123, 4.51531499624252319336e-01) (124, 4.30912166833877563477e-01) (125, 4.81926709413528442383e-01) (126, 4.82719689607620239258e-01) (127, 4.10522550344467163086e-01) (128, 3.92696827650070190430e-01) (129, 3.95412206649780273438e-01) (0, 5.38762927055358886719e-01) (1, 4.33865815401077270508e-01) (2, 6.27210974693298339844e-01) (3, 5.78950941562652587891e-01) (4, 4.72889930009841918945e-01) (5, 5.05341172218322753906e-01) (6, 5.12905895709991455078e-01) (7, 4.53337281942367553711e-01) (8, 4.84554678201675415039e-01) (9, 5.54815769195556640625e-01) (10, 4.32600110769271850586e-01) (11, 5.54151654243469238281e-01) (12, 4.70708936452865600586e-01) (13, 4.49772149324417114258e-01) (14, 5.65126597881317138672e-01) (15, 5.26394188404083251953e-01) (16, 5.52248239517211914062e-01) (17, 4.80653136968612670898e-01) (18, 5.81640422344207763672e-01) (19, 4.74329739809036254883e-01) (20, 5.04741013050079345703e-01) (21, 6.26129329204559326172e-01) (22, 6.00145339965820312500e-01) (23, 4.86566454172134399414e-01) (24, 5.66980242729187011719e-01) (25, 4.81338888406753540039e-01) (26, 5.07003784179687500000e-01) (27, 4.56666141748428344727e-01) (28, 4.32696729898452758789e-01) (29, 5.78934073448181152344e-01) (30, 5.89063525199890136719e-01) (31, 4.34838980436325073242e-01) (32, 5.83654344081878662109e-01) (33, 5.22843003273010253906e-01) (34, 4.67583030462265014648e-01) (35, 5.12339890003204345703e-01) (36, 5.40775179862976074219e-01) (37, 4.53648477792739868164e-01) (38, 5.14832735061645507812e-01) (39, 4.38023716211318969727e-01) (40, 5.08885562419891357422e-01) (41, 4.83894616365432739258e-01) (42, 4.61585313081741333008e-01) (43, 5.09236037731170654297e-01) (44, 5.74060857295989990234e-01) (45, 4.84938353300094604492e-01) (46, 6.03867709636688232422e-01) (47, 4.48327094316482543945e-01) (48, 4.78204399347305297852e-01) (49, 6.26085996627807617188e-01) (50, 4.71122115850448608398e-01) (51, 5.94216048717498779297e-01) (52, 4.33459907770156860352e-01) (53, 6.05010271072387695312e-01) (54, 4.51945692300796508789e-01) (55, 4.96043354272842407227e-01) (56, 4.45514231920242309570e-01) (57, 6.02103650569915771484e-01) (58, 6.00578427314758300781e-01) (59, 5.65459311008453369141e-01) (60, 5.18536984920501708984e-01) (61, 4.95551437139511108398e-01) (62, 5.77978789806365966797e-01) (63, 5.34073054790496826172e-01) (64, 6.10855519771575927734e-01) (65, 4.92519408464431762695e-01) (66, 6.18165671825408935547e-01) (67, 5.55057406425476074219e-01) (68, 4.94383960962295532227e-01) (69, 5.56206703186035156250e-01) (70, 6.10059022903442382812e-01) (71, 5.05788743495941162109e-01) (72, 4.35369402170181274414e-01) (73, 4.97629046440124511719e-01) (74, 4.96483534574508666992e-01) (75, 4.43466454744338989258e-01) (76, 5.85416316986083984375e-01) (77, 5.36315381526947021484e-01) (78, 4.97431159019470214844e-01) (79, 5.70819795131683349609e-01) (80, 6.12228155136108398438e-01) (81, 5.62492787837982177734e-01) (82, 4.60567086935043334961e-01) (83, 5.95577359199523925781e-01) (84, 5.12397885322570800781e-01) (85, 5.15233337879180908203e-01) (86, 5.71035087108612060547e-01) (87, 6.31257116794586181641e-01) (88, 5.82489430904388427734e-01) (89, 5.44508874416351318359e-01) (90, 6.04600667953491210938e-01) (91, 5.67932367324829101562e-01) (92, 4.83587414026260375977e-01) (93, 4.97832953929901123047e-01) (94, 5.23534774780273437500e-01) (95, 4.94135111570358276367e-01) (96, 5.73046743869781494141e-01) (97, 4.41062718629837036133e-01) (98, 5.85738897323608398438e-01) (99, 5.57916879653930664062e-01) (100, 5.53408145904541015625e-01) (101, 5.74811637401580810547e-01) (102, 5.03096163272857666016e-01) (103, 5.81254959106445312500e-01) (104, 5.96299946308135986328e-01) (105, 4.57199603319168090820e-01) (106, 5.97810566425323486328e-01) (107, 4.46789830923080444336e-01) (108, 4.41243261098861694336e-01) (109, 6.19607448577880859375e-01) (110, 5.86877226829528808594e-01) (111, 4.89741057157516479492e-01) (112, 5.22501289844512939453e-01) (113, 5.24377226829528808594e-01) (114, 4.52957481145858764648e-01) (115, 5.00641644001007080078e-01) (116, 5.28099417686462402344e-01) (117, 6.11643910408020019531e-01) (118, 5.43822646141052246094e-01) (119, 4.71075922250747680664e-01) (120, 6.17990493774414062500e-01) (121, 6.10401630401611328125e-01) (122, 4.64670687913894653320e-01) (123, 5.64941465854644775391e-01) (124, 6.15223050117492675781e-01) (125, 4.98246848583221435547e-01) (126, 4.79431778192520141602e-01) (127, 4.54867631196975708008e-01) (128, 6.04491293430328369141e-01) (129, 5.29363214969635009766e-01) (0, 3.21098655462265014648e-01) (1, 3.15058290958404541016e-01) (2, 3.94667655229568481445e-01) (3, 3.89669924974441528320e-01) (4, 3.93180638551712036133e-01) (5, 3.97624820470809936523e-01) (6, 4.90619391202926635742e-01) (7, 4.50511246919631958008e-01) (8, 3.53626579046249389648e-01) (9, 4.11862343549728393555e-01) (10, 3.81247490644454956055e-01) (11, 4.36733514070510864258e-01) (12, 3.91403466463088989258e-01) (13, 3.28981548547744750977e-01) (14, 4.02726560831069946289e-01) (15, 4.36106532812118530273e-01) (16, 4.53272372484207153320e-01) (17, 3.60009521245956420898e-01) (18, 4.90202039480209350586e-01) (19, 4.36512857675552368164e-01) (20, 4.82662409543991088867e-01) (21, 3.17626953125000000000e-01) (22, 3.66097599267959594727e-01) (23, 4.12350982427597045898e-01) (24, 3.93448919057846069336e-01) (25, 3.06294441223144531250e-01) (26, 5.00377357006072998047e-01) (27, 4.53758627176284790039e-01) (28, 3.32175970077514648438e-01) (29, 4.91361409425735473633e-01) (30, 3.22021692991256713867e-01) (31, 4.28554683923721313477e-01) (32, 3.29550057649612426758e-01) (33, 3.57530742883682250977e-01) (34, 4.29070442914962768555e-01) (35, 3.97421449422836303711e-01) (36, 4.72807914018630981445e-01) (37, 4.93355304002761840820e-01) (38, 4.33639496564865112305e-01) (39, 3.89460772275924682617e-01) (40, 4.77940291166305541992e-01) (41, 3.52851867675781250000e-01) (42, 3.91097396612167358398e-01) (43, 3.84347409009933471680e-01) (44, 3.37534308433532714844e-01) (45, 3.48861902952194213867e-01) (46, 3.31923067569732666016e-01) (47, 4.41012114286422729492e-01) (48, 3.01114231348037719727e-01) (49, 4.36813801527023315430e-01) (50, 3.40714961290359497070e-01) (51, 4.06576544046401977539e-01) (52, 3.42783898115158081055e-01) (53, 3.79020959138870239258e-01) (54, 4.15052205324172973633e-01) (55, 3.93695741891860961914e-01) (56, 4.54896181821823120117e-01) (57, 4.51116353273391723633e-01) (58, 3.22947829961776733398e-01) (59, 3.94105881452560424805e-01) (60, 3.48568886518478393555e-01) (61, 4.07510429620742797852e-01) (62, 4.38717693090438842773e-01) (63, 3.38667601346969604492e-01) (64, 3.96336585283279418945e-01) (65, 4.39350754022598266602e-01) (66, 3.78657311201095581055e-01) (67, 3.03313732147216796875e-01) (68, 4.04022544622421264648e-01) (69, 4.17987853288650512695e-01) (70, 3.32965224981307983398e-01) (71, 3.56423407793045043945e-01) (72, 4.18363481760025024414e-01) (73, 4.45644170045852661133e-01) (74, 3.52499604225158691406e-01) (75, 4.70798105001449584961e-01) (76, 3.14202487468719482422e-01) (77, 4.11291092634201049805e-01) (78, 3.79857689142227172852e-01) (79, 4.78239506483078002930e-01) (80, 3.82134646177291870117e-01) (81, 3.47137838602066040039e-01) (82, 3.55869352817535400391e-01) (83, 3.06319266557693481445e-01) (84, 3.18100512027740478516e-01) (85, 3.25355470180511474609e-01) (86, 4.59521681070327758789e-01) (87, 3.91772657632827758789e-01) (88, 3.33997875452041625977e-01) (89, 3.12373995780944824219e-01) (90, 4.79486912488937377930e-01) (91, 3.47155928611755371094e-01) (92, 4.59576278924942016602e-01) (93, 3.09110850095748901367e-01) (94, 4.35991436243057250977e-01) (95, 3.18914860486984252930e-01) (96, 4.11829799413681030273e-01) (97, 4.34373646974563598633e-01) (98, 3.28556865453720092773e-01) (99, 4.65030819177627563477e-01) (100, 3.84093254804611206055e-01) (101, 4.65798586606979370117e-01) (102, 4.87794488668441772461e-01) (103, 3.73078763484954833984e-01) (104, 3.44826579093933105469e-01) (105, 3.10407131910324096680e-01) (106, 4.22654718160629272461e-01) (107, 3.68196159601211547852e-01) (108, 4.83095556497573852539e-01) (109, 3.97765666246414184570e-01) (110, 4.58470195531845092773e-01) (111, 3.18930894136428833008e-01) (112, 4.81524914503097534180e-01) (113, 4.00245517492294311523e-01) (114, 3.36838632822036743164e-01) (115, 4.56846922636032104492e-01) (116, 4.36540991067886352539e-01) (117, 3.55567663908004760742e-01) (118, 4.35860306024551391602e-01) (119, 3.15449118614196777344e-01) (120, 3.63112419843673706055e-01) (121, 4.40662652254104614258e-01) (122, 4.27544564008712768555e-01) (123, 3.52494359016418457031e-01) (124, 3.82729560136795043945e-01) (125, 3.45780074596405029297e-01) (126, 3.35721522569656372070e-01) (127, 4.81653124094009399414e-01) (128, 3.55070412158966064453e-01) (129, 4.78202670812606811523e-01) (0, -5.78168034553527832031e-02) (1, 5.68605633452534675598e-03) (2, -1.01573631167411804199e-01) (3, -1.54162440448999404907e-02) (4, 3.18805687129497528076e-02) (5, -5.03271855413913726807e-02) (6, 3.27628701925277709961e-01) (7, 3.23655277490615844727e-01) (8, -1.02010175585746765137e-01) (9, 4.78540770709514617920e-02) (10, 1.60694532096385955811e-02) (11, 1.21291987597942352295e-02) (12, -1.18212793022394180298e-02) (13, 5.23638390004634857178e-02) (14, 1.14441625773906707764e-02) (15, 7.45548680424690246582e-02) (16, -2.32903826981782913208e-02) (17, -1.08528360724449157715e-01) (18, -1.03051945567131042480e-01) (19, -6.13524913787841796875e-02) (20, -1.80213842540979385376e-02) (21, 4.71982769668102264404e-02) (22, -5.78133249655365943909e-03) (23, -3.39919216930866241455e-02) (24, 3.08684837073087692261e-02) (25, -6.07435703277587890625e-02) (26, 1.58517472445964813232e-02) (27, -4.68815900385379791260e-02) (28, -5.76243782415986061096e-03) (29, -1.16926893591880798340e-01) (30, -5.76431751251220703125e-02) (31, -7.56886601448059082031e-02) (32, 3.34562771022319793701e-02) (33, 3.25473658740520477295e-02) (34, -4.36222590506076812744e-02) (35, -2.66169812530279159546e-02) (36, -1.86874959617853164673e-02) (37, 5.20231686532497406006e-02) (38, -1.14066198468208312988e-01) (39, 2.21114885061979293823e-02) (40, -3.97904850542545318604e-02) (41, -2.61291172355413436890e-02) (42, -1.95169541984796524048e-02) (43, -8.88332724571228027344e-02) (44, -8.79537463188171386719e-02) (45, -1.05581030249595642090e-01) (46, 3.22085730731487274170e-02) (47, 6.20805136859416961670e-02) (48, -8.00537467002868652344e-02) (49, 6.99583739042282104492e-02) (50, -7.71214962005615234375e-02) (51, -4.82350029051303863525e-02) (52, 4.76575605571269989014e-02) (53, -8.63844752311706542969e-02) (54, 6.93553835153579711914e-02) (55, -1.16013083606958389282e-02) (56, -5.05532659590244293213e-02) (57, -1.15890488028526306152e-01) (58, -3.85040380060672760010e-02) (59, -4.77130198851227760315e-03) (60, -5.87816834449768066406e-02) (61, -1.09407696872949600220e-02) (62, 5.08118681609630584717e-02) (63, -7.21493959426879882812e-02) (64, -8.22413861751556396484e-02) (65, 