FANN_FLO_2.1
num_layers=3
learning_rate=0.700000
connection_rate=1.000000
network_type=0
learning_momentum=0.000000
training_algorithm=2
train_error_function=1
train_stop_function=0
cascade_output_change_fraction=0.010000
quickprop_decay=-0.000100
quickprop_mu=1.750000
rprop_increase_factor=1.200000
rprop_decrease_factor=0.500000
rprop_delta_min=0.000000
rprop_delta_max=50.000000
rprop_delta_zero=0.100000
cascade_output_stagnation_epochs=12
cascade_candidate_change_fraction=0.010000
cascade_candidate_stagnation_epochs=12
cascade_max_out_epochs=150
cascade_min_out_epochs=50
cascade_max_cand_epochs=150
cascade_min_cand_epochs=50
cascade_num_candidate_groups=2
bit_fail_limit=3.49999994039535522461e-01
cascade_candidate_limit=1.00000000000000000000e+03
cascade_weight_multiplier=4.00000005960464477539e-01
cascade_activation_functions_count=10
cascade_activation_functions=3 5 7 8 10 11 14 15 16 17 
cascade_activation_steepnesses_count=4
cascade_activation_steepnesses=2.50000000000000000000e-01 5.00000000000000000000e-01 7.50000000000000000000e-01 1.00000000000000000000e+00 
layer_sizes=130 130 130 
scale_included=0
neurons (num_inputs, activation_function, activation_steepness)=(0, 0, 0.00000000000000000000e+00) (0, 0, 0.00000000000000000000e+00) (0, 0, 0.00000000000000000000e+00) (0, 0, 0.00000000000000000000e+00) (0, 0, 0.00000000000000000000e+00) (0, 0, 0.00000000000000000000e+00) (0, 0, 0.00000000000000000000e+00) (0, 0, 0.00000000000000000000e+00) (0, 0, 0.00000000000000000000e+00) (0, 0, 0.00000000000000000000e+00) (0, 0, 0.00000000000000000000e+00) (0, 0, 0.00000000000000000000e+00) (0, 0, 0.00000000000000000000e+00) (0, 0, 0.00000000000000000000e+00) (0, 0, 0.00000000000000000000e+00) (0, 0, 0.00000000000000000000e+00) (0, 0, 0.00000000000000000000e+00) (0, 0, 0.00000000000000000000e+00) (0, 0, 0.00000000000000000000e+00) (0, 0, 0.00000000000000000000e+00) (0, 0, 0.00000000000000000000e+00) (0, 0, 0.00000000000000000000e+00) (0, 0, 0.00000000000000000000e+00) (0, 0, 0.00000000000000000000e+00) (0, 0, 0.00000000000000000000e+00) (0, 0, 0.00000000000000000000e+00) (0, 0, 0.00000000000000000000e+00) (0, 0, 0.00000000000000000000e+00) (0, 0, 0.00000000000000000000e+00) (0, 0, 0.00000000000000000000e+00) (0, 0, 0.00000000000000000000e+00) (0, 0, 0.00000000000000000000e+00) (0, 0, 0.00000000000000000000e+00) (0, 0, 0.00000000000000000000e+00) (0, 0, 0.00000000000000000000e+00) (0, 0, 0.00000000000000000000e+00) (0, 0, 0.00000000000000000000e+00) (0, 0, 0.00000000000000000000e+00) (0, 0, 0.00000000000000000000e+00) (0, 0, 0.00000000000000000000e+00) (0, 0, 0.00000000000000000000e+00) (0, 0, 0.00000000000000000000e+00) (0, 0, 0.00000000000000000000e+00) (0, 0, 0.00000000000000000000e+00) (0, 0, 0.00000000000000000000e+00) (0, 0, 0.00000000000000000000e+00) (0, 0, 0.00000000000000000000e+00) (0, 0, 0.00000000000000000000e+00) (0, 0, 0.00000000000000000000e+00) (0, 0, 0.00000000000000000000e+00) (0, 0, 0.00000000000000000000e+00) (0, 0, 0.00000000000000000000e+00) (0, 0, 0.00000000000000000000e+00) (0, 0, 0.00000000000000000000e+00) (0, 0, 0.00000000000000000000e+00) (0, 0, 0.00000000000000000000e+00) (0, 0, 0.00000000000000000000e+00) (0, 0, 0.00000000000000000000e+00) (0, 0, 0.00000000000000000000e+00) (0, 0, 0.00000000000000000000e+00) (0, 0, 0.00000000000000000000e+00) (0, 0, 0.00000000000000000000e+00) (0, 0, 0.00000000000000000000e+00) (0, 0, 0.00000000000000000000e+00) (0, 0, 0.00000000000000000000e+00) (0, 0, 0.00000000000000000000e+00) (0, 0, 0.00000000000000000000e+00) (0, 0, 0.00000000000000000000e+00) (0, 0, 0.00000000000000000000e+00) (0, 0, 0.00000000000000000000e+00) (0, 0, 0.00000000000000000000e+00) (0, 0, 0.00000000000000000000e+00) (0, 0, 0.00000000000000000000e+00) (0, 0, 0.00000000000000000000e+00) (0, 0, 0.00000000000000000000e+00) (0, 0, 0.00000000000000000000e+00) (0, 0, 0.00000000000000000000e+00) (0, 0, 0.00000000000000000000e+00) (0, 0, 0.00000000000000000000e+00) (0, 0, 0.00000000000000000000e+00) (0, 0, 0.00000000000000000000e+00) (0, 0, 0.00000000000000000000e+00) (0, 0, 0.00000000000000000000e+00) (0, 0, 0.00000000000000000000e+00) (0, 0, 0.00000000000000000000e+00) (0, 0, 0.00000000000000000000e+00) (0, 0, 0.00000000000000000000e+00) (0, 0, 0.00000000000000000000e+00) (0, 0, 0.00000000000000000000e+00) (0, 0, 0.00000000000000000000e+00) (0, 0, 0.00000000000000000000e+00) (0, 0, 0.00000000000000000000e+00) (0, 0, 0.00000000000000000000e+00) (0, 0, 0.00000000000000000000e+00) (0, 0, 0.00000000000000000000e+00) (0, 0, 0.00000000000000000000e+00) (0, 0, 0.00000000000000000000e+00) (0, 0, 0.00000000000000000000e+00) (0, 0, 0.00000000000000000000e+00) (0, 0, 0.00000000000000000000e+00) (0, 0, 0.00000000000000000000e+00) (0, 0, 0.00000000000000000000e+00) (0, 0, 0.00000000000000000000e+00) (0, 0, 0.00000000000000000000e+00) (0, 0, 0.00000000000000000000e+00) (0, 0, 0.00000000000000000000e+00) (0, 0, 0.00000000000000000000e+00) (0, 0, 0.00000000000000000000e+00) (0, 0, 0.00000000000000000000e+00) (0, 0, 0.00000000000000000000e+00) (0, 0, 0.00000000000000000000e+00) (0, 0, 0.00000000000000000000e+00) (0, 0, 0.00000000000000000000e+00) (0, 0, 0.00000000000000000000e+00) (0, 0, 0.00000000000000000000e+00) (0, 0, 0.00000000000000000000e+00) (0, 0, 0.00000000000000000000e+00) (0, 0, 0.00000000000000000000e+00) (0, 0, 0.00000000000000000000e+00) (0, 0, 0.00000000000000000000e+00) (0, 0, 0.00000000000000000000e+00) (0, 0, 0.00000000000000000000e+00) (0, 0, 0.00000000000000000000e+00) (0, 0, 0.00000000000000000000e+00) (0, 0, 0.00000000000000000000e+00) (0, 0, 0.00000000000000000000e+00) (0, 0, 0.00000000000000000000e+00) (0, 0, 0.00000000000000000000e+00) (0, 0, 0.00000000000000000000e+00) (0, 0, 0.00000000000000000000e+00) (130, 5, 5.00000000000000000000e-01) (130, 5, 5.00000000000000000000e-01) (130, 5, 5.00000000000000000000e-01) (130, 5, 5.00000000000000000000e-01) (130, 5, 5.00000000000000000000e-01) (130, 5, 5.00000000000000000000e-01) (130, 5, 5.00000000000000000000e-01) (130, 5, 5.00000000000000000000e-01) (130, 5, 5.00000000000000000000e-01) (130, 5, 5.00000000000000000000e-01) (130, 5, 5.00000000000000000000e-01) (130, 5, 5.00000000000000000000e-01) (130, 5, 5.00000000000000000000e-01) (130, 5, 5.00000000000000000000e-01) (130, 5, 5.00000000000000000000e-01) (130, 5, 5.00000000000000000000e-01) (130, 5, 5.00000000000000000000e-01) (130, 5, 5.00000000000000000000e-01) (130, 5, 5.00000000000000000000e-01) (130, 5, 5.00000000000000000000e-01) (130, 5, 5.00000000000000000000e-01) (130, 5, 5.00000000000000000000e-01) (130, 5, 5.00000000000000000000e-01) (130, 5, 5.00000000000000000000e-01) (130, 5, 5.00000000000000000000e-01) (130, 5, 5.00000000000000000000e-01) (130, 5, 5.00000000000000000000e-01) (130, 5, 5.00000000000000000000e-01) (130, 5, 5.00000000000000000000e-01) (130, 5, 5.00000000000000000000e-01) (130, 5, 5.00000000000000000000e-01) (130, 5, 5.00000000000000000000e-01) (130, 5, 5.00000000000000000000e-01) (130, 5, 5.00000000000000000000e-01) (130, 5, 5.00000000000000000000e-01) (130, 5, 5.00000000000000000000e-01) (130, 5, 5.00000000000000000000e-01) (130, 5, 5.00000000000000000000e-01) (130, 5, 5.00000000000000000000e-01) (130, 5, 5.00000000000000000000e-01) (130, 5, 5.00000000000000000000e-01) (130, 5, 5.00000000000000000000e-01) (130, 5, 5.00000000000000000000e-01) (130, 5, 5.00000000000000000000e-01) (130, 5, 5.00000000000000000000e-01) (130, 5, 5.00000000000000000000e-01) (130, 5, 5.00000000000000000000e-01) (130, 5, 5.00000000000000000000e-01) (130, 5, 5.00000000000000000000e-01) (130, 5, 5.00000000000000000000e-01) (130, 5, 5.00000000000000000000e-01) (130, 5, 5.00000000000000000000e-01) (130, 5, 5.00000000000000000000e-01) (130, 5, 5.00000000000000000000e-01) (130, 5, 5.00000000000000000000e-01) (130, 5, 5.00000000000000000000e-01) (130, 5, 5.00000000000000000000e-01) (130, 5, 5.00000000000000000000e-01) (130, 5, 5.00000000000000000000e-01) (130, 5, 5.00000000000000000000e-01) (130, 5, 5.00000000000000000000e-01) (130, 5, 5.00000000000000000000e-01) (130, 5, 5.00000000000000000000e-01) (130, 5, 5.00000000000000000000e-01) (130, 5, 5.00000000000000000000e-01) (130, 5, 5.00000000000000000000e-01) (130, 5, 5.00000000000000000000e-01) (130, 5, 5.00000000000000000000e-01) (130, 5, 5.00000000000000000000e-01) (130, 5, 5.00000000000000000000e-01) (130, 5, 5.00000000000000000000e-01) (130, 5, 5.00000000000000000000e-01) (130, 5, 5.00000000000000000000e-01) (130, 5, 5.00000000000000000000e-01) (130, 5, 5.00000000000000000000e-01) (130, 5, 5.00000000000000000000e-01) (130, 5, 5.00000000000000000000e-01) (130, 5, 5.00000000000000000000e-01) (130, 5, 5.00000000000000000000e-01) (130, 5, 5.00000000000000000000e-01) (130, 5, 5.00000000000000000000e-01) (130, 5, 5.00000000000000000000e-01) (130, 5, 5.00000000000000000000e-01) (130, 5, 5.00000000000000000000e-01) (130, 5, 5.00000000000000000000e-01) (130, 5, 5.00000000000000000000e-01) (130, 5, 5.00000000000000000000e-01) (130, 5, 5.00000000000000000000e-01) (130, 5, 5.00000000000000000000e-01) (130, 5, 5.00000000000000000000e-01) (130, 5, 5.00000000000000000000e-01) (130, 5, 5.00000000000000000000e-01) (130, 5, 5.00000000000000000000e-01) (130, 5, 5.00000000000000000000e-01) (130, 5, 5.00000000000000000000e-01) (130, 5, 5.00000000000000000000e-01) (130, 5, 5.00000000000000000000e-01) (130, 5, 5.00000000000000000000e-01) (130, 5, 5.00000000000000000000e-01) (130, 5, 5.00000000000000000000e-01) (130, 5, 5.00000000000000000000e-01) (130, 5, 5.00000000000000000000e-01) (130, 5, 5.00000000000000000000e-01) (130, 5, 5.00000000000000000000e-01) (130, 5, 5.00000000000000000000e-01) (130, 5, 5.00000000000000000000e-01) (130, 5, 5.00000000000000000000e-01) (130, 5, 5.00000000000000000000e-01) (130, 5, 5.00000000000000000000e-01) (130, 5, 5.00000000000000000000e-01) (130, 5, 5.00000000000000000000e-01) (130, 5, 5.00000000000000000000e-01) (130, 5, 5.00000000000000000000e-01) (130, 5, 5.00000000000000000000e-01) (130, 5, 5.00000000000000000000e-01) (130, 5, 5.00000000000000000000e-01) (130, 5, 5.00000000000000000000e-01) (130, 5, 5.00000000000000000000e-01) (130, 5, 5.00000000000000000000e-01) (130, 5, 5.00000000000000000000e-01) (130, 5, 5.00000000000000000000e-01) (130, 5, 5.00000000000000000000e-01) (130, 5, 5.00000000000000000000e-01) (130, 5, 5.00000000000000000000e-01) (130, 5, 5.00000000000000000000e-01) (130, 5, 5.00000000000000000000e-01) (130, 5, 5.00000000000000000000e-01) (130, 5, 5.00000000000000000000e-01) (130, 5, 5.00000000000000000000e-01) (0, 5, 0.00000000000000000000e+00) (130, 5, 5.00000000000000000000e-01) (130, 5, 5.00000000000000000000e-01) (130, 5, 5.00000000000000000000e-01) (130, 5, 5.00000000000000000000e-01) (130, 5, 5.00000000000000000000e-01) (130, 5, 5.00000000000000000000e-01) (130, 5, 5.00000000000000000000e-01) (130, 5, 5.00000000000000000000e-01) (130, 5, 5.00000000000000000000e-01) (130, 5, 5.00000000000000000000e-01) (130, 5, 5.00000000000000000000e-01) (130, 5, 5.00000000000000000000e-01) (130, 5, 5.00000000000000000000e-01) (130, 5, 5.00000000000000000000e-01) (130, 5, 5.00000000000000000000e-01) (130, 5, 5.00000000000000000000e-01) (130, 5, 5.00000000000000000000e-01) (130, 5, 5.00000000000000000000e-01) (130, 5, 5.00000000000000000000e-01) (130, 5, 5.00000000000000000000e-01) (130, 5, 5.00000000000000000000e-01) (130, 5, 5.00000000000000000000e-01) (130, 5, 5.00000000000000000000e-01) (130, 5, 5.00000000000000000000e-01) (130, 5, 5.00000000000000000000e-01) (130, 5, 5.00000000000000000000e-01) (130, 5, 5.00000000000000000000e-01) (130, 5, 5.00000000000000000000e-01) (130, 5, 5.00000000000000000000e-01) (130, 5, 5.00000000000000000000e-01) (130, 5, 5.00000000000000000000e-01) (130, 5, 5.00000000000000000000e-01) (130, 5, 5.00000000000000000000e-01) (130, 5, 5.00000000000000000000e-01) (130, 5, 5.00000000000000000000e-01) (130, 5, 5.00000000000000000000e-01) (130, 5, 5.00000000000000000000e-01) (130, 5, 5.00000000000000000000e-01) (130, 5, 5.00000000000000000000e-01) (130, 5, 5.00000000000000000000e-01) (130, 5, 5.00000000000000000000e-01) (130, 5, 5.00000000000000000000e-01) (130, 5, 5.00000000000000000000e-01) (130, 5, 5.00000000000000000000e-01) (130, 5, 5.00000000000000000000e-01) (130, 5, 5.00000000000000000000e-01) (130, 5, 5.00000000000000000000e-01) (130, 5, 5.00000000000000000000e-01) (130, 5, 5.00000000000000000000e-01) (130, 5, 5.00000000000000000000e-01) (130, 5, 5.00000000000000000000e-01) (130, 5, 5.00000000000000000000e-01) (130, 5, 5.00000000000000000000e-01) (130, 5, 5.00000000000000000000e-01) (130, 5, 5.00000000000000000000e-01) (130, 5, 5.00000000000000000000e-01) (130, 5, 5.00000000000000000000e-01) (130, 5, 5.00000000000000000000e-01) (130, 5, 5.00000000000000000000e-01) (130, 5, 5.00000000000000000000e-01) (130, 5, 5.00000000000000000000e-01) (130, 5, 5.00000000000000000000e-01) (130, 5, 5.00000000000000000000e-01) (130, 5, 5.00000000000000000000e-01) (130, 5, 5.00000000000000000000e-01) (130, 5, 5.00000000000000000000e-01) (130, 5, 5.00000000000000000000e-01) (130, 5, 5.00000000000000000000e-01) (130, 5, 5.00000000000000000000e-01) (130, 5, 5.00000000000000000000e-01) (130, 5, 5.00000000000000000000e-01) (130, 5, 5.00000000000000000000e-01) (130, 5, 5.00000000000000000000e-01) (130, 5, 5.00000000000000000000e-01) (130, 5, 5.00000000000000000000e-01) (130, 5, 5.00000000000000000000e-01) (130, 5, 5.00000000000000000000e-01) (130, 5, 5.00000000000000000000e-01) (130, 5, 5.00000000000000000000e-01) (130, 5, 5.00000000000000000000e-01) (130, 5, 5.00000000000000000000e-01) (130, 5, 5.00000000000000000000e-01) (130, 5, 5.00000000000000000000e-01) (130, 5, 5.00000000000000000000e-01) (130, 5, 5.00000000000000000000e-01) (130, 5, 5.00000000000000000000e-01) (130, 5, 5.00000000000000000000e-01) (130, 5, 5.00000000000000000000e-01) (130, 5, 5.00000000000000000000e-01) (130, 5, 5.00000000000000000000e-01) (130, 5, 5.00000000000000000000e-01) (130, 5, 5.00000000000000000000e-01) (130, 5, 5.00000000000000000000e-01) (130, 5, 5.00000000000000000000e-01) (130, 5, 5.00000000000000000000e-01) (130, 5, 5.00000000000000000000e-01) (130, 5, 5.00000000000000000000e-01) (130, 5, 5.00000000000000000000e-01) (130, 5, 5.00000000000000000000e-01) (130, 5, 5.00000000000000000000e-01) (130, 5, 5.00000000000000000000e-01) (130, 5, 5.00000000000000000000e-01) (130, 5, 5.00000000000000000000e-01) (130, 5, 5.00000000000000000000e-01) (130, 5, 5.00000000000000000000e-01) (130, 5, 5.00000000000000000000e-01) (130, 5, 5.00000000000000000000e-01) (130, 5, 5.00000000000000000000e-01) (130, 5, 5.00000000000000000000e-01) (130, 5, 5.00000000000000000000e-01) (130, 5, 5.00000000000000000000e-01) (130, 5, 5.00000000000000000000e-01) (130, 5, 5.00000000000000000000e-01) (130, 5, 5.00000000000000000000e-01) (130, 5, 5.00000000000000000000e-01) (130, 5, 5.00000000000000000000e-01) (130, 5, 5.00000000000000000000e-01) (130, 5, 5.00000000000000000000e-01) (130, 5, 5.00000000000000000000e-01) (130, 5, 5.00000000000000000000e-01) (130, 5, 5.00000000000000000000e-01) (130, 5, 5.00000000000000000000e-01) (130, 5, 5.00000000000000000000e-01) (130, 5, 5.00000000000000000000e-01) (130, 5, 5.00000000000000000000e-01) (130, 5, 5.00000000000000000000e-01) (130, 5, 5.00000000000000000000e-01) (130, 5, 5.00000000000000000000e-01) (130, 5, 5.00000000000000000000e-01) (0, 5, 0.00000000000000000000e+00) 
connections (connected_to_neuron, weight)=(0, 1.46454438567161560059e-01) (1, 1.68303057551383972168e-01) (2, 1.78117647767066955566e-01) (3, 1.31628662347793579102e-01) (4, 1.91646397113800048828e-01) (5, 1.09276764094829559326e-01) (6, 1.23498871922492980957e-01) (7, 1.54305592179298400879e-01) (8, 1.22729524970054626465e-01) (9, 2.23899215459823608398e-01) (10, 1.82208701968193054199e-01) (11, 2.90386736392974853516e-01) (12, 2.38900199532508850098e-01) (13, 1.04191072285175323486e-01) (14, 2.48575568199157714844e-01) (15, 1.18110783398151397705e-01) (16, 1.96819156408309936523e-01) (17, 2.47540175914764404297e-01) (18, 1.16554401814937591553e-01) (19, 2.38696649670600891113e-01) (20, 2.82694995403289794922e-01) (21, 1.63428962230682373047e-01) (22, 2.59138047695159912109e-01) (23, 2.41935446858406066895e-01) (24, 1.17417611181735992432e-01) (25, 1.46687760949134826660e-01) (26, 2.89785206317901611328e-01) (27, 1.28552198410034179688e-01) (28, 2.85488784313201904297e-01) (29, 1.18477948009967803955e-01) (30, 1.67807966470718383789e-01) (31, 2.57192254066467285156e-01) (32, 1.39114946126937866211e-01) (33, 2.13536545634269714355e-01) (34, 2.16867014765739440918e-01) (35, 1.91587418317794799805e-01) (36, 1.18034236133098602295e-01) (37, 1.10171832144260406494e-01) (38, 1.66707232594490051270e-01) (39, 1.57190874218940734863e-01) (40, 2.15658590197563171387e-01) (41, 2.81631648540496826172e-01) (42, 2.92155802249908447266e-01) (43, 1.71277001500129699707e-01) (44, 1.61346986889839172363e-01) (45, 2.67594516277313232422e-01) (46, 1.69287979602813720703e-01) (47, 1.31747946143150329590e-01) (48, 1.96400612592697143555e-01) (49, 2.13553294539451599121e-01) (50, 9.80793312191963195801e-02) (51, 1.28468275070190429688e-01) (52, 2.75108158588409423828e-01) (53, 2.51522004604339599609e-01) (54, 2.39421620965003967285e-01) (55, 2.67298519611358642578e-01) (56, 1.94581598043441772461e-01) (57, 2.41319373250007629395e-01) (58, 1.63032487034797668457e-01) (59, 1.95598244667053222656e-01) (60, 1.27894118428230285645e-01) (61, 2.25025862455368041992e-01) (62, 1.17525272071361541748e-01) (63, 1.56080156564712524414e-01) (64, 1.47794038057327270508e-01) (65, 2.83080041408538818359e-01) (66, 2.35058382153511047363e-01) (67, 1.35076314210891723633e-01) (68, 1.36221691966056823730e-01) (69, 1.86695203185081481934e-01) (70, 9.49641987681388854980e-02) (71, 1.72335416078567504883e-01) (72, 1.49926736950874328613e-01) (73, 1.27186015248298645020e-01) (74, 1.24042093753814697266e-01) (75, 2.84277200698852539062e-01) (76, 1.55169889330863952637e-01) (77, 2.48827755451202392578e-01) (78, 1.56816035509109497070e-01) (79, 1.15805365145206451416e-01) (80, 2.49682664871215820312e-01) (81, 1.25723198056221008301e-01) (82, 1.38554945588111877441e-01) (83, 2.01504200696945190430e-01) (84, 1.88849493861198425293e-01) (85, 1.01967953145503997803e-01) (86, 2.84402430057525634766e-01) (87, 2.60070323944091796875e-01) (88, 1.10641293227672576904e-01) (89, 2.57099330425262451172e-01) (90, 1.77056178450584411621e-01) (91, 2.91631221771240234375e-01) (92, 1.55094310641288757324e-01) (93, 1.78676918148994445801e-01) (94, 1.31332933902740478516e-01) (95, 2.21339970827102661133e-01) (96, 1.69392690062522888184e-01) (97, 2.91442871093750000000e-01) (98, 1.89454764127731323242e-01) (99, 2.74285137653350830078e-01) (100, 2.19311267137527465820e-01) (101, 2.73109078407287597656e-01) (102, 2.52688705921173095703e-01) (103, 2.47712016105651855469e-01) (104, 2.04318791627883911133e-01) (105, 9.39203128218650817871e-02) (106, 2.27752178907394409180e-01) (107, 1.38725906610488891602e-01) (108, 2.75077700614929199219e-01) (109, 1.39755740761756896973e-01) (110, 1.83454915881156921387e-01) (111, 2.35280171036720275879e-01) (112, 2.62455105781555175781e-01) (113, 1.91664993762969970703e-01) (114, 2.21838504076004028320e-01) (115, 1.48143947124481201172e-01) (116, 1.64058089256286621094e-01) (117, 2.33048141002655029297e-01) (118, 1.49059712886810302734e-01) (119, 1.55233100056648254395e-01) (120, 1.11224509775638580322e-01) (121, 2.59097754955291748047e-01) (122, 1.64751008152961730957e-01) (123, 2.78760731220245361328e-01) (124, 2.40579500794410705566e-01) (125, 1.28470391035079956055e-01) (126, 1.10567860305309295654e-01) (127, 2.22932547330856323242e-01) (128, 1.36015385389328002930e-01) (129, 1.19316220283508300781e-01) (0, 6.28132283687591552734e-01) (1, 4.73352193832397460938e-01) (2, 4.84531044960021972656e-01) (3, 5.67608833312988281250e-01) (4, 6.55801117420196533203e-01) (5, 5.03350138664245605469e-01) (6, 6.60489380359649658203e-01) (7, 4.99530166387557983398e-01) (8, 6.57335638999938964844e-01) (9, 4.94149863719940185547e-01) (10, 6.30785882472991943359e-01) (11, 4.72463697195053100586e-01) (12, 5.51602482795715332031e-01) (13, 6.37388706207275390625e-01) (14, 6.46346092224121093750e-01) (15, 5.92896580696105957031e-01) (16, 4.67131227254867553711e-01) (17, 5.28742611408233642578e-01) (18, 6.31166994571685791016e-01) (19, 4.77698922157287597656e-01) (20, 5.39868831634521484375e-01) (21, 6.29484653472900390625e-01) (22, 6.03094518184661865234e-01) (23, 6.63591265678405761719e-01) (24, 6.31320118904113769531e-01) (25, 6.51819944381713867188e-01) (26, 5.91925144195556640625e-01) (27, 5.40133774280548095703e-01) (28, 4.82624620199203491211e-01) (29, 5.25938093662261962891e-01) (30, 4.95956540107727050781e-01) (31, 5.95453500747680664062e-01) (32, 6.41216099262237548828e-01) (33, 5.73480486869812011719e-01) (34, 5.40993988513946533203e-01) (35, 5.39831995964050292969e-01) (36, 6.10628604888916015625e-01) (37, 4.89265114068984985352e-01) (38, 5.32828211784362792969e-01) (39, 4.97708529233932495117e-01) (40, 6.41502618789672851562e-01) (41, 5.88392794132232666016e-01) (42, 5.71786940097808837891e-01) (43, 4.77094739675521850586e-01) (44, 5.85380077362060546875e-01) (45, 5.37657201290130615234e-01) (46, 6.58979713916778564453e-01) (47, 5.26544332504272460938e-01) (48, 4.84474301338195800781e-01) (49, 6.13583803176879882812e-01) (50, 5.57271778583526611328e-01) (51, 5.21300971508026123047e-01) (52, 5.59788107872009277344e-01) (53, 6.12610280513763427734e-01) (54, 5.95273256301879882812e-01) (55, 6.11886858940124511719e-01) (56, 6.36437296867370605469e-01) (57, 6.55747890472412109375e-01) (58, 6.09218776226043701172e-01) (59, 5.94345211982727050781e-01) (60, 6.13890647888183593750e-01) (61, 5.14363884925842285156e-01) (62, 5.68344473838806152344e-01) (63, 6.19584619998931884766e-01) (64, 6.13239645957946777344e-01) (65, 5.73159158229827880859e-01) (66, 5.40207505226135253906e-01) (67, 5.21756410598754882812e-01) (68, 6.14551663398742675781e-01) (69, 6.24287962913513183594e-01) (70, 6.61810636520385742188e-01) (71, 5.05827665328979492188e-01) (72, 4.99741613864898681641e-01) (73, 6.11581027507781982422e-01) (74, 4.96951401233673095703e-01) (75, 5.16112625598907470703e-01) (76, 5.59155046939849853516e-01) (77, 5.73052585124969482422e-01) (78, 5.49181997776031494141e-01) (79, 5.56628823280334472656e-01) (80, 5.14593958854675292969e-01) (81, 6.34847939014434814453e-01) (82, 5.43365061283111572266e-01) (83, 5.90832412242889404297e-01) (84, 5.74544012546539306641e-01) (85, 6.15449309349060058594e-01) (86, 5.10957717895507812500e-01) (87, 5.20341038703918457031e-01) (88, 6.26231849193572998047e-01) (89, 5.33386707305908203125e-01) (90, 4.84550952911376953125e-01) (91, 5.01995146274566650391e-01) (92, 4.86722201108932495117e-01) (93, 5.94104170799255371094e-01) (94, 5.62565922737121582031e-01) (95, 4.99408930540084838867e-01) (96, 6.19947016239166259766e-01) (97, 5.03604352474212646484e-01) (98, 5.33132910728454589844e-01) (99, 6.18980884552001953125e-01) (100, 4.66397315263748168945e-01) (101, 5.93750715255737304688e-01) (102, 6.22492492198944091797e-01) (103, 4.85888451337814331055e-01) (104, 5.81296801567077636719e-01) (105, 5.09176850318908691406e-01) (106, 5.89747369289398193359e-01) (107, 5.37823259830474853516e-01) (108, 6.49493575096130371094e-01) (109, 4.93212580680847167969e-01) (110, 4.77797836065292358398e-01) (111, 6.02341473102569580078e-01) (112, 6.07519388198852539062e-01) (113, 6.32272005081176757812e-01) (114, 6.49424314498901367188e-01) (115, 5.28230905532836914062e-01) (116, 6.30804240703582763672e-01) (117, 5.81074655055999755859e-01) (118, 5.75972139835357666016e-01) (119, 6.17574572563171386719e-01) (120, 6.30078136920928955078e-01) (121, 5.77155649662017822266e-01) (122, 5.09558320045471191406e-01) (123, 6.01458072662353515625e-01) (124, 5.60455441474914550781e-01) (125, 6.29433155059814453125e-01) (126, 5.37080109119415283203e-01) (127, 5.60104668140411376953e-01) (128, 5.33361136913299560547e-01) (129, 6.55312180519104003906e-01) (0, 3.39838296175003051758e-01) (1, 4.15846735239028930664e-01) (2, 4.90030139684677124023e-01) (3, 4.91017967462539672852e-01) (4, 4.93184298276901245117e-01) (5, 5.02703189849853515625e-01) (6, 4.86576169729232788086e-01) (7, 4.40036922693252563477e-01) (8, 4.54305857419967651367e-01) (9, 4.72398370504379272461e-01) (10, 3.53082805871963500977e-01) (11, 4.16033297777175903320e-01) (12, 4.25713568925857543945e-01) (13, 3.21371823549270629883e-01) (14, 4.50274735689163208008e-01) (15, 3.21689158678054809570e-01) (16, 3.83402258157730102539e-01) (17, 3.95586222410202026367e-01) (18, 3.71468812227249145508e-01) (19, 4.30172890424728393555e-01) (20, 4.69718903303146362305e-01) (21, 3.19887965917587280273e-01) (22, 5.10772764682769775391e-01) (23, 5.11222362518310546875e-01) (24, 4.68179792165756225586e-01) (25, 4.52119022607803344727e-01) (26, 5.18944978713989257812e-01) (27, 4.62187141180038452148e-01) (28, 3.33325535058975219727e-01) (29, 3.56207162141799926758e-01) (30, 3.27370911836624145508e-01) (31, 4.76771622896194458008e-01) (32, 4.54852312803268432617e-01) (33, 4.56420391798019409180e-01) (34, 4.11795586347579956055e-01) (35, 4.02438014745712280273e-01) (36, 3.29861968755722045898e-01) (37, 3.43885451555252075195e-01) (38, 4.36989873647689819336e-01) (39, 4.42749768495559692383e-01) (40, 4.48889285326004028320e-01) (41, 4.35817569494247436523e-01) (42, 3.39577108621597290039e-01) (43, 4.26648229360580444336e-01) (44, 4.30915683507919311523e-01) (45, 3.54135006666183471680e-01) (46, 5.00628769397735595703e-01) (47, 4.21636670827865600586e-01) (48, 4.01573151350021362305e-01) (49, 3.93691211938858032227e-01) (50, 3.21835309267044067383e-01) (51, 4.39343541860580444336e-01) (52, 4.00734037160873413086e-01) (53, 4.90631669759750366211e-01) (54, 4.00980919599533081055e-01) (55, 4.40227478742599487305e-01) (56, 4.57018941640853881836e-01) (57, 4.71292525529861450195e-01) (58, 3.67515712976455688477e-01) (59, 3.89939159154891967773e-01) (60, 4.60821121931076049805e-01) (61, 3.74768346548080444336e-01) (62, 4.85757738351821899414e-01) (63, 4.84217733144760131836e-01) (64, 4.02035862207412719727e-01) (65, 3.70217472314834594727e-01) (66, 3.98420900106430053711e-01) (67, 4.13483649492263793945e-01) (68, 3.73427301645278930664e-01) (69, 3.46615701913833618164e-01) (70, 3.23834985494613647461e-01) (71, 4.48099106550216674805e-01) (72, 3.56051415205001831055e-01) (73, 5.10038971900939941406e-01) (74, 3.78279417753219604492e-01) (75, 4.96098250150680541992e-01) (76, 4.77781921625137329102e-01) (77, 4.34977501630783081055e-01) (78, 4.20342117547988891602e-01) (79, 4.43493336439132690430e-01) (80, 3.46719712018966674805e-01) (81, 4.72327262163162231445e-01) (82, 3.57963353395462036133e-01) (83, 4.43325132131576538086e-01) (84, 3.19471985101699829102e-01) (85, 3.19896548986434936523e-01) (86, 4.55499500036239624023e-01) (87, 3.34308296442031860352e-01) (88, 4.72918897867202758789e-01) (89, 5.02088606357574462891e-01) (90, 3.57252687215805053711e-01) (91, 4.99252527952194213867e-01) (92, 4.91777509450912475586e-01) (93, 4.58324402570724487305e-01) (94, 4.12366896867752075195e-01) (95, 4.04741972684860229492e-01) (96, 4.51969653367996215820e-01) (97, 4.07855957746505737305e-01) (98, 3.89169007539749145508e-01) (99, 5.16820371150970458984e-01) (100, 3.53109568357467651367e-01) (101, 4.65800672769546508789e-01) (102, 4.65630084276199340820e-01) (103, 3.99148792028427124023e-01) (104, 4.47786122560501098633e-01) (105, 4.95842188596725463867e-01) (106, 3.73713999986648559570e-01) (107, 3.64999741315841674805e-01) (108, 5.04790782928466796875e-01) (109, 3.71882826089859008789e-01) (110, 3.88001412153244018555e-01) (111, 4.93977576494216918945e-01) (112, 4.34726029634475708008e-01) (113, 3.93925815820693969727e-01) (114, 4.65142041444778442383e-01) (115, 3.96054118871688842773e-01) (116, 4.35595601797103881836e-01) (117, 4.09221202135086059570e-01) (118, 3.34230393171310424805e-01) (119, 3.63507896661758422852e-01) (120, 4.30445045232772827148e-01) (121, 4.44248944520950317383e-01) (122, 4.46440786123275756836e-01) (123, 4.83927398920059204102e-01) (124, 3.22361916303634643555e-01) (125, 4.90535169839859008789e-01) (126, 3.78238052129745483398e-01) (127, 4.00620490312576293945e-01) (128, 3.82699042558670043945e-01) (129, 3.76989156007766723633e-01) (0, 1.84316113591194152832e-01) (1, 1.09475471079349517822e-01) (2, 2.63068556785583496094e-01) (3, 1.01885877549648284912e-01) (4, 1.05189494788646697998e-01) (5, 2.29201942682266235352e-01) (6, 8.44275504350662231445e-02) (7, 1.75028502941131591797e-01) (8, 1.04306615889072418213e-01) (9, 8.20152312517166137695e-02) (10, 2.31276988983154296875e-01) (11, 7.30736851692199707031e-02) (12, 1.50736957788467407227e-01) (13, 2.36720263957977294922e-01) (14, 1.58421665430068969727e-01) (15, 2.14092358946800231934e-01) (16, 1.37522131204605102539e-01) (17, 1.35244041681289672852e-01) (18, 2.47366786003112792969e-01) (19, 9.44958329200744628906e-02) (20, 1.92408114671707153320e-01) (21, 2.03607052564620971680e-01) (22, 2.24020123481750488281e-01) (23, 1.06572039425373077393e-01) (24, 1.56960487365722656250e-01) (25, 2.35545933246612548828e-01) (26, 2.21160531044006347656e-01) (27, 2.45398759841918945312e-01) (28, 2.38541379570960998535e-01) (29, 2.53287315368652343750e-01) (30, 2.00368076562881469727e-01) (31, 1.86584889888763427734e-01) (32, 1.32315874099731445312e-01) (33, 2.53971099853515625000e-01) (34, 1.80793493986129760742e-01) (35, 1.95964902639389038086e-01) (36, 2.02817082405090332031e-01) (37, 2.54854619503021240234e-01) (38, 2.50598847866058349609e-01) (39, 1.23070076107978820801e-01) (40, 1.47431030869483947754e-01) (41, 1.81899294257164001465e-01) (42, 2.89861440658569335938e-01) (43, 2.09747657179832458496e-01) (44, 1.37098506093025207520e-01) (45, 1.23174056410789489746e-01) (46, 9.51641127467155456543e-02) (47, 1.32598012685775756836e-01) (48, 2.83418893814086914062e-01) (49, 1.30117908120155334473e-01) (50, 2.00293630361557006836e-01) (51, 2.43534222245216369629e-01) (52, 1.88362702727317810059e-01) (53, 1.20661914348602294922e-01) (54, 2.73414075374603271484e-01) (55, 1.78666308522224426270e-01) (56, 1.53124943375587463379e-01) (57, 2.79596388339996337891e-01) (58, 2.85085260868072509766e-01) (59, 1.36208966374397277832e-01) (60, 1.72905385494232177734e-01) (61, 1.29820629954338073730e-01) (62, 2.03991174697875976562e-01) (63, 1.87733039259910583496e-01) (64, 1.37668520212173461914e-01) (65, 1.03532813489437103271e-01) (66, 1.85313895344734191895e-01) (67, 2.79245078563690185547e-01) (68, 1.80628076195716857910e-01) (69, 1.24854773283004760742e-01) (70, 1.42955422401428222656e-01) (71, 1.60413458943367004395e-01) (72, 1.77749589085578918457e-01) (73, 1.46040499210357666016e-01) (74, 2.11404308676719665527e-01) (75, 1.80548235774040222168e-01) (76, 1.62240415811538696289e-01) (77, 1.75666540861129760742e-01) (78, 2.27642476558685302734e-01) (79, 2.07975968718528747559e-01) (80, 1.59729450941085815430e-01) (81, 2.81581699848175048828e-01) (82, 2.52268970012664794922e-01) (83, 1.93542450666427612305e-01) (84, 1.76195621490478515625e-01) (85, 2.28687137365341186523e-01) (86, 2.53205120563507080078e-01) (87, 1.26667141914367675781e-01) (88, 1.82949125766754150391e-01) (89, 2.26000070571899414062e-01) (90, 2.04287022352218627930e-01) (91, 1.60340398550033569336e-01) (92, 1.29199862480163574219e-01) (93, 2.63091087341308593750e-01) (94, 1.72841101884841918945e-01) (95, 1.61257252097129821777e-01) (96, 1.59216776490211486816e-01) (97, 2.44609117507934570312e-01) (98, 1.46417766809463500977e-01) (99, 2.44282484054565429688e-01) (100, 2.56870925426483154297e-01) (101, 2.29844033718109130859e-01) (102, 1.89713925123214721680e-01) (103, 1.21990717947483062744e-01) (104, 9.89033952355384826660e-02) (105, 2.70185887813568115234e-01) (106, 2.14740991592407226562e-01) (107, 1.52847200632095336914e-01) (108, 1.03507585823535919189e-01) (109, 2.52793669700622558594e-01) (110, 1.03521294891834259033e-01) (111, 8.32300931215286254883e-02) (112, 2.49540269374847412109e-01) (113, 2.24094688892364501953e-01) (114, 1.60564571619033813477e-01) (115, 2.09526211023330688477e-01) (116, 1.07263140380382537842e-01) (117, 1.72388166189193725586e-01) (118, 1.28440737724304199219e-01) (119, 1.04043044149875640869e-01) (120, 2.52191662788391113281e-01) (121, 1.85811847448348999023e-01) (122, 1.40084266662597656250e-01) (123, 1.97076648473739624023e-01) (124, 2.67477810382843017578e-01) (125, 1.00074209272861480713e-01) (126, 1.48090273141860961914e-01) (127, 1.54079228639602661133e-01) (128, 2.10405856370925903320e-01) (129, 1.11596249043941497803e-01) (0, -2.21537258476018905640e-02) (1, 7.25072175264358520508e-02) (2, 3.88799421489238739014e-02) (3, 6.51888474822044372559e-02) (4, 3.88561151921749114990e-02) (5, 6.46462291479110717773e-02) (6, 1.19011864066123962402e-01) (7, 4.21037338674068450928e-02) (8, 4.73701916635036468506e-02) (9, 1.60767093300819396973e-01) (10, 2.27567832916975021362e-02) (11, 8.31717252731323242188e-02) (12, 7.69580677151679992676e-02) (13, 4.41359691321849822998e-02) (14, 3.11386585235595703125e-03) (15, 1.44712939858436584473e-01) (16, 3.74346971511840820312e-04) (17, 1.01650416851043701172e-01) (18, 4.81585077941417694092e-02) (19, 1.00151151418685913086e-02) (20, 1.33843898773193359375e-01) (21, 1.24147176742553710938e-01) (22, 1.51451051235198974609e-01) (23, 4.79234419763088226318e-02) (24, 5.93139864504337310791e-02) (25, 1.00231066346168518066e-01) (26, -6.62282062694430351257e-03) (27, 1.00216954946517944336e-01) (28, 1.56188100576400756836e-01) (29, 6.33943676948547363281e-02) (30, 7.90515318512916564941e-02) (31, 2.90362332016229629517e-02) (32, 2.20476221293210983276e-02) (33, -3.56483012437820434570e-02) (34, 6.90907835960388183594e-02) (35, 1.86964105814695358276e-02) (36, 4.04969267547130584717e-02) (37, 4.19148616492748260498e-02) (38, 7.31356889009475708008e-02) (39, 1.57642364501953125000e-03) (40, 1.04970276355743408203e-01) (41, 4.53659407794475555420e-02) (42, 7.52739608287811279297e-02) (43, 1.39426633715629577637e-01) (44, 1.53580352663993835449e-01) (45, 3.51160578429698944092e-02) (46, 5.50232827663421630859e-03) (47, 8.75289365649223327637e-02) (48, 1.08566030859947204590e-01) (49, 7.89990499615669250488e-02) (50, 1.46836936473846435547e-01) (51, 9.84152406454086303711e-02) (52, 7.45864361524581909180e-02) (53, -1.58898066729307174683e-02) (54, 1.49821177124977111816e-01) (55, 5.44711761176586151123e-02) (56, 1.06912717223167419434e-01) (57, 9.18397009372711181641e-02) (58, 1.59695535898208618164e-01) (59, 1.31697654724121093750e-02) (60, 1.54288366436958312988e-01) (61, 1.34631559252738952637e-01) (62, 1.62261351943016052246e-01) (63, 1.36880740523338317871e-01) (64, -3.52324545383453369141e-02) (65, 5.81293068826198577881e-02) (66, -1.06533914804458618164e-02) (67, 1.58238813281059265137e-01) (68, 1.30064055323600769043e-01) (69, -3.75528587028384208679e-03) (70, 9.48939919471740722656e-02) (71, 9.29673761129379272461e-02) (72, 1.12360075116157531738e-01) (73, 4.55243699252605438232e-02) (74, 1.37939393520355224609e-01) (75, 1.57402902841567993164e-01) (76, 8.06026607751846313477e-02) (77, 9.87786948680877685547e-02) (78, -1.67335700243711471558e-02) (79, -3.11842504888772964478e-02) (80, 9.61695909500122070312e-02) (81, 1.32150784134864807129e-01) (82, 6.80007413029670715332e-02) (83, 9.83321070671081542969e-02) (84, 7.75842145085334777832e-02) (85, -3.21506969630718231201e-02) (86, 5.31725548207759857178e-02) (87, 8.11129361391067504883e-02) (88, 7.46949762105941772461e-02) (89, 8.45564901828765869141e-03) (90, 1.23928055167198181152e-01) (91, 6.85276091098785400391e-02) (92, 1.53424367308616638184e-01) (93, 1.35218352079391479492e-02) (94, 7.15306773781776428223e-02) (95, 2.61164437979459762573e-02) (96, 1.49065688252449035645e-01) (97, 1.57143428921699523926e-01) (98, 1.19568139314651489258e-01) (99, -8.45137238502502441406e-03) (100, -3.23041193187236785889e-02) (101, 7.46249407529830932617e-02) (102, 3.12836095690727233887e-02) (103, -6.32436526939272880554e-03) (104, 1.16410940885543823242e-01) (105, 1.28431648015975952148e-01) (106, 1.60575419664382934570e-01) (107, 1.35588645935058593750e-03) (108, -1.65298534557223320007e-03) (109, 2.81368177384138107300e-02) (110, 1.05445146560668945312e-01) (111, 2.63967793434858322144e-02) (112, 6.05712942779064178467e-02) (113, 3.17567661404609680176e-02) (114, 1.45950824022293090820e-01) (115, 5.56707382202148437500e-03) (116, -2.43130456656217575073e-02) (117, -1.93688143044710159302e-02) (118, 7.84232020378112792969e-02) (119, 6.86892345547676086426e-02) (120, 6.99101909995079040527e-02) (121, -9.44039225578308105469e-03) (122, 1.45232647657394409180e-01) (123, 1.35006293654441833496e-01) (124, 6.05680309236049652100e-02) (125, -2.30372156947851181030e-02) (126, 2.35884916037321090698e-02) (127, 6.15853108465671539307e-02) (128, 7.43833407759666442871e-02) (129, -2.93513666838407516479e-02) (0, -1.16127207875251770020e-02) (1, -1.30584314465522766113e-02) (2, -1.10726170241832733154e-01) (3, -1.24175623059272766113e-02) (4, -1.39651000499725341797e-01) (5, 4.72807586193084716797e-02) (6, 9.68329608440399169922e-03) (7, -9.05989930033683776855e-02) (8, -1.35652363300323486328e-01) (9, -1.46994590759277343750e-01) (10, 2.44091134518384933472e-02) (11, 6.60018622875213623047e-03) (12, -1.08154051005840301514e-01) (13, 1.72874759882688522339e-02) (14, -8.65994617342948913574e-02) (15, -1.15221925079822540283e-01) (16, 2.72352080792188644409e-02) (17, -9.59911867976188659668e-02) (18, 3.76964211463928222656e-02) (19, -7.42328688502311706543e-02) (20, -6.94099590182304382324e-02) (21, -1.15877464413642883301e-02) (22, 6.97027146816253662109e-03) (23, -8.80969688296318054199e-02) (24, -8.37438628077507019043e-02) (25, -1.20910890400409698486e-01) (26, 1.24850701540708541870e-02) (27, -1.12118571996688842773e-03) (28, -8.13181921839714050293e-02) (29, 4.75184321403503417969e-02) (30, 4.23238426446914672852e-03) (31, -1.03374354541301727295e-01) (32, -5.05042001605033874512e-02) (33, -6.25313445925712585449e-02) (34, -2.13117152452468872070e-03) (35, -5.67428395152091979980e-02) (36, -1.14807732403278350830e-01) (37, -1.09088495373725891113e-02) (38, 1.76131557673215866089e-02) (39, -1.29667595028877258301e-02) (40, 3.02781444042921066284e-02) (41, 4.65300679206848144531e-02) (42, -7.31617957353591918945e-03) (43, -3.93651425838470458984e-04) (44, -5.40374442934989929199e-02) (45, -4.57702204585075378418e-02) (46, -9.77643057703971862793e-02) (47, 3.68921160697937011719e-02) (48, 7.42195546627044677734e-03) (49, -9.68819186091423034668e-02) (50, -1.32598340511322021484e-01) (51, -1.84686854481697082520e-02) (52, -4.09152880311012268066e-02) (53, -1.01231150329113006592e-01) (54, -3.02861854434013366699e-02) (55, -5.76237365603446960449e-02) (56, -1.19728155434131622314e-01) (57, -1.09066061675548553467e-01) (58, -1.11191980540752410889e-01) (59, -4.18625250458717346191e-02) (60, -2.21449211239814758301e-02) (61, -2.78059169650077819824e-02) (62, 2.82580237835645675659e-02) (63, -1.05535499751567840576e-01) (64, 2.70593147724866867065e-02) (65, -5.17432019114494323730e-02) (66, -8.62929150462150573730e-02) (67, 3.72761189937591552734e-02) (68, -1.38402938842773437500e-01) (69, 2.34811883419752120972e-02) (70, 1.06983631849288940430e-02) (71, -3.07152792811393737793e-02) (72, -7.01317116618156433105e-02) (73, -1.41458332538604736328e-01) (74, -1.27814710140228271484e-01) (75, -2.00180485844612121582e-02) (76, -8.10083076357841491699e-02) (77, -1.44693374633789062500e-01) (78, -9.95476171374320983887e-02) (79, -1.34542763233184814453e-01) (80, -9.77802798151969909668e-02) (81, -3.15883681178092956543e-02) (82, -1.43785178661346435547e-01) (83, -3.52176949381828308105e-02) (84, -1.41913950443267822266e-01) (85, 1.45587753504514694214e-02) (86, -1.48218572139739990234e-01) (87, -1.47972583770751953125e-01) (88, -1.28524377942085266113e-02) (89, -4.91073653101921081543e-02) (90, 1.43537353724241256714e-02) (91, 5.56646287441253662109e-03) (92, -8.20692107081413269043e-02) (93, 2.43251901119947433472e-02) (94, -4.56774979829788208008e-03) (95, -7.81143456697463989258e-03) (96, -1.24994285404682159424e-01) (97, -1.66965201497077941895e-02) (98, -5.61393424868583679199e-02) (99, 2.77239065617322921753e-02) (100, -8.25140997767448425293e-02) (101, -5.20833060145378112793e-02) (102, -1.59139186143875122070e-03) (103, 1.53386425226926803589e-02) (104, -4.10786643624305725098e-02) (105, -4.74274680018424987793e-02) (106, 4.89247143268585205078e-02) (107, 3.97502183914184570312e-02) (108, 4.37512099742889404297e-02) (109, -1.11555032432079315186e-01) (110, -1.43874526023864746094e-01) (111, -1.36654973030090332031e-01) (112, 1.58015638589859008789e-03) (113, -7.95091912150382995605e-02) (114, 5.10627627372741699219e-02) (115, -2.62063071131706237793e-02) (116, -8.76188799738883972168e-02) (117, -4.82336804270744323730e-02) (118, -1.01070277392864227295e-01) (119, -1.26536965370178222656e-01) (120, -1.45182371139526367188e-01) (121, -1.18127532303333282471e-01) (122, -7.40093737840652465820e-03) (123, -2.50918343663215637207e-02) (124, 4.37769889831542968750e-02) (125, -7.85329863429069519043e-02) (126, -1.42209470272064208984e-01) (127, 4.79746162891387939453e-02) (128, -1.28730654716491699219e-01) (129, -1.41373351216316223145e-02) (0, -4.11107726395130157471e-02) (1, -1.10863834619522094727e-01) (2, -5.06553314626216888428e-02) (3, -1.26523852348327636719e-01) (4, -4.91181500256061553955e-02) (5, -9.09025967121124267578e-02) (6, 3.80910597741603851318e-02) (7, 3.37111875414848327637e-02) (8, 2.16634552925825119019e-02) (9, -6.50813058018684387207e-02) (10, 1.64837352931499481201e-02) (11, -1.20131336152553558350e-01) (12, -9.75402258336544036865e-03) (13, -9.82612371444702148438e-02) (14, -3.87180633842945098877e-02) (15, -9.70611274242401123047e-02) (16, -6.84176757931709289551e-02) (17, -5.77818751335144042969e-02) (18, -1.02013140916824340820e-01) (19, -9.71057116985321044922e-02) (20, -1.75546016544103622437e-02) (21, -2.24780058488249778748e-03) (22, -1.41211509704589843750e-01) (23, -1.04273349046707153320e-01) (24, -8.44127833843231201172e-02) (25, -8.79794657230377197266e-02) (26, -3.30577082931995391846e-02) (27, 3.65739129483699798584e-02) (28, -6.46609440445899963379e-02) (29, -1.18101738393306732178e-01) (30, -9.85142290592193603516e-02) (31, -9.07939076423645019531e-02) (32, -1.35204613208770751953e-01) (33, 5.33074103295803070068e-02) (34, -2.48360242694616317749e-02) (35, 1.85801517218351364136e-02) (36, -8.57887566089630126953e-02) (37, -1.39974560588598251343e-02) (38, -1.75600256770849227905e-02) (39, -9.36582386493682861328e-02) (40, -7.62694850564002990723e-02) (41, -2.33155135065317153931e-02) (42, -2.62236203998327255249e-02) (43, -1.02759003639221191406e-01) (44, -3.25621850788593292236e-02) (45, -3.51345427334308624268e-02) (46, -6.87809959053993225098e-02) (47, 3.57373617589473724365e-02) (48, -1.24600231647491455078e-01) (49, -1.18358574807643890381e-01) (50, -1.45471300929784774780e-02) (51, -5.57421147823333740234e-02) (52, -2.01725568622350692749e-02) (53, -2.62482976540923118591e-03) (54, -7.81069099903106689453e-02) (55, -1.04573637247085571289e-01) (56, -1.30835294723510742188e-01) (57, -1.11775934696197509766e-01) (58, 1.97647642344236373901e-02) (59, 2.40000169724225997925e-02) (60, 5.85053348913788795471e-03) (61, -3.21522243320941925049e-02) (62, -1.44733309745788574219e-01) (63, -9.51823294162750244141e-02) (64, -9.15174484252929687500e-02) (65, -9.57937240600585937500e-02) (66, 3.27039286494255065918e-02) (67, -1.07646733522415161133e-01) (68, 1.95478927344083786011e-02) (69, -2.09780838340520858765e-02) (70, -1.40836477279663085938e-01) (71, -1.10026216134428977966e-03) (72, -5.41341006755828857422e-02) (73, 6.23081112280488014221e-03) (74, -4.09496910870075225830e-02) (75, -3.72113799676299095154e-03) (76, -1.03429049253463745117e-01) (77, -9.44555699825286865234e-02) (78, -7.67557993531227111816e-02) (79, 3.07173561304807662964e-03) (80, -1.35566234588623046875e-01) (81, -2.41312887519598007202e-02) (82, -1.36998862028121948242e-01) (83, -1.02443128824234008789e-01) (84, -1.23871743679046630859e-01) (85, -7.48272016644477844238e-02) (86, 1.72275416553020477295e-02) (87, -1.88479032367467880249e-02) (88, -1.38772189617156982422e-01) (89, -1.06806904077529907227e-01) (90, -6.56029954552650451660e-02) (91, 4.84003387391567230225e-02) (92, -9.78630781173706054688e-02) (93, 5.31735680997371673584e-02) (94, -7.42285028100013732910e-02) (95, -1.20185665786266326904e-01) (96, -1.22651457786560058594e-01) (97, 3.42861637473106384277e-02) (98, -1.14799126982688903809e-01) (99, 8.68082977831363677979e-03) (100, -6.35049119591712951660e-02) (101, -8.93200933933258056641e-02) (102, 3.51820848882198333740e-02) (103, -5.73671460151672363281e-02) (104, -1.31657719612121582031e-01) (105, -1.33463323116302490234e-01) (106, -8.08378458023071289062e-02) (107, -3.69357084855437278748e-03) (108, -4.00516577064990997314e-02) (109, -1.10325425863265991211e-01) (110, -1.32354116067290306091e-03) (111, -6.83744763955473899841e-03) (112, -7.91873633861541748047e-02) (113, -6.37945309281349182129e-02) (114, 4.30022738873958587646e-02) (115, -2.33785752207040786743e-02) (116, -8.57121050357818603516e-02) (117, -1.25598609447479248047e-01) (118, -9.85701084136962890625e-02) (119, -2.98235882073640823364e-02) (120, -7.33186816796660423279e-03) (121, 1.10555384308099746704e-02) (122, 4.81154285371303558350e-02) (123, -8.63128602504730224609e-02) (124, -2.20501329749822616577e-02) (125, 4.12242375314235687256e-02) (126, -1.07111126184463500977e-01) (127, 2.15395670384168624878e-02) (128, 5.29354475438594818115e-02) (129, -7.63785913586616516113e-02) (0, -5.69101870059967041016e-02) (1, -5.16885221004486083984e-02) (2, -9.11851823329925537109e-02) (3, -1.11799806356430053711e-01) (4, 1.88621114939451217651e-02) (5, 5.34175001084804534912e-02) (6, 2.54632513970136642456e-02) (7, -1.69994449242949485779e-03) (8, -1.33362829685211181641e-01) (9, 8.08171369135379791260e-03) (10, -1.33165180683135986328e-01) (11, -6.93694129586219787598e-02) (12, -5.39665222167968750000e-02) (13, 2.26359050720930099487e-02) (14, -1.20970673859119415283e-01) (15, -1.16870716214179992676e-01) (16, -8.30494426190853118896e-03) (17, -1.43633157014846801758e-01) (18, -5.00457501038908958435e-03) (19, -7.42926970124244689941e-02) (20, 3.10699455440044403076e-04) (21, -1.40230536460876464844e-01) (22, -1.67727079242467880249e-02) (23, -6.13355748355388641357e-02) (24, -2.88030076771974563599e-02) (25, -5.44098317623138427734e-02) (26, -2.85059381276369094849e-02) (27, -6.13991431891918182373e-02) (28, -9.74984467029571533203e-02) (29, -1.83034744113683700562e-02) (30, 1.13851521164178848267e-02) (31, -1.21033694595098495483e-02) (32, 1.65726058185100555420e-02) (33, -2.65720691531896591187e-02) (34, 4.08143065869808197021e-02) (35, 3.48944496363401412964e-03) (36, -1.15222230553627014160e-01) (37, -1.02328568696975708008e-01) (38, 2.03181337565183639526e-03) (39, -1.37662496417760848999e-02) (40, -1.31813049316406250000e-01) (41, -1.44764304161071777344e-01) (42, -1.63105037063360214233e-02) (43, -9.29863154888153076172e-02) (44, 1.71015374362468719482e-02) (45, -1.36710345745086669922e-01) (46, -5.34704923629760742188e-02) (47, -4.06247861683368682861e-02) (48, -1.43202245235443115234e-01) (49, 3.73531840741634368896e-02) (50, 3.25614437460899353027e-02) (51, -1.02241784334182739258e-01) (52, -1.39801323413848876953e-01) (53, -3.38347768411040306091e-03) (54, -2.84504462033510208130e-02) (55, -1.28895044326782226562e-01) (56, -1.01578980684280395508e-01) (57, 2.30769626796245574951e-04) (58, -8.40463340282440185547e-02) (59, -1.28532916307449340820e-01) (60, -1.53355803340673446655e-02) (61, -1.07594758272171020508e-01) (62, -1.07035577297210693359e-01) (63, -1.09051555395126342773e-01) (64, 8.63621570169925689697e-03) (65, -1.32976975291967391968e-02) (66, -5.66526949405670166016e-02) (67, -1.23742282390594482422e-01) (68, -9.94158685207366943359e-02) (69, -4.44103963673114776611e-02) (70, 3.20252105593681335449e-02) (71, -1.15022853016853332520e-01) (72, 4.82904277741909027100e-02) (73, -1.45338535308837890625e-01) (74, -6.77124038338661193848e-02) (75, -4.25412273034453392029e-03) (76, -6.12972192466259002686e-02) (77, 1.53729133307933807373e-02) (78, 1.04717705398797988892e-02) (79, 3.65954600274562835693e-02) (80, -1.02880746126174926758e-01) (81, -7.86146223545074462891e-02) (82, -3.80115099251270294189e-02) (83, -2.15256121009588241577e-02) (84, -1.43441438674926757812e-01) (85, 1.68627612292766571045e-02) (86, 5.01841865479946136475e-02) (87, -1.16790845990180969238e-01) (88, -6.59918561577796936035e-02) (89, -8.71283113956451416016e-02) (90, -1.27226382493972778320e-01) (91, -5.63262999057769775391e-02) (92, -3.83731611073017120361e-02) (93, -9.98487174510955810547e-02) (94, -1.19374386966228485107e-01) (95, -8.75619351863861083984e-02) (96, -1.53637137264013290405e-02) (97, 1.96816157549619674683e-02) (98, 2.64077167958021163940e-02) (99, -1.28359556198120117188e-01) (100, -1.01442128419876098633e-01) (101, -1.00311547517776489258e-01) (102, -9.80497598648071289062e-02) (103, -8.44241678714752197266e-02) (104, -7.87253081798553466797e-02) (105, -9.83379185199737548828e-02) (106, -1.27459675073623657227e-01) (107, 2.25938539952039718628e-02) (108, -2.77654137462377548218e-02) (109, -1.55952479690313339233e-02) (110, -7.15892091393470764160e-02) (111, 3.81429158151149749756e-02) (112, -9.45549309253692626953e-02) (113, 5.29655478894710540771e-02) (114, 2.92471591383218765259e-02) (115, -5.49208140000700950623e-03) (116, -6.76060095429420471191e-02) (117, -1.59522201865911483765e-02) (118, -7.13198855519294738770e-02) (119, -3.53214628994464874268e-02) (120, -1.03341247886419296265e-02) (121, -4.79576177895069122314e-02) (122, 1.43176726996898651123e-02) (123, -1.24943435192108154297e-01) (124, -8.68012607097625732422e-02) (125, -3.06811798363924026489e-02) (126, -2.07976903766393661499e-02) (127, -1.08937054872512817383e-01) (128, -6.70474246144294738770e-02) (129, -2.81002093106508255005e-02) (0, 2.82631982117891311646e-02) (1, 6.81034801527857780457e-03) (2, 4.85659763216972351074e-02) (3, 3.52030545473098754883e-02) (4, 4.47973795235157012939e-02) (5, 9.68177095055580139160e-02) (6, 2.08775280043482780457e-03) (7, 7.58596211671829223633e-02) (8, -4.01916280388832092285e-02) (9, 8.63603204488754272461e-02) (10, 4.48593683540821075439e-02) (11, -6.16631433367729187012e-02) (12, 1.41657982021570205688e-02) (13, 7.20477551221847534180e-02) (14, 9.37945321202278137207e-02) (15, -8.66590067744255065918e-03) (16, -6.07505962252616882324e-02) (17, -4.88176420331001281738e-02) (18, 1.08730204403400421143e-01) (19, 1.50029454380273818970e-02) (20, -5.80608770251274108887e-02) (21, -4.24972847104072570801e-02) (22, -6.49052783846855163574e-02) (23, 1.23705364763736724854e-01) (24, 1.02969385683536529541e-01) (25, -6.83625461533665657043e-03) (26, 9.02078002691268920898e-02) (27, 1.09466828405857086182e-01) (28, -4.14105178788304328918e-03) (29, -1.16403810679912567139e-02) (30, -5.23776933550834655762e-02) (31, 7.51698464155197143555e-02) (32, -3.34221571683883666992e-02) (33, 6.09402582049369812012e-02) (34, 9.79162380099296569824e-03) (35, -4.49518635869026184082e-02) (36, 8.08716863393783569336e-02) (37, -2.70493747666478157043e-03) (38, -7.49735236167907714844e-02) (39, 1.06551147997379302979e-01) (40, -8.04276391863822937012e-03) (41, 1.25921759754419326782e-02) (42, 2.40365434437990188599e-02) (43, -3.07235270738601684570e-02) (44, 1.70745048671960830688e-02) (45, -4.11956384778022766113e-02) (46, 1.19490437209606170654e-02) (47, 1.44572351127862930298e-02) (48, -3.00319343805313110352e-02) (49, 4.06760759651660919189e-02) (50, 2.97650862485170364380e-02) (51, 4.90300580859184265137e-02) (52, 3.54478806257247924805e-02) (53, -4.01962473988533020020e-02) (54, 8.44721123576164245605e-03) (55, -4.01291623711585998535e-02) (56, -6.37666508555412292480e-02) (57, 6.03724941611289978027e-02) (58, 6.76458701491355895996e-02) (59, 1.11302800476551055908e-01) (60, 5.27707561850547790527e-02) (61, 1.05220027267932891846e-01) (62, 1.96029338985681533813e-02) (63, 5.40124997496604919434e-02) (64, -2.48788744211196899414e-02) (65, 4.80718836188316345215e-02) (66, -6.87109157443046569824e-02) (67, -3.71800139546394348145e-02) (68, 1.02436192333698272705e-01) (69, 3.16046662628650665283e-02) (70, -3.31846028566360473633e-02) (71, 5.32244369387626647949e-02) (72, -7.00195655226707458496e-02) (73, -3.19839864969253540039e-02) (74, 3.19867320358753204346e-02) (75, -1.20837800204753875732e-02) (76, 9.48948934674263000488e-02) (77, 8.51855129003524780273e-02) (78, 1.00311882793903350830e-01) (79, -7.15749785304069519043e-02) (80, 2.61676479130983352661e-02) (81, -1.31818167865276336670e-02) (82, 4.04977388679981231689e-02) (83, 3.24206240475177764893e-02) (84, 8.06194394826889038086e-02) (85, -4.19674292206764221191e-02) (86, 4.05496545135974884033e-02) (87, 1.05309702455997467041e-01) (88, -7.31009244918823242188e-02) (89, -2.02934294939041137695e-02) (90, 1.15333355963230133057e-01) (91, -5.72072388604283332825e-03) (92, 3.90767641365528106689e-02) (93, -4.95667234063148498535e-02) (94, 1.19162149727344512939e-01) (95, -5.48441931605339050293e-02) (96, 2.02082488685846328735e-02) (97, 2.74394620209932327271e-02) (98, -3.79116609692573547363e-02) (99, 5.94530580565333366394e-03) (100, 1.09925217926502227783e-01) (101, 9.98269394040107727051e-02) (102, -2.18886286020278930664e-02) (103, 1.04820348322391510010e-01) (104, 1.02490074932575225830e-01) (105, -6.24961778521537780762e-02) (106, 1.31778512150049209595e-02) (107, 6.70263692736625671387e-02) (108, 9.92905274033546447754e-02) (109, -3.73604372143745422363e-02) (110, 7.02205151319503784180e-02) (111, -1.65748149156570434570e-02) (112, 1.43264923244714736938e-02) (113, -2.75574475526809692383e-02) (114, 2.91398633271455764771e-02) (115, -5.95063492655754089355e-02) (116, 6.34679719805717468262e-02) (117, 9.32445898652076721191e-02) (118, -5.15375658869743347168e-02) (119, -4.70765354111790657043e-03) (120, 6.61179050803184509277e-02) (121, 3.07797659188508987427e-02) (122, 1.02524347603321075439e-01) (123, 1.13518305122852325439e-01) (124, 8.91549438238143920898e-02) (125, 1.42556522041559219360e-02) (126, -1.79200321435928344727e-02) (127, 5.09927747771143913269e-03) (128, 9.11669358611106872559e-02) (129, 2.95428801327943801880e-02) (0, 6.54949188232421875000e-01) (1, 5.85027933120727539062e-01) (2, 6.19079709053039550781e-01) (3, 5.27148187160491943359e-01) (4, 6.33472025394439697266e-01) (5, 6.18499100208282470703e-01) (6, 5.68692505359649658203e-01) (7, 4.69415307044982910156e-01) (8, 5.17140150070190429688e-01) (9, 6.29081308841705322266e-01) (10, 6.23423874378204345703e-01) (11, 5.39234280586242675781e-01) (12, 5.64915478229522705078e-01) (13, 5.88539958000183105469e-01) (14, 6.44844472408294677734e-01) (15, 5.55385172367095947266e-01) (16, 6.13382637500762939453e-01) (17, 5.76303780078887939453e-01) (18, 5.91436505317687988281e-01) (19, 5.27415812015533447266e-01) (20, 5.31569719314575195312e-01) (21, 5.47012925148010253906e-01) (22, 5.00270664691925048828e-01) (23, 5.03366470336914062500e-01) (24, 5.34654915332794189453e-01) (25, 5.99786579608917236328e-01) (26, 4.67377454042434692383e-01) (27, 4.66921269893646240234e-01) (28, 5.99879682064056396484e-01) (29, 6.31719946861267089844e-01) (30, 5.71553111076354980469e-01) (31, 5.47285318374633789062e-01) (32, 4.78738963603973388672e-01) (33, 6.19734287261962890625e-01) (34, 5.28407752513885498047e-01) (35, 6.03672504425048828125e-01) (36, 5.78206658363342285156e-01) (37, 5.73302805423736572266e-01) (38, 5.54406046867370605469e-01) (39, 5.56957364082336425781e-01) (40, 6.37168109416961669922e-01) (41, 5.38752317428588867188e-01) (42, 6.64981722831726074219e-01) (43, 6.02242469787597656250e-01) (44, 5.43096363544464111328e-01) (45, 4.75020498037338256836e-01) (46, 5.23400485515594482422e-01) (47, 6.46784901618957519531e-01) (48, 5.68297922611236572266e-01) (49, 6.37461125850677490234e-01) (50, 6.63304328918457031250e-01) (51, 6.08648777008056640625e-01) (52, 6.14463806152343750000e-01) (53, 5.47545969486236572266e-01) (54, 6.59641504287719726562e-01) (55, 6.48793339729309082031e-01) (56, 5.23649215698242187500e-01) (57, 6.27088248729705810547e-01) (58, 5.26001513004302978516e-01) (59, 5.61568319797515869141e-01) (60, 5.33458590507507324219e-01) (61, 4.92828100919723510742e-01) (62, 6.16032779216766357422e-01) (63, 5.16631364822387695312e-01) (64, 4.78181213140487670898e-01) (65, 6.45620703697204589844e-01) (66, 6.00973844528198242188e-01) (67, 6.21839106082916259766e-01) (68, 5.04463970661163330078e-01) (69, 5.80466568470001220703e-01) (70, 5.55597901344299316406e-01) (71, 5.88031411170959472656e-01) (72, 4.98118996620178222656e-01) (73, 5.39838194847106933594e-01) (74, 5.15001058578491210938e-01) (75, 4.77207779884338378906e-01) (76, 4.85404998064041137695e-01) (77, 6.55867874622344970703e-01) (78, 6.25380754470825195312e-01) (79, 6.28101646900177001953e-01) (80, 5.58788776397705078125e-01) (81, 6.16958916187286376953e-01) (82, 4.82248336076736450195e-01) (83, 6.02117478847503662109e-01) (84, 6.42685115337371826172e-01) (85, 6.63282275199890136719e-01) (86, 6.38330042362213134766e-01) (87, 4.67249810695648193359e-01) (88, 5.21636724472045898438e-01) (89, 6.03079319000244140625e-01) (90, 6.07974171638488769531e-01) (91, 4.75621610879898071289e-01) (92, 6.26391708850860595703e-01) (93, 6.19966387748718261719e-01) (94, 6.29392683506011962891e-01) (95, 6.56639933586120605469e-01) (96, 6.01727902889251708984e-01) (97, 4.95438903570175170898e-01) (98, 4.95542466640472412109e-01) (99, 6.36541783809661865234e-01) (100, 6.12127602100372314453e-01) (101, 4.82865869998931884766e-01) (102, 5.80662608146667480469e-01) (103, 6.50926649570465087891e-01) (104, 5.78802943229675292969e-01) (105, 5.94813704490661621094e-01) (106, 4.87675189971923828125e-01) (107, 6.11042737960815429688e-01) (108, 6.49823486804962158203e-01) (109, 6.37467324733734130859e-01) (110, 5.67682981491088867188e-01) (111, 5.01821696758270263672e-01) (112, 5.71524858474731445312e-01) (113, 4.72625434398651123047e-01) (114, 4.69733417034149169922e-01) (115, 6.63669586181640625000e-01) (116, 5.48286795616149902344e-01) (117, 5.10044157505035400391e-01) (118, 5.66306829452514648438e-01) (119, 5.73782920837402343750e-01) (120, 6.23965680599212646484e-01) (121, 6.45099103450775146484e-01) (122, 6.34660780429840087891e-01) (123, 5.97955107688903808594e-01) (124, 4.85315471887588500977e-01) (125, 5.51159143447875976562e-01) (126, 5.86079418659210205078e-01) (127, 4.91008996963500976562e-01) (128, 6.42314970493316650391e-01) (129, 6.42019867897033691406e-01) (0, -1.83359552174806594849e-02) (1, 3.74636165797710418701e-02) (2, 6.09314180910587310791e-02) (3, 8.44031125307083129883e-02) (4, -2.72915940731763839722e-02) (5, 1.20050698518753051758e-01) (6, 1.01882040500640869141e-01) (7, 1.41406238079071044922e-01) (8, 2.47251819819211959839e-02) (9, -3.40563505887985229492e-02) (10, 2.47628372162580490112e-02) (11, -1.10344542190432548523e-03) (12, 6.44562467932701110840e-02) (13, 1.25965893268585205078e-01) (14, 1.18685483932495117188e-01) (15, 1.56631261110305786133e-01) (16, 1.11504256725311279297e-01) (17, 6.17408342659473419189e-02) (18, 8.81621316075325012207e-02) (19, 1.50985017418861389160e-01) (20, 1.53056234121322631836e-02) (21, 5.14007769525051116943e-02) (22, 1.02746799588203430176e-01) (23, 7.51884058117866516113e-02) (24, 1.01442441344261169434e-01) (25, 1.52845650911331176758e-01) (26, 8.67583081126213073730e-02) (27, 1.56593248248100280762e-01) (28, 7.29492083191871643066e-02) (29, 6.72986805438995361328e-02) (30, 9.88031923770904541016e-02) (31, -5.00862253829836845398e-03) (32, 2.98516992479562759399e-02) (33, 1.27596437931060791016e-01) (34, 1.23100936412811279297e-01) (35, -3.28338257968425750732e-02) (36, -2.81690638512372970581e-02) (37, -2.74727474898099899292e-02) (38, 7.55554735660552978516e-02) (39, 7.09129571914672851562e-02) (40, 4.41668294370174407959e-02) (41, 1.21886327862739562988e-01) (42, 1.53307557106018066406e-01) (43, 5.02771101891994476318e-02) (44, 1.73749774694442749023e-02) (45, 3.10438219457864761353e-02) (46, 1.63472697138786315918e-01) (47, 9.56386029720306396484e-02) (48, 7.67773389816284179688e-03) (49, 4.95712272822856903076e-02) (50, 1.53469458222389221191e-01) (51, -2.87791769951581954956e-02) (52, 1.18336871266365051270e-01) (53, 9.75373238325119018555e-02) (54, 1.19477689266204833984e-01) (55, 7.13593512773513793945e-02) (56, 1.46649628877639770508e-01) (57, 1.50204956531524658203e-01) (58, 1.04848891496658325195e-01) (59, 5.14103472232818603516e-03) (60, 1.54340695589780807495e-02) (61, 1.04049146175384521484e-02) (62, 8.52897912263870239258e-02) (63, 7.50640258193016052246e-02) (64, 1.10552012920379638672e-02) (65, 1.47064328193664550781e-02) (66, -1.90155226737260818481e-02) (67, 1.61471199244260787964e-02) (68, -5.43428910896182060242e-03) (69, 7.58427008986473083496e-02) (70, 9.82175469398498535156e-02) (71, 1.51893541216850280762e-01) (72, 8.46162289381027221680e-02) (73, 1.54677957296371459961e-01) (74, 8.23129564523696899414e-02) (75, 4.35021333396434783936e-02) (76, 1.50324910879135131836e-01) (77, 1.20837092399597167969e-01) (78, 1.18758618831634521484e-01) (79, -1.41059588640928268433e-02) (80, 1.30966976284980773926e-01) (81, -2.82390248030424118042e-02) (82, -3.29707516357302665710e-03) (83, -3.88979865238070487976e-03) (84, 3.40327732264995574951e-02) (85, -1.27318454906344413757e-03) (86, 1.14582031965255737305e-02) (87, -1.20953470468521118164e-02) (88, 1.23590588569641113281e-01) (89, -3.04967118427157402039e-03) (90, 1.54186606407165527344e-01) (91, 2.44180243462324142456e-02) (92, 3.71900200843811035156e-03) (93, 1.15237891674041748047e-01) (94, 1.31297111511230468750e-02) (95, 8.10703635215759277344e-02) (96, 1.59325674176216125488e-01) (97, -3.06957913562655448914e-03) (98, 1.94528084248304367065e-02) (99, 1.53219148516654968262e-01) (100, 1.64088711142539978027e-01) (101, 4.90955226123332977295e-02) (102, 1.58385574817657470703e-01) (103, -3.32890404388308525085e-03) (104, 6.10901974141597747803e-02) (105, 1.52989953756332397461e-01) (106, 1.12175181508064270020e-01) (107, 1.38059750199317932129e-01) (108, -1.97655167430639266968e-02) (109, 1.08621716499328613281e-02) (110, -2.94676255434751510620e-02) (111, 1.47503837943077087402e-01) (112, 1.06959357857704162598e-01) (113, 7.57210105657577514648e-02) (114, 5.30181936919689178467e-02) (115, 8.66355076432228088379e-02) (116, 9.28516983985900878906e-02) (117, -3.16364876925945281982e-02) (118, 9.54048186540603637695e-02) (119, 7.85961821675300598145e-02) (120, -2.40556430071592330933e-02) (121, 1.06841504573822021484e-01) (122, 9.51111465692520141602e-02) (123, 1.42818138003349304199e-01) (124, 1.54473990201950073242e-01) (125, 5.43459765613079071045e-02) (126, 2.91229784488677978516e-03) (127, 1.56871780753135681152e-01) (128, 1.54024317860603332520e-01) (129, 9.66841578483581542969e-02) (0, 4.81450140476226806641e-01) (1, 5.86444854736328125000e-01) (2, 6.33148252964019775391e-01) (3, 5.77372431755065917969e-01) (4, 5.52241742610931396484e-01) (5, 5.81265628337860107422e-01) (6, 5.85923016071319580078e-01) (7, 6.62615299224853515625e-01) (8, 6.28313004970550537109e-01) (9, 5.10703504085540771484e-01) (10, 6.47807121276855468750e-01) (11, 5.48310160636901855469e-01) (12, 5.02799510955810546875e-01) (13, 6.06051921844482421875e-01) (14, 5.69029808044433593750e-01) (15, 5.38726031780242919922e-01) (16, 6.23034477233886718750e-01) (17, 5.94883799552917480469e-01) (18, 4.66157346963882446289e-01) (19, 5.60720860958099365234e-01) (20, 4.90271091461181640625e-01) (21, 6.40492141246795654297e-01) (22, 6.05864882469177246094e-01) (23, 6.25764310359954833984e-01) (24, 4.74563062191009521484e-01) (25, 6.35507881641387939453e-01) (26, 6.35650038719177246094e-01) (27, 6.24431669712066650391e-01) (28, 4.77511882781982421875e-01) (29, 5.96283972263336181641e-01) (30, 5.98579943180084228516e-01) (31, 5.86870789527893066406e-01) (32, 5.91432034969329833984e-01) (33, 6.52691185474395751953e-01) (34, 6.35076105594635009766e-01) (35, 5.78517675399780273438e-01) (36, 6.00541114807128906250e-01) (37, 5.48337101936340332031e-01) (38, 5.56135714054107666016e-01) (39, 6.27199888229370117188e-01) (40, 6.02833747863769531250e-01) (41, 4.80697631835937500000e-01) (42, 5.39047777652740478516e-01) (43, 6.30584478378295898438e-01) (44, 4.87915873527526855469e-01) (45, 6.56353712081909179688e-01) (46, 5.91142058372497558594e-01) (47, 5.78735232353210449219e-01) (48, 6.56901836395263671875e-01) (49, 6.03583216667175292969e-01) (50, 4.77464348077774047852e-01) (51, 5.97352504730224609375e-01) (52, 5.58090686798095703125e-01) (53, 4.84370470046997070312e-01) (54, 4.68665033578872680664e-01) (55, 5.07561683654785156250e-01) (56, 6.43417358398437500000e-01) (57, 5.70005238056182861328e-01) (58, 5.32513737678527832031e-01) (59, 6.12636506557464599609e-01) (60, 6.35932266712188720703e-01) (61, 5.68125545978546142578e-01) (62, 5.40740251541137695312e-01) (63, 4.76235777139663696289e-01) (64, 5.48860907554626464844e-01) (65, 5.59955894947052001953e-01) (66, 6.32779836654663085938e-01) (67, 5.84928333759307861328e-01) (68, 5.44897258281707763672e-01) (69, 5.42274832725524902344e-01) (70, 4.67611491680145263672e-01) (71, 6.00338637828826904297e-01) (72, 5.45441150665283203125e-01) (73, 4.83696430921554565430e-01) (74, 5.39835870265960693359e-01) (75, 4.75853592157363891602e-01) (76, 5.25191485881805419922e-01) (77, 5.47583341598510742188e-01) (78, 4.87907975912094116211e-01) (79, 5.23659169673919677734e-01) (80, 5.94251632690429687500e-01) (81, 6.41618430614471435547e-01) (82, 5.35645127296447753906e-01) (83, 6.41626358032226562500e-01) (84, 4.68252003192901611328e-01) (85, 5.65293490886688232422e-01) (86, 5.42589128017425537109e-01) (87, 5.49668788909912109375e-01) (88, 5.37552952766418457031e-01) (89, 5.06538271903991699219e-01) (90, 6.42712235450744628906e-01) (91, 5.18754959106445312500e-01) (92, 5.69294154644012451172e-01) (93, 5.81306636333465576172e-01) (94, 4.75094318389892578125e-01) (95, 5.64548432826995849609e-01) (96, 6.19532704353332519531e-01) (97, 5.40560364723205566406e-01) (98, 6.52092278003692626953e-01) (99, 5.68756163120269775391e-01) (100, 5.38796305656433105469e-01) (101, 6.03744029998779296875e-01) (102, 5.80216467380523681641e-01) (103, 5.51879644393920898438e-01) (104, 4.95573282241821289062e-01) (105, 5.54008781909942626953e-01) (106, 4.80219185352325439453e-01) (107, 4.97800886631011962891e-01) (108, 5.93545198440551757812e-01) (109, 5.68236768245697021484e-01) (110, 6.09868228435516357422e-01) (111, 5.09566366672515869141e-01) (112, 5.36570966243743896484e-01) (113, 6.02522432804107666016e-01) (114, 6.48594439029693603516e-01) (115, 5.81227660179138183594e-01) (116, 5.47137916088104248047e-01) (117, 6.00962102413177490234e-01) (118, 6.24157547950744628906e-01) (119, 4.70395952463150024414e-01) (120, 5.98996400833129882812e-01) (121, 5.87105691432952880859e-01) (122, 5.40041923522949218750e-01) (123, 5.39407014846801757812e-01) (124, 4.68104034662246704102e-01) (125, 4.78436529636383056641e-01) (126, 5.36870598793029785156e-01) (127, 6.38362169265747070312e-01) (128, 6.06993794441223144531e-01) (129, 5.98888516426086425781e-01) (0, 7.21253976225852966309e-02) (1, 2.17142086476087570190e-02) (2, 1.60718247294425964355e-01) (3, 2.00700759887695312500e-03) (4, 1.41636699438095092773e-01) (5, 9.79405492544174194336e-02) (6, 9.65311974287033081055e-02) (7, 9.47989523410797119141e-03) (8, 1.38634547591209411621e-01) (9, 4.08808551728725433350e-02) (10, 9.45653766393661499023e-02) (11, -3.00622973591089248657e-02) (12, 1.52956366539001464844e-01) (13, 1.47677943110466003418e-01) (14, 3.30916754901409149170e-02) (15, -1.82026792317628860474e-02) (16, 7.76068568229675292969e-02) (17, 1.48339197039604187012e-01) (18, 1.46896034479141235352e-01) (19, 9.16988849639892578125e-02) (20, -7.03138066455721855164e-03) (21, 3.35765592753887176514e-02) (22, 1.31314247846603393555e-01) (23, 8.40733945369720458984e-03) (24, 1.12045541405677795410e-01) (25, 1.59306541085243225098e-01) (26, 7.52369016408920288086e-02) (27, 1.16516530513763427734e-01) (28, 1.03176712989807128906e-01) (29, 1.00796177983283996582e-01) (30, 9.11223888397216796875e-02) (31, 1.03782609105110168457e-01) (32, 8.41751545667648315430e-02) (33, 1.41540989279747009277e-01) (34, 8.93837288022041320801e-02) (35, 8.23190212249755859375e-02) (36, 1.45367011427879333496e-01) (37, -6.43973005935549736023e-03) (38, -2.25313659757375717163e-02) (39, 1.25415682792663574219e-01) (40, 7.11492896080017089844e-02) (41, 1.61525439471006393433e-02) (42, 8.56678038835525512695e-02) (43, 2.83118020743131637573e-02) (44, 4.64100055396556854248e-02) (45, 2.28891801089048385620e-02) (46, 1.08366608619689941406e-01) (47, 1.27190500497817993164e-01) (48, 1.00463524460792541504e-01) (49, 1.00352376699447631836e-01) (50, 3.22074070572853088379e-02) (51, 1.20022997260093688965e-01) (52, 3.63414250314235687256e-02) (53, 2.31459736824035644531e-04) (54, 9.99818593263626098633e-02) (55, 4.95636463165283203125e-03) (56, 1.11519515514373779297e-01) (57, 1.18240714073181152344e-01) (58, 8.13231915235519409180e-02) (59, 8.69359076023101806641e-03) (60, 1.22999250888824462891e-01) (61, 5.82862757146358489990e-02) (62, 2.73276697844266891479e-02) (63, 1.06031298637390136719e-01) (64, 7.79001340270042419434e-02) (65, 7.73912519216537475586e-02) (66, 1.24791294336318969727e-01) (67, -2.30195131152868270874e-02) (68, 1.21244102716445922852e-01) (69, 1.59359067678451538086e-01) (70, 1.58239156007766723633e-01) (71, 1.35926008224487304688e-01) (72, 1.18048042058944702148e-01) (73, 4.32802997529506683350e-02) (74, 2.19161640852689743042e-02) (75, 1.55020877718925476074e-01) (76, 4.59549240767955780029e-02) (77, -2.56430637091398239136e-02) (78, 2.70758401602506637573e-02) (79, 7.36106187105178833008e-02) (80, -1.62422489374876022339e-02) (81, 2.63224672526121139526e-02) (82, 1.16784274578094482422e-02) (83, 8.92138257622718811035e-02) (84, 2.66615580767393112183e-02) (85, 1.10765397548675537109e-01) (86, 4.37769107520580291748e-02) (87, -3.15271131694316864014e-02) (88, 1.33790791034698486328e-01) (89, 3.14949676394462585449e-02) (90, 1.45948812365531921387e-01) (91, -2.83101480454206466675e-02) (92, 1.21720135211944580078e-03) (93, 6.74335435032844543457e-02) (94, -3.45378369092941284180e-02) (95, 1.32425382733345031738e-01) (96, 8.31762701272964477539e-02) (97, 1.53233855962753295898e-01) (98, 1.14192068576812744141e-02) (99, 1.32583990693092346191e-01) (100, 1.48898661136627197266e-01) (101, 1.49870157241821289062e-01) (102, 7.78803527355194091797e-02) (103, 1.44988134503364562988e-01) (104, 2.55456995218992233276e-02) (105, 1.56615167856216430664e-01) (106, 4.11110036075115203857e-02) (107, 1.62698253989219665527e-01) (108, 7.98856243491172790527e-02) (109, 4.75771985948085784912e-02) (110, 4.00202535092830657959e-02) (111, 3.04723177105188369751e-02) (112, 1.58301174640655517578e-01) (113, -2.19146814197301864624e-02) (114, 8.99171829223632812500e-02) (115, 4.79837916791439056396e-02) (116, 7.34830871224403381348e-02) (117, 4.03546802699565887451e-02) (118, 5.12063615024089813232e-02) (119, 3.54520641267299652100e-02) (120, 5.27740232646465301514e-02) (121, -1.69881712645292282104e-02) (122, 8.97812247276306152344e-02) (123, 1.62961006164550781250e-01) (124, 9.57829952239990234375e-02) (125, 3.47021482884883880615e-02) (126, 4.88993935286998748779e-02) (127, 6.20879121124744415283e-02) (128, 1.21521428227424621582e-01) (129, 2.04566102474927902222e-02) (0, 5.25144636631011962891e-01) (1, 5.60427486896514892578e-01) (2, 5.59174776077270507812e-01) (3, 5.04926621913909912109e-01) (4, 5.56473135948181152344e-01) (5, 4.98074382543563842773e-01) (6, 5.89978098869323730469e-01) (7, 6.16443514823913574219e-01) (8, 6.20077610015869140625e-01) (9, 4.98965144157409667969e-01) (10, 5.61316907405853271484e-01) (11, 5.07820248603820800781e-01) (12, 5.89332938194274902344e-01) (13, 5.72536170482635498047e-01) (14, 4.69722867012023925781e-01) (15, 4.86502468585968017578e-01) (16, 5.01069009304046630859e-01) (17, 5.21244525909423828125e-01) (18, 6.11540496349334716797e-01) (19, 6.15276157855987548828e-01) (20, 6.01072907447814941406e-01) (21, 4.86712932586669921875e-01) (22, 6.38292074203491210938e-01) (23, 6.29356861114501953125e-01) (24, 6.55291497707366943359e-01) (25, 5.37930607795715332031e-01) (26, 6.53781652450561523438e-01) (27, 5.62275946140289306641e-01) (28, 6.26534521579742431641e-01) (29, 6.20295047760009765625e-01) (30, 5.53325474262237548828e-01) (31, 5.95504403114318847656e-01) (32, 4.96428549289703369141e-01) (33, 5.28511822223663330078e-01) (34, 5.52487254142761230469e-01) (35, 5.07427692413330078125e-01) (36, 5.91515779495239257812e-01) (37, 6.60224556922912597656e-01) (38, 6.48584723472595214844e-01) (39, 6.17687821388244628906e-01) (40, 5.33516883850097656250e-01) (41, 4.72149521112442016602e-01) (42, 4.71000909805297851562e-01) (43, 5.66202998161315917969e-01) (44, 6.27838909626007080078e-01) (45, 5.42805314064025878906e-01) (46, 5.82918286323547363281e-01) (47, 5.61710655689239501953e-01) (48, 5.25350451469421386719e-01) (49, 6.19025290012359619141e-01) (50, 6.12359881401062011719e-01) (51, 5.86489796638488769531e-01) (52, 5.88172197341918945312e-01) (53, 6.64562582969665527344e-01) (54, 5.57763457298278808594e-01) (55, 5.85062563419342041016e-01) (56, 6.00297212600708007812e-01) (57, 6.49446845054626464844e-01) (58, 5.07119536399841308594e-01) (59, 6.11896276473999023438e-01) (60, 5.94811677932739257812e-01) (61, 6.54428780078887939453e-01) (62, 6.38518750667572021484e-01) (63, 6.38414800167083740234e-01) (64, 4.91706937551498413086e-01) (65, 5.72458446025848388672e-01) (66, 5.63198149204254150391e-01) (67, 5.25995194911956787109e-01) (68, 6.55308187007904052734e-01) (69, 6.18601441383361816406e-01) (70, 4.88247603178024291992e-01) (71, 6.31461620330810546875e-01) (72, 6.29295587539672851562e-01) (73, 6.25516593456268310547e-01) (74, 5.11457383632659912109e-01) (75, 5.18939971923828125000e-01) (76, 4.78677809238433837891e-01) (77, 5.92077195644378662109e-01) (78, 4.96060073375701904297e-01) (79, 5.35631060600280761719e-01) (80, 6.05334162712097167969e-01) (81, 5.05659937858581542969e-01) (82, 4.80526894330978393555e-01) (83, 4.69536125659942626953e-01) (84, 5.47790288925170898438e-01) (85, 5.65591156482696533203e-01) (86, 5.44894397258758544922e-01) (87, 4.94953513145446777344e-01) (88, 5.37529230117797851562e-01) (89, 5.08318483829498291016e-01) (90, 5.63283503055572509766e-01) (91, 5.59872090816497802734e-01) (92, 6.25011682510375976562e-01) (93, 6.25286102294921875000e-01) (94, 6.37567400932312011719e-01) (95, 6.49795114994049072266e-01) (96, 5.60781955718994140625e-01) (97, 5.16697824001312255859e-01) (98, 5.95099568367004394531e-01) (99, 4.92749720811843872070e-01) (100, 4.98836040496826171875e-01) (101, 5.91196238994598388672e-01) (102, 4.89003002643585205078e-01) (103, 5.27657628059387207031e-01) (104, 5.96276044845581054688e-01) (105, 4.65278059244155883789e-01) (106, 5.82648038864135742188e-01) (107, 6.19342267513275146484e-01) (108, 5.40184199810028076172e-01) (109, 5.30381619930267333984e-01) (110, 5.78072428703308105469e-01) (111, 5.17819881439208984375e-01) (112, 6.52933537960052490234e-01) (113, 5.08032917976379394531e-01) (114, 5.63919067382812500000e-01) (115, 6.42049074172973632812e-01) (116, 5.73282003402709960938e-01) (117, 6.04886651039123535156e-01) (118, 5.84569156169891357422e-01) (119, 5.07963120937347412109e-01) (120, 5.90780735015869140625e-01) (121, 5.06372690200805664062e-01) (122, 6.60148382186889648438e-01) (123, 5.68171918392181396484e-01) (124, 5.19856929779052734375e-01) (125, 4.89353001117706298828e-01) (126, 6.09806537628173828125e-01) (127, 4.72318887710571289062e-01) (128, 5.17817676067352294922e-01) (129, 6.15719139575958251953e-01) (0, 2.74098873138427734375e-01) (1, 2.88860619068145751953e-01) (2, 1.88920363783836364746e-01) (3, 9.33166667819023132324e-02) (4, 2.82204270362854003906e-01) (5, 1.15667618811130523682e-01) (6, 1.34483009576797485352e-01) (7, 1.64619579911231994629e-01) (8, 2.69901096820831298828e-01) (9, 1.36018499732017517090e-01) (10, 1.71571329236030578613e-01) (11, 1.07884712517261505127e-01) (12, 1.27215996384620666504e-01) (13, 2.27980464696884155273e-01) (14, 1.76148146390914916992e-01) (15, 2.30744987726211547852e-01) (16, 2.39092305302619934082e-01) (17, 1.32679551839828491211e-01) (18, 2.54021227359771728516e-01) (19, 2.43111863732337951660e-01) (20, 2.89069414138793945312e-01) (21, 9.82674434781074523926e-02) (22, 2.90135204792022705078e-01) (23, 2.10918709635734558105e-01) (24, 2.18282207846641540527e-01) (25, 1.76845520734786987305e-01) (26, 1.51352763175964355469e-01) (27, 9.46294590830802917480e-02) (28, 1.46608144044876098633e-01) (29, 1.51667028665542602539e-01) (30, 1.76301747560501098633e-01) (31, 2.12163314223289489746e-01) (32, 1.36982277035713195801e-01) (33, 1.69731080532073974609e-01) (34, 1.78934320807456970215e-01) (35, 2.57630884647369384766e-01) (36, 1.11251108348369598389e-01) (37, 1.06301166117191314697e-01) (38, 1.12888164818286895752e-01) (39, 2.20234185457229614258e-01) (40, 1.84307709336280822754e-01) (41, 1.68076470494270324707e-01) (42, 1.69850170612335205078e-01) (43, 1.80529817938804626465e-01) (44, 2.73256063461303710938e-01) (45, 1.23523563146591186523e-01) (46, 1.69270649552345275879e-01) (47, 2.40409806370735168457e-01) (48, 2.75929391384124755859e-01) (49, 2.54313468933105468750e-01) (50, 1.55188485980033874512e-01) (51, 1.61502167582511901855e-01) (52, 2.75605261325836181641e-01) (53, 2.06274539232254028320e-01) (54, 1.64563223719596862793e-01) (55, 1.22731953859329223633e-01) (56, 2.64591574668884277344e-01) (57, 9.97843369841575622559e-02) (58, 1.84698984026908874512e-01) (59, 1.44396111369132995605e-01) (60, 1.74165308475494384766e-01) (61, 1.04968927800655364990e-01) (62, 1.21888339519500732422e-01) (63, 2.86028027534484863281e-01) (64, 1.81272700428962707520e-01) (65, 1.58797577023506164551e-01) (66, 2.19398349523544311523e-01) (67, 1.36179924011230468750e-01) (68, 2.84649550914764404297e-01) (69, 2.13369593024253845215e-01) (70, 2.10360750555992126465e-01) (71, 2.40602865815162658691e-01) (72, 1.20795324444770812988e-01) (73, 1.15734584629535675049e-01) (74, 2.59886741638183593750e-01) (75, 2.25018531084060668945e-01) (76, 1.95053577423095703125e-01) (77, 1.73848599195480346680e-01) (78, 1.82349130511283874512e-01) (79, 2.50625610351562500000e-01) (80, 1.73667013645172119141e-01) (81, 1.30353137850761413574e-01) (82, 1.53840407729148864746e-01) (83, 1.04286782443523406982e-01) (84, 2.57227838039398193359e-01) (85, 1.37083992362022399902e-01) (86, 2.79316902160644531250e-01) (87, 1.88146069645881652832e-01) (88, 2.79726922512054443359e-01) (89, 2.79148399829864501953e-01) (90, 1.55427724123001098633e-01) (91, 1.82382330298423767090e-01) (92, 2.08564415574073791504e-01) (93, 2.49968647956848144531e-01) (94, 1.31530284881591796875e-01) (95, 1.38285174965858459473e-01) (96, 2.67535030841827392578e-01) (97, 1.70037508010864257812e-01) (98, 1.28956079483032226562e-01) (99, 2.73436546325683593750e-01) (100, 1.57199606299400329590e-01) (101, 1.62401393055915832520e-01) (102, 1.88851818442344665527e-01) (103, 1.40825897455215454102e-01) (104, 1.69520542025566101074e-01) (105, 2.40495041012763977051e-01) (106, 1.08546294271945953369e-01) (107, 2.46433079242706298828e-01) (108, 1.09416268765926361084e-01) (109, 2.68150746822357177734e-01) (110, 1.18413545191287994385e-01) (111, 2.85331904888153076172e-01) (112, 2.81561255455017089844e-01) (113, 1.09154678881168365479e-01) (114, 2.71679997444152832031e-01) (115, 2.34386339783668518066e-01) (116, 2.39983513951301574707e-01) (117, 1.11303143203258514404e-01) (118, 1.80771186947822570801e-01) (119, 1.29801005125045776367e-01) (120, 2.74183213710784912109e-01) (121, 1.06417976319789886475e-01) (122, 2.76028037071228027344e-01) (123, 1.11783511936664581299e-01) (124, 2.54269003868103027344e-01) (125, 2.07757756114006042480e-01) (126, 2.92274057865142822266e-01) (127, 1.58367112278938293457e-01) (128, 1.84835627675056457520e-01) (129, 2.40962818264961242676e-01) (0, 4.09763418138027191162e-02) (1, 9.93451625108718872070e-02) (2, 1.04013338685035705566e-01) (3, 1.61940723657608032227e-01) (4, 1.48198544979095458984e-01) (5, -1.69648658484220504761e-02) (6, 8.12437087297439575195e-02) (7, 7.26634785532951354980e-02) (8, 6.50306791067123413086e-02) (9, -1.95392537862062454224e-02) (10, 1.36871784925460815430e-02) (11, 5.02533428370952606201e-02) (12, 1.79530791938304901123e-02) (13, 1.47410809993743896484e-01) (14, 1.43612340092658996582e-01) (15, 1.02695822715759277344e-01) (16, 1.86095070093870162964e-02) (17, -2.00867112725973129272e-02) (18, 1.26631110906600952148e-02) (19, 3.88495586812496185303e-02) (20, 1.54546424746513366699e-01) (21, 7.17157945036888122559e-02) (22, 1.37552157044410705566e-01) (23, 4.90443222224712371826e-02) (24, 9.78246480226516723633e-02) (25, 1.48715361952781677246e-01) (26, 6.89197406172752380371e-02) (27, 1.43894106149673461914e-01) (28, 3.81579361855983734131e-02) (29, 1.30392372608184814453e-01) (30, 1.14187240600585937500e-01) (31, 1.54735371470451354980e-01) (32, 4.73543517291545867920e-02) (33, 9.46220457553863525391e-02) (34, 1.22425630688667297363e-01) (35, 1.74640864133834838867e-02) (36, 1.28841862082481384277e-01) (37, 5.49070797860622406006e-02) (38, 3.32317464053630828857e-02) (39, 1.36085033416748046875e-01) (40, -8.96041095256805419922e-03) (41, 1.22142285108566284180e-02) (42, 9.46005731821060180664e-02) (43, 1.61667555570602416992e-01) (44, 1.56812056899070739746e-01) (45, 1.50394201278686523438e-01) (46, 8.53460580110549926758e-02) (47, 2.08697896450757980347e-02) (48, -3.14006023108959197998e-02) (49, 6.00462518632411956787e-02) (50, 7.31724500656127929688e-03) (51, -9.08575952053070068359e-03) (52, 1.05690598487854003906e-01) (53, 1.51849746704101562500e-01) (54, 1.48840457201004028320e-01) (55, -2.84760724753141403198e-02) (56, 1.25206112861633300781e-02) (57, 4.38396893441677093506e-02) (58, 2.36944239586591720581e-02) (59, 4.22283224761486053467e-02) (60, 1.41481205821037292480e-01) (61, 8.45859348773956298828e-02) (62, 4.55428920686244964600e-02) (63, 4.93506304919719696045e-02) (64, 4.59931157529354095459e-02) (65, 1.63727980107069015503e-02) (66, -1.24720782041549682617e-02) (67, -8.35694372653961181641e-03) (68, 1.54839739203453063965e-01) (69, 1.44876539707183837891e-03) (70, 1.59234941005706787109e-01) (71, 7.19889625906944274902e-02) (72, 1.28661602735519409180e-01) (73, 2.52475272864103317261e-02) (74, 1.45293876528739929199e-01) (75, -3.57056409120559692383e-02) (76, 1.05390816926956176758e-01) (77, 1.13153412938117980957e-01) (78, -2.08515580743551254272e-02) (79, 1.57920449972152709961e-01) (80, -2.06430610269308090210e-02) (81, 6.21679164469242095947e-02) (82, 6.61526992917060852051e-02) (83, 3.84543500840663909912e-02) (84, 1.12341284751892089844e-01) (85, 1.29684984683990478516e-01) (86, 2.52686571329832077026e-02) (87, 1.00141480565071105957e-01) (88, 8.76087769865989685059e-02) (89, 5.06991259753704071045e-02) (90, 1.10134825110435485840e-01) (91, 4.56927083432674407959e-02) (92, -3.25714163482189178467e-02) (93, -1.77438836544752120972e-02) (94, -1.15692764520645141602e-02) (95, -3.48066538572311401367e-02) (96, 1.43563151359558105469e-02) (97, 9.65346693992614746094e-02) (98, 6.79945349693298339844e-02) (99, -5.93860400840640068054e-03) (100, -3.67208849638700485229e-04) (101, 3.81416939198970794678e-02) (102, 5.74649386107921600342e-02) (103, 2.32088696211576461792e-02) (104, 8.14555436372756958008e-02) (105, 3.30338142812252044678e-02) (106, 9.30520892143249511719e-03) (107, 2.51264870166778564453e-03) (108, 3.99717502295970916748e-02) (109, 1.53434406965970993042e-02) (110, 8.72056260704994201660e-02) (111, 7.48101919889450073242e-02) (112, 1.44837126135826110840e-01) (113, 8.77797380089759826660e-02) (114, 1.23892337083816528320e-01) (115, 6.83045685291290283203e-02) (116, 4.76099550724029541016e-03) (117, 2.79099326580762863159e-02) (118, 9.21531617641448974609e-02) (119, 2.80379336327314376831e-02) (120, 4.35641519725322723389e-02) (121, -7.38114072009921073914e-03) (122, 1.55156180262565612793e-01) (123, 1.19873642921447753906e-01) (124, 1.26243233680725097656e-01) (125, -2.01027598232030868530e-02) (126, 1.43110424280166625977e-01) (127, 6.69654607772827148438e-02) (128, 9.82815176248550415039e-02) (129, 2.73321550339460372925e-02) (0, 3.36487501859664916992e-01) (1, 4.99351888895034790039e-01) (2, 3.60990256071090698242e-01) (3, 5.16702294349670410156e-01) (4, 3.68847876787185668945e-01) (5, 3.80068689584732055664e-01) (6, 3.68025273084640502930e-01) (7, 3.54491561651229858398e-01) (8, 4.93141978979110717773e-01) (9, 3.90952855348587036133e-01) (10, 4.98124212026596069336e-01) (11, 3.27462643384933471680e-01) (12, 4.18818384408950805664e-01) (13, 4.34633284807205200195e-01) (14, 4.35384184122085571289e-01) (15, 4.56318765878677368164e-01) (16, 5.03313302993774414062e-01) (17, 3.40054422616958618164e-01) (18, 4.48116332292556762695e-01) (19, 4.45656806230545043945e-01) (20, 5.08043825626373291016e-01) (21, 4.46500867605209350586e-01) (22, 4.93849962949752807617e-01) (23, 4.90081697702407836914e-01) (24, 3.56916517019271850586e-01) (25, 4.49911564588546752930e-01) (26, 4.17703419923782348633e-01) (27, 4.95062023401260375977e-01) (28, 4.61310058832168579102e-01) (29, 3.92138332128524780273e-01) (30, 4.22873884439468383789e-01) (31, 3.94946485757827758789e-01) (32, 4.19360131025314331055e-01) (33, 3.39150398969650268555e-01) (34, 4.54322367906570434570e-01) (35, 3.50497454404830932617e-01) (36, 3.64231556653976440430e-01) (37, 3.93310040235519409180e-01) (38, 5.16041278839111328125e-01) (39, 4.59279149770736694336e-01) (40, 4.58418041467666625977e-01) (41, 3.86263877153396606445e-01) (42, 4.90705579519271850586e-01) (43, 4.42352682352066040039e-01) (44, 3.74956041574478149414e-01) (45, 4.39593583345413208008e-01) (46, 4.03317421674728393555e-01) (47, 5.10110616683959960938e-01) (48, 3.82319360971450805664e-01) (49, 3.95577400922775268555e-01) (50, 4.22969728708267211914e-01) (51, 4.05873090028762817383e-01) (52, 4.63214546442031860352e-01) (53, 4.00554805994033813477e-01) (54, 4.78656619787216186523e-01) (55, 3.35829168558120727539e-01) (56, 4.34222847223281860352e-01) (57, 3.37208241224288940430e-01) (58, 4.13081377744674682617e-01) (59, 4.12241011857986450195e-01) (60, 4.88206833600997924805e-01) (61, 4.46080237627029418945e-01) (62, 4.24700707197189331055e-01) (63, 4.98632043600082397461e-01) (64, 4.63096648454666137695e-01) (65, 4.19012039899826049805e-01) (66, 4.89152222871780395508e-01) (67, 3.35513204336166381836e-01) (68, 3.24621409177780151367e-01) (69, 4.65902358293533325195e-01) (70, 3.74613314867019653320e-01) (71, 4.79950875043869018555e-01) (72, 4.88272339105606079102e-01) (73, 3.47679287195205688477e-01) (74, 3.99763256311416625977e-01) (75, 3.74636560678482055664e-01) (76, 4.70685452222824096680e-01) (77, 3.64960521459579467773e-01) (78, 4.45632010698318481445e-01) (79, 4.91059571504592895508e-01) (80, 3.92071276903152465820e-01) (81, 4.95646566152572631836e-01) (82, 4.86242860555648803711e-01) (83, 4.38167542219161987305e-01) (84, 4.35839504003524780273e-01) (85, 5.08778274059295654297e-01) (86, 3.90266090631484985352e-01) (87, 3.56384962797164916992e-01) (88, 5.15458345413208007812e-01) (89, 4.62286442518234252930e-01) (90, 4.02292519807815551758e-01) (91, 4.84298437833786010742e-01) (92, 3.57844740152359008789e-01) (93, 4.50484186410903930664e-01) (94, 4.42016631364822387695e-01) (95, 3.27737540006637573242e-01) (96, 4.38567668199539184570e-01) (97, 3.60218435525894165039e-01) (98, 3.44969481229782104492e-01) (99, 4.56190496683120727539e-01) (100, 3.48212927579879760742e-01) (101, 3.68560165166854858398e-01) (102, 3.44175487756729125977e-01) (103, 5.10729849338531494141e-01) (104, 3.90481084585189819336e-01) (105, 3.69116812944412231445e-01) (106, 5.00150680541992187500e-01) (107, 3.86185973882675170898e-01) (108, 3.81419748067855834961e-01) (109, 4.75313693284988403320e-01) (110, 3.51637512445449829102e-01) (111, 3.25183898210525512695e-01) (112, 3.19743186235427856445e-01) (113, 4.77495044469833374023e-01) (114, 4.13201481103897094727e-01) (115, 4.30908948183059692383e-01) (116, 4.40363079309463500977e-01) (117, 3.35802525281906127930e-01) (118, 3.87067943811416625977e-01) (119, 4.04605358839035034180e-01) (120, 3.56360942125320434570e-01) (121, 5.12143611907958984375e-01) (122, 3.51757615804672241211e-01) (123, 3.44344943761825561523e-01) (124, 3.58780056238174438477e-01) (125, 3.70352655649185180664e-01) (126, 4.70526963472366333008e-01) (127, 5.01218199729919433594e-01) (128, 3.28056126832962036133e-01) (129, 3.92744928598403930664e-01) (0, -1.56632661819458007812e-02) (1, -2.47031524777412414551e-02) (2, 4.23582829535007476807e-02) (3, -5.65889738500118255615e-02) (4, -6.29110038280487060547e-02) (5, 8.26152712106704711914e-02) (6, -1.11539542675018310547e-01) (7, -1.04644984006881713867e-01) (8, -2.81198471784591674805e-02) (9, -7.00428336858749389648e-02) (10, -6.96179121732711791992e-02) (11, -1.27951115369796752930e-01) (12, -1.33664086461067199707e-01) (13, -1.52049764990806579590e-01) (14, -1.60757824778556823730e-01) (15, -6.32057785987854003906e-02) (16, -7.16283023357391357422e-02) (17, -2.89347246289253234863e-02) (18, -1.32337704300880432129e-01) (19, -5.94399385154247283936e-02) (20, -6.70091360807418823242e-02) (21, -8.23718085885047912598e-02) (22, -8.26804414391517639160e-02) (23, -6.94172233343124389648e-02) (24, -1.55294612050056457520e-01) (25, -9.69306007027626037598e-02) (26, 2.74703502655029296875e-02) (27, -1.66157409548759460449e-01) (28, -1.37515664100646972656e-02) (29, -1.49000510573387145996e-01) (30, -1.11578851938247680664e-01) (31, -1.65573999285697937012e-01) (32, -6.27907365560531616211e-02) (33, 7.04356580972671508789e-02) (34, -1.46086961030960083008e-02) (35, 1.16167068481445312500e-02) (36, 3.63422073423862457275e-02) (37, 3.14880348742008209229e-02) (38, 4.70998324453830718994e-02) (39, 3.46177257597446441650e-02) (40, 4.80023957788944244385e-02) (41, 4.12333058193325996399e-03) (42, -7.12099671363830566406e-02) (43, 2.37873243167996406555e-03) (44, 7.16143893077969551086e-03) (45, -9.65714454650878906250e-03) (46, -7.99748599529266357422e-02) (47, -1.09420642256736755371e-01) (48, -5.08946226909756660461e-03) (49, -1.10888704657554626465e-01) (50, -7.83133506774902343750e-02) (51, 1.51180662214756011963e-02) (52, -8.25377106666564941406e-02) (53, 1.68193913996219635010e-02) (54, -8.87895822525024414062e-02) (55, -5.89780770242214202881e-02) (56, -1.67965907603502273560e-02) (57, -7.26239681243896484375e-02) (58, 3.72766293585300445557e-02) (59, -6.37375116348266601562e-02) (60, -8.16804170608520507812e-03) (61, -5.23260198533535003662e-02) (62, -1.51535868644714355469e-02) (63, -5.82442246377468109131e-02) (64, -8.27156901359558105469e-02) (65, 2.50519849359989166260e-02) (66, 7.66276270151138305664e-02) (67, -9.20408219099044799805e-02) (68, -1.01966664195060729980e-01) (69, 7.41718858480453491211e-02) (70, 3.46210338175296783447e-02) (71, -9.62707251310348510742e-02) (72, 5.79002546146512031555e-03) (73, -5.90738020837306976318e-02) (74, -2.52219513058662414551e-02) (75, -7.70012736320495605469e-02) (76, 6.73331767320632934570e-02) (77, -1.03489562869071960449e-01) (78, 7.89093524217605590820e-02) (79, 5.70386499166488647461e-02) (80, 7.64075666666030883789e-02) (81, 9.87920537590980529785e-03) (82, 6.74537569284439086914e-02) (83, -7.68872499465942382812e-02) (84, -1.59248113632202148438e-02) (85, -2.05634329468011856079e-02) (86, 1.82785429060459136963e-02) (87, 3.52777875959873199463e-02) (88, -5.84588609635829925537e-02) (89, -8.99237245321273803711e-02) (90, 7.97305554151535034180e-02) (91, 5.89645057916641235352e-02) (92, 4.40951026976108551025e-02) (93, -6.58657848834991455078e-02) (94, 2.17728354036808013916e-02) (95, -3.59885133802890777588e-02) (96, -3.12801077961921691895e-02) (97, -9.65642184019088745117e-02) (98, 7.25383609533309936523e-02) (99, -2.01461408287286758423e-02) (100, 3.16805578768253326416e-02) (101, 8.30624848604202270508e-02) (102, 5.86510747671127319336e-02) (103, -2.39138975739479064941e-02) (104, -9.27503556013107299805e-02) (105, -2.77709439396858215332e-02) (106, 8.19824784994125366211e-02) (107, -9.30080264806747436523e-02) (108, 4.17346097528934478760e-02) (109, 6.15092962980270385742e-02) (110, 1.45096816122531890869e-02) (111, -1.07911393046379089355e-01) (112, -9.33953896164894104004e-02) (113, -1.01428553462028503418e-01) (114, -8.19998383522033691406e-02) (115, 5.69348782300949096680e-02) (116, -6.80024921894073486328e-02) (117, -8.98746699094772338867e-02) (118, -9.60839241743087768555e-02) (119, -5.44114969670772552490e-02) (120, -6.61509335041046142578e-02) (121, 2.91469097137451171875e-02) (122, -9.97759550809860229492e-02) (123, -1.06827303767204284668e-01) (124, -1.92000959068536758423e-02) (125, -6.78685307502746582031e-02) (126, -3.81186939775943756104e-02) (127, -3.29061187803745269775e-02) (128, -7.90739953517913818359e-02) (129, -2.09471629932522773743e-03) (0, 6.01764082908630371094e-01) (1, 5.03231585025787353516e-01) (2, 4.67554569244384765625e-01) (3, 6.43621325492858886719e-01) (4, 5.97912728786468505859e-01) (5, 6.21948540210723876953e-01) (6, 7.12021350860595703125e-01) (7, 5.65536201000213623047e-01) (8, 5.89701116085052490234e-01) (9, 5.30504524707794189453e-01) (10, 6.12628936767578125000e-01) (11, 6.77511930465698242188e-01) (12, 5.66043853759765625000e-01) (13, 5.22392451763153076172e-01) (14, 6.72489821910858154297e-01) (15, 5.59546768665313720703e-01) (16, 5.25191366672515869141e-01) (17, 5.13865232467651367188e-01) (18, 5.56327462196350097656e-01) (19, 6.18273019790649414062e-01) (20, 5.38247704505920410156e-01) (21, 5.52358329296112060547e-01) (22, 7.08971858024597167969e-01) (23, 7.12808728218078613281e-01) (24, 5.98503768444061279297e-01) (25, 6.75881385803222656250e-01) (26, 5.61288774013519287109e-01) (27, 6.03117465972900390625e-01) (28, 6.18892133235931396484e-01) (29, 5.43344616889953613281e-01) (30, 6.15699887275695800781e-01) (31, 6.91108584403991699219e-01) (32, 6.85729861259460449219e-01) (33, 6.85058772563934326172e-01) (34, 6.06222867965698242188e-01) (35, 6.11597895622253417969e-01) (36, 5.49049139022827148438e-01) (37, 6.91939949989318847656e-01) (38, 6.57893300056457519531e-01) (39, 6.36406421661376953125e-01) (40, 7.06325232982635498047e-01) (41, 6.31856560707092285156e-01) (42, 6.36342585086822509766e-01) (43, 6.33013844490051269531e-01) (44, 6.86975479125976562500e-01) (45, 6.20214641094207763672e-01) (46, 5.70461809635162353516e-01) (47, 5.74929893016815185547e-01) (48, 6.69817924499511718750e-01) (49, 6.52976334095001220703e-01) (50, 5.96112668514251708984e-01) (51, 6.89002931118011474609e-01) (52, 6.95349812507629394531e-01) (53, 5.67804932594299316406e-01) (54, 5.19971013069152832031e-01) (55, 5.75397849082946777344e-01) (56, 5.34738302230834960938e-01) (57, 5.21424174308776855469e-01) (58, 6.79003775119781494141e-01) (59, 6.39746189117431640625e-01) (60, 6.37620031833648681641e-01) (61, 7.03292965888977050781e-01) (62, 6.68556034564971923828e-01) (63, 6.44088506698608398438e-01) (64, 6.18810772895812988281e-01) (65, 5.76164007186889648438e-01) (66, 6.11026942729949951172e-01) (67, 5.52979707717895507812e-01) (68, 5.52834331989288330078e-01) (69, 7.09122478961944580078e-01) (70, 6.44922435283660888672e-01) (71, 6.34635984897613525391e-01) (72, 5.50524115562438964844e-01) (73, 6.82100772857666015625e-01) (74, 6.90594315528869628906e-01) (75, 6.41991794109344482422e-01) (76, 5.79705119132995605469e-01) (77, 5.26509523391723632812e-01) (78, 6.68926656246185302734e-01) (79, 6.73449575901031494141e-01) (80, 6.89901947975158691406e-01) (81, 6.05459570884704589844e-01) (82, 5.82010805606842041016e-01) (83, 6.78315162658691406250e-01) (84, 6.66188061237335205078e-01) (85, 6.45584225654602050781e-01) (86, 5.57763159275054931641e-01) (87, 5.48238933086395263672e-01) (88, 6.74522340297698974609e-01) (89, 5.19868850708007812500e-01) (90, 6.58743202686309814453e-01) (91, 5.20596325397491455078e-01) (92, 6.85133278369903564453e-01) (93, 6.58307373523712158203e-01) (94, 5.95250844955444335938e-01) (95, 6.04188799858093261719e-01) (96, 6.24265432357788085938e-01) (97, 6.52282774448394775391e-01) (98, 5.40120959281921386719e-01) (99, 6.35752201080322265625e-01) (100, 7.10082352161407470703e-01) (101, 5.77378273010253906250e-01) (102, 6.19646549224853515625e-01) (103, 6.23138129711151123047e-01) (104, 7.05783903598785400391e-01) (105, 5.33235847949981689453e-01) (106, 5.17974019050598144531e-01) (107, 6.11884891986846923828e-01) (108, 5.73066651821136474609e-01) (109, 5.53795635700225830078e-01) (110, 6.66387915611267089844e-01) (111, 6.04721426963806152344e-01) (112, 5.76121389865875244141e-01) (113, 6.95125460624694824219e-01) (114, 5.96884846687316894531e-01) (115, 6.67197167873382568359e-01) (116, 6.05605065822601318359e-01) (117, 6.27414643764495849609e-01) (118, 5.80985009670257568359e-01) (119, 6.38345122337341308594e-01) (120, 6.89854681491851806641e-01) (121, 6.10463201999664306641e-01) (122, 6.78721427917480468750e-01) (123, 6.94170832633972167969e-01) (124, 5.52707374095916748047e-01) (125, 5.75821757316589355469e-01) (126, 6.58783257007598876953e-01) (127, 5.93759536743164062500e-01) (128, 5.39674639701843261719e-01) (129, 4.85868960618972778320e-01) (0, 2.81844317913055419922e-01) (1, 2.66083002090454101562e-01) (2, 1.65308162569999694824e-01) (3, 2.42937996983528137207e-01) (4, 1.67637601494789123535e-01) (5, 1.93786740303039550781e-01) (6, 2.61640608310699462891e-01) (7, 1.94021731615066528320e-01) (8, 1.23778142035007476807e-01) (9, 1.60397455096244812012e-01) (10, 8.83229672908782958984e-02) (11, 2.45335578918457031250e-01) (12, 1.56197130680084228516e-01) (13, 2.06192046403884887695e-01) (14, 2.90715098381042480469e-01) (15, 1.57147929072380065918e-01) (16, 9.40062031149864196777e-02) (17, 2.51107692718505859375e-01) (18, 1.67265444993972778320e-01) (19, 2.31180191040039062500e-01) (20, 2.46010661125183105469e-01) (21, 1.02270923554897308350e-01) (22, 2.68262565135955810547e-01) (23, 8.92454236745834350586e-02) (24, 1.48808032274246215820e-01) (25, 2.17480480670928955078e-01) (26, 1.94756180047988891602e-01) (27, 2.87515938282012939453e-01) (28, 1.88666895031929016113e-01) (29, 2.33268916606903076172e-01) (30, 2.39207267761230468750e-01) (31, 1.57349020242691040039e-01) (32, 1.86404481530189514160e-01) (33, 2.08504900336265563965e-01) (34, 2.49390780925750732422e-01) (35, 2.19929605722427368164e-01) (36, 2.64658510684967041016e-01) (37, 2.24119037389755249023e-01) (38, 2.77036070823669433594e-01) (39, 2.53861606121063232422e-01) (40, 1.60387411713600158691e-01) (41, 1.39742136001586914062e-01) (42, 1.54804393649101257324e-01) (43, 1.06184415519237518311e-01) (44, 1.50725051760673522949e-01) (45, 1.44600778818130493164e-01) (46, 2.13890656828880310059e-01) (47, 1.67931705713272094727e-01) (48, 1.36777535080909729004e-01) (49, 1.28798961639404296875e-01) (50, 2.32844650745391845703e-01) (51, 1.28401026129722595215e-01) (52, 1.44629821181297302246e-01) (53, 1.02021209895610809326e-01) (54, 1.79778203368186950684e-01) (55, 2.40722849965095520020e-01) (56, 1.37527033686637878418e-01) (57, 1.25442028045654296875e-01) (58, 2.12852343916893005371e-01) (59, 1.17343105375766754150e-01) (60, 9.44122895598411560059e-02) (61, 9.66101810336112976074e-02) (62, 2.36642673611640930176e-01) (63, 1.62100076675415039062e-01) (64, 1.24567911028861999512e-01) (65, 1.21489331126213073730e-01) (66, 