FANN_FLO_2.1
num_layers=3
learning_rate=0.700000
connection_rate=1.000000
network_type=0
learning_momentum=0.000000
training_algorithm=2
train_error_function=1
train_stop_function=0
cascade_output_change_fraction=0.010000
quickprop_decay=-0.000100
quickprop_mu=1.750000
rprop_increase_factor=1.200000
rprop_decrease_factor=0.500000
rprop_delta_min=0.000000
rprop_delta_max=50.000000
rprop_delta_zero=0.100000
cascade_output_stagnation_epochs=12
cascade_candidate_change_fraction=0.010000
cascade_candidate_stagnation_epochs=12
cascade_max_out_epochs=150
cascade_min_out_epochs=50
cascade_max_cand_epochs=150
cascade_min_cand_epochs=50
cascade_num_candidate_groups=2
bit_fail_limit=3.49999994039535522461e-01
cascade_candidate_limit=1.00000000000000000000e+03
cascade_weight_multiplier=4.00000005960464477539e-01
cascade_activation_functions_count=10
cascade_activation_functions=3 5 7 8 10 11 14 15 16 17 
cascade_activation_steepnesses_count=4
cascade_activation_steepnesses=2.50000000000000000000e-01 5.00000000000000000000e-01 7.50000000000000000000e-01 1.00000000000000000000e+00 
layer_sizes=130 130 130 
scale_included=0
neurons (num_inputs, activation_function, activation_steepness)=(0, 0, 0.00000000000000000000e+00) (0, 0, 0.00000000000000000000e+00) (0, 0, 0.00000000000000000000e+00) (0, 0, 0.00000000000000000000e+00) (0, 0, 0.00000000000000000000e+00) (0, 0, 0.00000000000000000000e+00) (0, 0, 0.00000000000000000000e+00) (0, 0, 0.00000000000000000000e+00) (0, 0, 0.00000000000000000000e+00) (0, 0, 0.00000000000000000000e+00) (0, 0, 0.00000000000000000000e+00) (0, 0, 0.00000000000000000000e+00) (0, 0, 0.00000000000000000000e+00) (0, 0, 0.00000000000000000000e+00) (0, 0, 0.00000000000000000000e+00) (0, 0, 0.00000000000000000000e+00) (0, 0, 0.00000000000000000000e+00) (0, 0, 0.00000000000000000000e+00) (0, 0, 0.00000000000000000000e+00) (0, 0, 0.00000000000000000000e+00) (0, 0, 0.00000000000000000000e+00) (0, 0, 0.00000000000000000000e+00) (0, 0, 0.00000000000000000000e+00) (0, 0, 0.00000000000000000000e+00) (0, 0, 0.00000000000000000000e+00) (0, 0, 0.00000000000000000000e+00) (0, 0, 0.00000000000000000000e+00) (0, 0, 0.00000000000000000000e+00) (0, 0, 0.00000000000000000000e+00) (0, 0, 0.00000000000000000000e+00) (0, 0, 0.00000000000000000000e+00) (0, 0, 0.00000000000000000000e+00) (0, 0, 0.00000000000000000000e+00) (0, 0, 0.00000000000000000000e+00) (0, 0, 0.00000000000000000000e+00) (0, 0, 0.00000000000000000000e+00) (0, 0, 0.00000000000000000000e+00) (0, 0, 0.00000000000000000000e+00) (0, 0, 0.00000000000000000000e+00) (0, 0, 0.00000000000000000000e+00) (0, 0, 0.00000000000000000000e+00) (0, 0, 0.00000000000000000000e+00) (0, 0, 0.00000000000000000000e+00) (0, 0, 0.00000000000000000000e+00) (0, 0, 0.00000000000000000000e+00) (0, 0, 0.00000000000000000000e+00) (0, 0, 0.00000000000000000000e+00) (0, 0, 0.00000000000000000000e+00) (0, 0, 0.00000000000000000000e+00) (0, 0, 0.00000000000000000000e+00) (0, 0, 0.00000000000000000000e+00) (0, 0, 0.00000000000000000000e+00) (0, 0, 0.00000000000000000000e+00) (0, 0, 0.00000000000000000000e+00) (0, 0, 0.00000000000000000000e+00) (0, 0, 0.00000000000000000000e+00) (0, 0, 0.00000000000000000000e+00) (0, 0, 0.00000000000000000000e+00) (0, 0, 0.00000000000000000000e+00) (0, 0, 0.00000000000000000000e+00) (0, 0, 0.00000000000000000000e+00) (0, 0, 0.00000000000000000000e+00) (0, 0, 0.00000000000000000000e+00) (0, 0, 0.00000000000000000000e+00) (0, 0, 0.00000000000000000000e+00) (0, 0, 0.00000000000000000000e+00) (0, 0, 0.00000000000000000000e+00) (0, 0, 0.00000000000000000000e+00) (0, 0, 0.00000000000000000000e+00) (0, 0, 0.00000000000000000000e+00) (0, 0, 0.00000000000000000000e+00) (0, 0, 0.00000000000000000000e+00) (0, 0, 0.00000000000000000000e+00) (0, 0, 0.00000000000000000000e+00) (0, 0, 0.00000000000000000000e+00) (0, 0, 0.00000000000000000000e+00) (0, 0, 0.00000000000000000000e+00) (0, 0, 0.00000000000000000000e+00) (0, 0, 0.00000000000000000000e+00) (0, 0, 0.00000000000000000000e+00) (0, 0, 0.00000000000000000000e+00) (0, 0, 0.00000000000000000000e+00) (0, 0, 0.00000000000000000000e+00) (0, 0, 0.00000000000000000000e+00) (0, 0, 0.00000000000000000000e+00) (0, 0, 0.00000000000000000000e+00) (0, 0, 0.00000000000000000000e+00) (0, 0, 0.00000000000000000000e+00) (0, 0, 0.00000000000000000000e+00) (0, 0, 0.00000000000000000000e+00) (0, 0, 0.00000000000000000000e+00) (0, 0, 0.00000000000000000000e+00) (0, 0, 0.00000000000000000000e+00) (0, 0, 0.00000000000000000000e+00) (0, 0, 0.00000000000000000000e+00) (0, 0, 0.00000000000000000000e+00) (0, 0, 0.00000000000000000000e+00) (0, 0, 0.00000000000000000000e+00) (0, 0, 0.00000000000000000000e+00) (0, 0, 0.00000000000000000000e+00) (0, 0, 0.00000000000000000000e+00) (0, 0, 0.00000000000000000000e+00) (0, 0, 0.00000000000000000000e+00) (0, 0, 0.00000000000000000000e+00) (0, 0, 0.00000000000000000000e+00) (0, 0, 0.00000000000000000000e+00) (0, 0, 0.00000000000000000000e+00) (0, 0, 0.00000000000000000000e+00) (0, 0, 0.00000000000000000000e+00) (0, 0, 0.00000000000000000000e+00) (0, 0, 0.00000000000000000000e+00) (0, 0, 0.00000000000000000000e+00) (0, 0, 0.00000000000000000000e+00) (0, 0, 0.00000000000000000000e+00) (0, 0, 0.00000000000000000000e+00) (0, 0, 0.00000000000000000000e+00) (0, 0, 0.00000000000000000000e+00) (0, 0, 0.00000000000000000000e+00) (0, 0, 0.00000000000000000000e+00) (0, 0, 0.00000000000000000000e+00) (0, 0, 0.00000000000000000000e+00) (0, 0, 0.00000000000000000000e+00) (0, 0, 0.00000000000000000000e+00) (0, 0, 0.00000000000000000000e+00) (0, 0, 0.00000000000000000000e+00) (0, 0, 0.00000000000000000000e+00) (0, 0, 0.00000000000000000000e+00) (0, 0, 0.00000000000000000000e+00) (0, 0, 0.00000000000000000000e+00) (0, 0, 0.00000000000000000000e+00) (130, 5, 5.00000000000000000000e-01) (130, 5, 5.00000000000000000000e-01) (130, 5, 5.00000000000000000000e-01) (130, 5, 5.00000000000000000000e-01) (130, 5, 5.00000000000000000000e-01) (130, 5, 5.00000000000000000000e-01) (130, 5, 5.00000000000000000000e-01) (130, 5, 5.00000000000000000000e-01) (130, 5, 5.00000000000000000000e-01) (130, 5, 5.00000000000000000000e-01) (130, 5, 5.00000000000000000000e-01) (130, 5, 5.00000000000000000000e-01) (130, 5, 5.00000000000000000000e-01) (130, 5, 5.00000000000000000000e-01) (130, 5, 5.00000000000000000000e-01) (130, 5, 5.00000000000000000000e-01) (130, 5, 5.00000000000000000000e-01) (130, 5, 5.00000000000000000000e-01) (130, 5, 5.00000000000000000000e-01) (130, 5, 5.00000000000000000000e-01) (130, 5, 5.00000000000000000000e-01) (130, 5, 5.00000000000000000000e-01) (130, 5, 5.00000000000000000000e-01) (130, 5, 5.00000000000000000000e-01) (130, 5, 5.00000000000000000000e-01) (130, 5, 5.00000000000000000000e-01) (130, 5, 5.00000000000000000000e-01) (130, 5, 5.00000000000000000000e-01) (130, 5, 5.00000000000000000000e-01) (130, 5, 5.00000000000000000000e-01) (130, 5, 5.00000000000000000000e-01) (130, 5, 5.00000000000000000000e-01) (130, 5, 5.00000000000000000000e-01) (130, 5, 5.00000000000000000000e-01) (130, 5, 5.00000000000000000000e-01) (130, 5, 5.00000000000000000000e-01) (130, 5, 5.00000000000000000000e-01) (130, 5, 5.00000000000000000000e-01) (130, 5, 5.00000000000000000000e-01) (130, 5, 5.00000000000000000000e-01) (130, 5, 5.00000000000000000000e-01) (130, 5, 5.00000000000000000000e-01) (130, 5, 5.00000000000000000000e-01) (130, 5, 5.00000000000000000000e-01) (130, 5, 5.00000000000000000000e-01) (130, 5, 5.00000000000000000000e-01) (130, 5, 5.00000000000000000000e-01) (130, 5, 5.00000000000000000000e-01) (130, 5, 5.00000000000000000000e-01) (130, 5, 5.00000000000000000000e-01) (130, 5, 5.00000000000000000000e-01) (130, 5, 5.00000000000000000000e-01) (130, 5, 5.00000000000000000000e-01) (130, 5, 5.00000000000000000000e-01) (130, 5, 5.00000000000000000000e-01) (130, 5, 5.00000000000000000000e-01) (130, 5, 5.00000000000000000000e-01) (130, 5, 5.00000000000000000000e-01) (130, 5, 5.00000000000000000000e-01) (130, 5, 5.00000000000000000000e-01) (130, 5, 5.00000000000000000000e-01) (130, 5, 5.00000000000000000000e-01) (130, 5, 5.00000000000000000000e-01) (130, 5, 5.00000000000000000000e-01) (130, 5, 5.00000000000000000000e-01) (130, 5, 5.00000000000000000000e-01) (130, 5, 5.00000000000000000000e-01) (130, 5, 5.00000000000000000000e-01) (130, 5, 5.00000000000000000000e-01) (130, 5, 5.00000000000000000000e-01) (130, 5, 5.00000000000000000000e-01) (130, 5, 5.00000000000000000000e-01) (130, 5, 5.00000000000000000000e-01) (130, 5, 5.00000000000000000000e-01) (130, 5, 5.00000000000000000000e-01) (130, 5, 5.00000000000000000000e-01) (130, 5, 5.00000000000000000000e-01) (130, 5, 5.00000000000000000000e-01) (130, 5, 5.00000000000000000000e-01) (130, 5, 5.00000000000000000000e-01) (130, 5, 5.00000000000000000000e-01) (130, 5, 5.00000000000000000000e-01) (130, 5, 5.00000000000000000000e-01) (130, 5, 5.00000000000000000000e-01) (130, 5, 5.00000000000000000000e-01) (130, 5, 5.00000000000000000000e-01) (130, 5, 5.00000000000000000000e-01) (130, 5, 5.00000000000000000000e-01) (130, 5, 5.00000000000000000000e-01) (130, 5, 5.00000000000000000000e-01) (130, 5, 5.00000000000000000000e-01) (130, 5, 5.00000000000000000000e-01) (130, 5, 5.00000000000000000000e-01) (130, 5, 5.00000000000000000000e-01) (130, 5, 5.00000000000000000000e-01) (130, 5, 5.00000000000000000000e-01) (130, 5, 5.00000000000000000000e-01) (130, 5, 5.00000000000000000000e-01) (130, 5, 5.00000000000000000000e-01) (130, 5, 5.00000000000000000000e-01) (130, 5, 5.00000000000000000000e-01) (130, 5, 5.00000000000000000000e-01) (130, 5, 5.00000000000000000000e-01) (130, 5, 5.00000000000000000000e-01) (130, 5, 5.00000000000000000000e-01) (130, 5, 5.00000000000000000000e-01) (130, 5, 5.00000000000000000000e-01) (130, 5, 5.00000000000000000000e-01) (130, 5, 5.00000000000000000000e-01) (130, 5, 5.00000000000000000000e-01) (130, 5, 5.00000000000000000000e-01) (130, 5, 5.00000000000000000000e-01) (130, 5, 5.00000000000000000000e-01) (130, 5, 5.00000000000000000000e-01) (130, 5, 5.00000000000000000000e-01) (130, 5, 5.00000000000000000000e-01) (130, 5, 5.00000000000000000000e-01) (130, 5, 5.00000000000000000000e-01) (130, 5, 5.00000000000000000000e-01) (130, 5, 5.00000000000000000000e-01) (130, 5, 5.00000000000000000000e-01) (130, 5, 5.00000000000000000000e-01) (130, 5, 5.00000000000000000000e-01) (130, 5, 5.00000000000000000000e-01) (130, 5, 5.00000000000000000000e-01) (130, 5, 5.00000000000000000000e-01) (130, 5, 5.00000000000000000000e-01) (130, 5, 5.00000000000000000000e-01) (130, 5, 5.00000000000000000000e-01) (0, 5, 0.00000000000000000000e+00) (130, 5, 5.00000000000000000000e-01) (130, 5, 5.00000000000000000000e-01) (130, 5, 5.00000000000000000000e-01) (130, 5, 5.00000000000000000000e-01) (130, 5, 5.00000000000000000000e-01) (130, 5, 5.00000000000000000000e-01) (130, 5, 5.00000000000000000000e-01) (130, 5, 5.00000000000000000000e-01) (130, 5, 5.00000000000000000000e-01) (130, 5, 5.00000000000000000000e-01) (130, 5, 5.00000000000000000000e-01) (130, 5, 5.00000000000000000000e-01) (130, 5, 5.00000000000000000000e-01) (130, 5, 5.00000000000000000000e-01) (130, 5, 5.00000000000000000000e-01) (130, 5, 5.00000000000000000000e-01) (130, 5, 5.00000000000000000000e-01) (130, 5, 5.00000000000000000000e-01) (130, 5, 5.00000000000000000000e-01) (130, 5, 5.00000000000000000000e-01) (130, 5, 5.00000000000000000000e-01) (130, 5, 5.00000000000000000000e-01) (130, 5, 5.00000000000000000000e-01) (130, 5, 5.00000000000000000000e-01) (130, 5, 5.00000000000000000000e-01) (130, 5, 5.00000000000000000000e-01) (130, 5, 5.00000000000000000000e-01) (130, 5, 5.00000000000000000000e-01) (130, 5, 5.00000000000000000000e-01) (130, 5, 5.00000000000000000000e-01) (130, 5, 5.00000000000000000000e-01) (130, 5, 5.00000000000000000000e-01) (130, 5, 5.00000000000000000000e-01) (130, 5, 5.00000000000000000000e-01) (130, 5, 5.00000000000000000000e-01) (130, 5, 5.00000000000000000000e-01) (130, 5, 5.00000000000000000000e-01) (130, 5, 5.00000000000000000000e-01) (130, 5, 5.00000000000000000000e-01) (130, 5, 5.00000000000000000000e-01) (130, 5, 5.00000000000000000000e-01) (130, 5, 5.00000000000000000000e-01) (130, 5, 5.00000000000000000000e-01) (130, 5, 5.00000000000000000000e-01) (130, 5, 5.00000000000000000000e-01) (130, 5, 5.00000000000000000000e-01) (130, 5, 5.00000000000000000000e-01) (130, 5, 5.00000000000000000000e-01) (130, 5, 5.00000000000000000000e-01) (130, 5, 5.00000000000000000000e-01) (130, 5, 5.00000000000000000000e-01) (130, 5, 5.00000000000000000000e-01) (130, 5, 5.00000000000000000000e-01) (130, 5, 5.00000000000000000000e-01) (130, 5, 5.00000000000000000000e-01) (130, 5, 5.00000000000000000000e-01) (130, 5, 5.00000000000000000000e-01) (130, 5, 5.00000000000000000000e-01) (130, 5, 5.00000000000000000000e-01) (130, 5, 5.00000000000000000000e-01) (130, 5, 5.00000000000000000000e-01) (130, 5, 5.00000000000000000000e-01) (130, 5, 5.00000000000000000000e-01) (130, 5, 5.00000000000000000000e-01) (130, 5, 5.00000000000000000000e-01) (130, 5, 5.00000000000000000000e-01) (130, 5, 5.00000000000000000000e-01) (130, 5, 5.00000000000000000000e-01) (130, 5, 5.00000000000000000000e-01) (130, 5, 5.00000000000000000000e-01) (130, 5, 5.00000000000000000000e-01) (130, 5, 5.00000000000000000000e-01) (130, 5, 5.00000000000000000000e-01) (130, 5, 5.00000000000000000000e-01) (130, 5, 5.00000000000000000000e-01) (130, 5, 5.00000000000000000000e-01) (130, 5, 5.00000000000000000000e-01) (130, 5, 5.00000000000000000000e-01) (130, 5, 5.00000000000000000000e-01) (130, 5, 5.00000000000000000000e-01) (130, 5, 5.00000000000000000000e-01) (130, 5, 5.00000000000000000000e-01) (130, 5, 5.00000000000000000000e-01) (130, 5, 5.00000000000000000000e-01) (130, 5, 5.00000000000000000000e-01) (130, 5, 5.00000000000000000000e-01) (130, 5, 5.00000000000000000000e-01) (130, 5, 5.00000000000000000000e-01) (130, 5, 5.00000000000000000000e-01) (130, 5, 5.00000000000000000000e-01) (130, 5, 5.00000000000000000000e-01) (130, 5, 5.00000000000000000000e-01) (130, 5, 5.00000000000000000000e-01) (130, 5, 5.00000000000000000000e-01) (130, 5, 5.00000000000000000000e-01) (130, 5, 5.00000000000000000000e-01) (130, 5, 5.00000000000000000000e-01) (130, 5, 5.00000000000000000000e-01) (130, 5, 5.00000000000000000000e-01) (130, 5, 5.00000000000000000000e-01) (130, 5, 5.00000000000000000000e-01) (130, 5, 5.00000000000000000000e-01) (130, 5, 5.00000000000000000000e-01) (130, 5, 5.00000000000000000000e-01) (130, 5, 5.00000000000000000000e-01) (130, 5, 5.00000000000000000000e-01) (130, 5, 5.00000000000000000000e-01) (130, 5, 5.00000000000000000000e-01) (130, 5, 5.00000000000000000000e-01) (130, 5, 5.00000000000000000000e-01) (130, 5, 5.00000000000000000000e-01) (130, 5, 5.00000000000000000000e-01) (130, 5, 5.00000000000000000000e-01) (130, 5, 5.00000000000000000000e-01) (130, 5, 5.00000000000000000000e-01) (130, 5, 5.00000000000000000000e-01) (130, 5, 5.00000000000000000000e-01) (130, 5, 5.00000000000000000000e-01) (130, 5, 5.00000000000000000000e-01) (130, 5, 5.00000000000000000000e-01) (130, 5, 5.00000000000000000000e-01) (130, 5, 5.00000000000000000000e-01) (130, 5, 5.00000000000000000000e-01) (130, 5, 5.00000000000000000000e-01) (130, 5, 5.00000000000000000000e-01) (130, 5, 5.00000000000000000000e-01) (130, 5, 5.00000000000000000000e-01) (130, 5, 5.00000000000000000000e-01) (130, 5, 5.00000000000000000000e-01) (0, 5, 0.00000000000000000000e+00) 
connections (connected_to_neuron, weight)=(0, 2.69452571868896484375e-01) (1, 1.71218141913414001465e-01) (2, 1.45251706242561340332e-01) (3, 1.27658337354660034180e-01) (4, 3.15428495407104492188e-01) (5, 2.67467260360717773438e-01) (6, 3.82471323013305664062e-01) (7, 2.56285399198532104492e-01) (8, 2.49783769249916076660e-01) (9, 3.76361668109893798828e-01) (10, 3.71218383312225341797e-01) (11, 3.27766239643096923828e-01) (12, 2.27213129401206970215e-01) (13, 2.31470420956611633301e-01) (14, 3.83985638618469238281e-01) (15, 3.07167112827301025391e-01) (16, 2.18250498175621032715e-01) (17, 1.96699514985084533691e-01) (18, 1.89495489001274108887e-01) (19, 3.11242878437042236328e-01) (20, 3.19809079170227050781e-01) (21, 2.91314035654067993164e-01) (22, 3.75585436820983886719e-01) (23, 3.25304150581359863281e-01) (24, 2.47337743639945983887e-01) (25, 2.65871465206146240234e-01) (26, 3.62594902515411376953e-01) (27, 1.92686453461647033691e-01) (28, 3.42003285884857177734e-01) (29, 3.10088396072387695312e-01) (30, 3.16359758377075195312e-01) (31, 3.19130420684814453125e-01) (32, 2.85465598106384277344e-01) (33, 2.80504226684570312500e-01) (34, 2.95102536678314208984e-01) (35, 2.48967602849006652832e-01) (36, 2.58882343769073486328e-01) (37, 2.96264946460723876953e-01) (38, 3.84937644004821777344e-01) (39, 3.07817518711090087891e-01) (40, 3.49063396453857421875e-01) (41, 3.68961393833160400391e-01) (42, 1.94576874375343322754e-01) (43, 3.14285695552825927734e-01) (44, 2.60342419147491455078e-01) (45, 2.35703274607658386230e-01) (46, 3.25672805309295654297e-01) (47, 2.43543133139610290527e-01) (48, 2.90276974439620971680e-01) (49, 3.45503509044647216797e-01) (50, 3.38251411914825439453e-01) (51, 2.52214193344116210938e-01) (52, 2.24745199084281921387e-01) (53, 3.53009402751922607422e-01) (54, 2.89484560489654541016e-01) (55, 2.27774783968925476074e-01) (56, 2.71518081426620483398e-01) (57, 2.64669537544250488281e-01) (58, 3.61597895622253417969e-01) (59, 2.35894545912742614746e-01) (60, 3.40404093265533447266e-01) (61, 2.31864795088768005371e-01) (62, 2.12242648005485534668e-01) (63, 2.22551926970481872559e-01) (64, 2.90728807449340820312e-01) (65, 3.39337289333343505859e-01) (66, 3.01940858364105224609e-01) (67, 3.80197227001190185547e-01) (68, 2.35678955912590026855e-01) (69, 3.16817045211791992188e-01) (70, 2.04260304570198059082e-01) (71, 2.63761222362518310547e-01) (72, 2.95691728591918945312e-01) (73, 3.51555228233337402344e-01) (74, 2.49153062701225280762e-01) (75, 3.76358449459075927734e-01) (76, 3.17108452320098876953e-01) (77, 3.01806569099426269531e-01) (78, 3.23136508464813232422e-01) (79, 2.16188326478004455566e-01) (80, 3.37859630584716796875e-01) (81, 2.67144680023193359375e-01) (82, 3.61182928085327148438e-01) (83, 2.61820018291473388672e-01) (84, 2.70004838705062866211e-01) (85, 2.31498941779136657715e-01) (86, 2.63145685195922851562e-01) (87, 3.50400865077972412109e-01) (88, 2.47375503182411193848e-01) (89, 3.00646394491195678711e-01) (90, 2.24285349249839782715e-01) (91, 2.24674805998802185059e-01) (92, 3.69983255863189697266e-01) (93, 3.68966639041900634766e-01) (94, 2.82877117395401000977e-01) (95, 3.76226663589477539062e-01) (96, 3.01829576492309570312e-01) (97, 3.09951722621917724609e-01) (98, 2.18752190470695495605e-01) (99, 2.28666976094245910645e-01) (100, 2.66454935073852539062e-01) (101, 3.68785142898559570312e-01) (102, 2.32020631432533264160e-01) (103, 2.31343373656272888184e-01) (104, 2.48584255576133728027e-01) (105, 2.16285601258277893066e-01) (106, 3.72905552387237548828e-01) (107, 2.84154623746871948242e-01) (108, 2.47069284319877624512e-01) (109, 3.54130804538726806641e-01) (110, 3.37408781051635742188e-01) (111, 2.89910674095153808594e-01) (112, 1.89142152667045593262e-01) (113, 3.72725367546081542969e-01) (114, 2.56000846624374389648e-01) (115, 2.67001867294311523438e-01) (116, 3.60804140567779541016e-01) (117, 2.96045392751693725586e-01) (118, 2.95266330242156982422e-01) (119, 2.01437488198280334473e-01) (120, 2.20362439751625061035e-01) (121, 2.92117297649383544922e-01) (122, 2.75404065847396850586e-01) (123, 3.76524031162261962891e-01) (124, 2.99429655075073242188e-01) (125, 3.74718189239501953125e-01) (126, 3.48808825016021728516e-01) (127, 2.89987921714782714844e-01) (128, 2.87363082170486450195e-01) (129, 2.91892826557159423828e-01) (0, -1.50220513343811035156e-01) (1, -1.28803625702857971191e-02) (2, -1.36677205562591552734e-01) (3, 9.42787714302539825439e-03) (4, -2.02957494184374809265e-03) (5, -1.67566180229187011719e-01) (6, -1.41024887561798095703e-01) (7, -6.13638572394847869873e-02) (8, 1.57809304073452949524e-03) (9, -1.33128762245178222656e-01) (10, -1.51816368103027343750e-01) (11, -3.43815758824348449707e-02) (12, -1.07521012425422668457e-01) (13, -1.62017464637756347656e-01) (14, -8.40702503919601440430e-02) (15, -2.49032769352197647095e-02) (16, -5.58776361867785453796e-03) (17, 3.04262954741716384888e-02) (18, -8.17033201456069946289e-02) (19, -4.39457371830940246582e-02) (20, -5.22611215710639953613e-02) (21, -8.78102332353591918945e-03) (22, -3.87944653630256652832e-02) (23, -7.49811679124832153320e-02) (24, -6.46658092737197875977e-02) (25, -9.42843705415725708008e-02) (26, -9.37005430459976196289e-02) (27, -8.11944156885147094727e-02) (28, -9.08652096986770629883e-02) (29, -2.80301366001367568970e-02) (30, -1.58877789974212646484e-01) (31, -1.15791395306587219238e-01) (32, -1.61952853202819824219e-01) (33, 1.74143956974148750305e-03) (34, 1.21330339461565017700e-02) (35, -1.36639177799224853516e-01) (36, -1.51030957698822021484e-01) (37, -3.38261201977729797363e-02) (38, 2.80633885413408279419e-02) (39, 4.88540576770901679993e-03) (40, -1.47238016128540039062e-01) (41, -8.57600718736648559570e-02) (42, -2.58612725883722305298e-02) (43, -1.06839850544929504395e-01) (44, -1.13422945141792297363e-01) (45, -1.55897736549377441406e-01) (46, -2.95529160648584365845e-02) (47, -1.51927053928375244141e-01) (48, -9.44872945547103881836e-02) (49, -1.04089453816413879395e-01) (50, -8.79120975732803344727e-02) (51, 5.23531483486294746399e-03) (52, -6.66466206312179565430e-02) (53, 1.42629761248826980591e-02) (54, -1.38780772686004638672e-01) (55, -1.45144939422607421875e-01) (56, -1.07595160603523254395e-01) (57, -8.34799557924270629883e-03) (58, -1.61141335964202880859e-01) (59, -1.59010052680969238281e-01) (60, -1.38336241245269775391e-01) (61, -7.34902471303939819336e-02) (62, -6.62402017042040824890e-03) (63, 1.38292033225297927856e-02) (64, -2.91470680385828018188e-02) (65, -1.31099104881286621094e-01) (66, -3.92100885510444641113e-02) (67, -6.04164414107799530029e-02) (68, -7.53183513879776000977e-02) (69, -1.31335914134979248047e-01) (70, -1.93289630115032196045e-02) (71, -1.18267334997653961182e-01) (72, 2.46266145259141921997e-02) (73, -1.56685918569564819336e-01) (74, -7.65563100576400756836e-02) (75, -1.37976527214050292969e-01) (76, -2.78563294559717178345e-02) (77, -3.77246215939521789551e-02) (78, -9.40559059381484985352e-02) (79, -5.34702017903327941895e-02) (80, -1.29768788814544677734e-01) (81, -8.03390890359878540039e-02) (82, -1.15138188004493713379e-01) (83, 1.67480129748582839966e-02) (84, 2.74214167147874832153e-02) (85, 1.50598902255296707153e-02) (86, -1.45169138908386230469e-01) (87, -1.14325329661369323730e-01) (88, -1.21967561542987823486e-01) (89, -1.65251553058624267578e-01) (90, -3.94460037350654602051e-02) (91, -2.54507753998041152954e-02) (92, -7.23636848852038383484e-03) (93, -7.76930004358291625977e-02) (94, -4.24146726727485656738e-02) (95, -1.19921274483203887939e-01) (96, 2.68531460314989089966e-02) (97, -1.35375559329986572266e-01) (98, -1.13739714026451110840e-01) (99, -7.95835107564926147461e-02) (100, -1.62623636424541473389e-02) (101, 2.22670752555131912231e-02) (102, -1.35548189282417297363e-02) (103, -7.19443708658218383789e-02) (104, -2.52647493034601211548e-02) (105, -8.11935216188430786133e-02) (106, -7.55865722894668579102e-02) (107, -3.99601235985755920410e-02) (108, -6.61678463220596313477e-02) (109, -1.39003813266754150391e-01) (110, -9.37520116567611694336e-02) (111, -1.46135002374649047852e-01) (112, -1.47367179393768310547e-01) (113, -5.69388978183269500732e-02) (114, -2.85874996334314346313e-02) (115, -1.26354664564132690430e-01) (116, -9.91809517145156860352e-02) (117, 9.52696986496448516846e-03) (118, -1.36689335107803344727e-01) (119, 5.91409252956509590149e-03) (120, -5.80573491752147674561e-02) (121, -2.61224005371332168579e-02) (122, -9.55953747034072875977e-02) (123, -1.27498626708984375000e-01) (124, -1.25519514083862304688e-01) (125, -6.25109821557998657227e-02) (126, -7.83679634332656860352e-02) (127, 1.35996062308549880981e-02) (128, -8.77099186182022094727e-02) (129, 3.36030172184109687805e-03) (0, 9.58005934953689575195e-02) (1, -3.99339050054550170898e-02) (2, 7.05224797129631042480e-02) (3, -8.91032218933105468750e-02) (4, 8.17928016185760498047e-02) (5, -6.86259865760803222656e-02) (6, 4.26274761557579040527e-02) (7, 7.94465541839599609375e-02) (8, 9.78415161371231079102e-02) (9, 6.21769651770591735840e-02) (10, 4.78746071457862854004e-02) (11, 6.81289806962013244629e-02) (12, 8.33086967468261718750e-02) (13, 8.89509543776512145996e-03) (14, -6.05825185775756835938e-02) (15, 2.91801057755947113037e-02) (16, 6.94376900792121887207e-02) (17, 7.87763446569442749023e-02) (18, 3.37489619851112365723e-02) (19, 5.84372654557228088379e-02) (20, -5.36820013076066970825e-03) (21, 1.61383170634508132935e-02) (22, 7.61839151382446289062e-02) (23, 6.27234205603599548340e-02) (24, 3.19843254983425140381e-02) (25, 6.50321599096059799194e-05) (26, -6.75069689750671386719e-02) (27, 4.99249920248985290527e-02) (28, -7.10758119821548461914e-02) (29, 6.82381018996238708496e-02) (30, -8.26020091772079467773e-02) (31, -5.24518042802810668945e-02) (32, 8.21000486612319946289e-02) (33, 9.51060056686401367188e-02) (34, 8.63304138183593750000e-02) (35, -5.20153064280748367310e-03) (36, 1.72428265213966369629e-02) (37, 3.97870913147926330566e-02) (38, -5.88310509920120239258e-02) (39, 6.61005154252052307129e-02) (40, -9.06173512339591979980e-03) (41, -6.09650313854217529297e-02) (42, 3.35860764607787132263e-04) (43, 8.42796415090560913086e-02) (44, -7.23345428705215454102e-02) (45, -8.69874209165573120117e-02) (46, 4.20942828059196472168e-02) (47, -8.18385928869247436523e-02) (48, -2.17282846570014953613e-02) (49, 5.21208569407463073730e-02) (50, 3.47507074475288391113e-02) (51, 9.46386456489562988281e-02) (52, 3.12446467578411102295e-02) (53, -3.17969657480716705322e-02) (54, 2.79996059834957122803e-02) (55, 2.87995897233486175537e-02) (56, 7.42092579603195190430e-02) (57, 7.47259408235549926758e-02) (58, -4.13820296525955200195e-02) (59, -6.82524889707565307617e-02) (60, -7.98730552196502685547e-02) (61, 1.31650362163782119751e-02) (62, 1.04352876543998718262e-01) (63, 9.83922332525253295898e-02) (64, -8.20660442113876342773e-02) (65, -4.43540066480636596680e-02) (66, -1.82041190564632415771e-02) (67, 8.28363001346588134766e-02) (68, 6.93534091114997863770e-02) (69, 6.22426494956016540527e-02) (70, -4.82160001993179321289e-02) (71, 7.31465667486190795898e-02) (72, 1.40043068677186965942e-02) (73, 1.00029073655605316162e-02) (74, -4.17455285787582397461e-02) (75, 2.24116854369640350342e-02) (76, -8.74452590942382812500e-02) (77, -5.29093742370605468750e-02) (78, -8.20777937769889831543e-03) (79, 9.14097130298614501953e-02) (80, -3.73382568359375000000e-02) (81, 9.54184830188751220703e-02) (82, -6.17469437420368194580e-02) (83, 5.89133128523826599121e-02) (84, -4.39263600856065750122e-03) (85, 1.23349614441394805908e-02) (86, -4.68828827142715454102e-02) (87, 7.90900737047195434570e-02) (88, 1.06463164091110229492e-01) (89, -3.41598987579345703125e-02) (90, -8.59047323465347290039e-02) (91, 3.86266484856605529785e-02) (92, 3.75750139355659484863e-02) (93, -3.73126268386840820312e-02) (94, -7.37633556127548217773e-02) (95, 9.88769829273223876953e-02) (96, 6.50841817259788513184e-02) (97, -9.05806571245193481445e-02) (98, 5.04527911543846130371e-02) (99, -5.53068006411194801331e-04) (100, -5.59211708605289459229e-02) (101, -2.74673812091350555420e-02) (102, -4.90781385451555252075e-03) (103, -4.60618883371353149414e-02) (104, 7.74862319231033325195e-02) (105, -4.93917763233184814453e-02) (106, -8.79051834344863891602e-02) (107, 1.72048527747392654419e-02) (108, 1.50128058157861232758e-03) (109, 7.16267004609107971191e-02) (110, 6.95646479725837707520e-02) (111, 1.25091467052698135376e-02) (112, 8.07740241289138793945e-02) (113, 8.72752442955970764160e-03) (114, -7.70314186811447143555e-02) (115, -2.74105034768581390381e-02) (116, -4.88025397062301635742e-02) (117, 1.52115169912576675415e-02) (118, 9.94300395250320434570e-02) (119, -3.94853949546813964844e-02) (120, 8.54638591408729553223e-03) (121, 7.86189436912536621094e-02) (122, -1.17767117917537689209e-02) (123, -9.17829722166061401367e-02) (124, 4.32651117444038391113e-02) (125, -3.73540469445288181305e-03) (126, 5.86697533726692199707e-02) (127, 1.02054640650749206543e-01) (128, 7.20902606844902038574e-02) (129, 6.06432333588600158691e-02) (0, 2.70003259181976318359e-01) (1, 2.26995468139648437500e-01) (2, 1.95021346211433410645e-01) (3, 2.05899074673652648926e-01) (4, 2.27699875831604003906e-01) (5, 2.33373761177062988281e-01) (6, 1.94843783974647521973e-01) (7, 2.21458733081817626953e-01) (8, 1.38794317841529846191e-01) (9, 1.98013678193092346191e-01) (10, 2.97927260398864746094e-01) (11, 1.44942209124565124512e-01) (12, 1.25728964805603027344e-01) (13, 2.08650141954421997070e-01) (14, 2.65033245086669921875e-01) (15, 2.95489549636840820312e-01) (16, 1.75149783492088317871e-01) (17, 2.24538028240203857422e-01) (18, 2.92689621448516845703e-01) (19, 1.16705052554607391357e-01) (20, 1.43841400742530822754e-01) (21, 2.24400222301483154297e-01) (22, 1.76384851336479187012e-01) (23, 1.82465746998786926270e-01) (24, 1.83716043829917907715e-01) (25, 1.97515949606895446777e-01) (26, 1.32372796535491943359e-01) (27, 2.71345376968383789062e-01) (28, 1.83829799294471740723e-01) (29, 1.09728060662746429443e-01) (30, 2.81227111816406250000e-01) (31, 2.66354084014892578125e-01) (32, 2.95372605323791503906e-01) (33, 2.09184616804122924805e-01) (34, 2.47847139835357666016e-01) (35, 2.49207019805908203125e-01) (36, 3.04326176643371582031e-01) (37, 2.92444825172424316406e-01) (38, 2.02296629548072814941e-01) (39, 2.81698882579803466797e-01) (40, 1.94863721728324890137e-01) (41, 1.56881257891654968262e-01) (42, 1.85318544507026672363e-01) (43, 1.30912333726882934570e-01) (44, 1.25281214714050292969e-01) (45, 2.83203244209289550781e-01) (46, 2.78536617755889892578e-01) (47, 2.46811866760253906250e-01) (48, 2.49068796634674072266e-01) (49, 1.80850908160209655762e-01) (50, 2.43284046649932861328e-01) (51, 1.56575098633766174316e-01) (52, 2.39563703536987304688e-01) (53, 2.29508757591247558594e-01) (54, 2.35354363918304443359e-01) (55, 2.83154964447021484375e-01) (56, 2.67270803451538085938e-01) (57, 3.02768528461456298828e-01) (58, 1.12580679357051849365e-01) (59, 2.25476026535034179688e-01) (60, 2.56988346576690673828e-01) (61, 2.85238683223724365234e-01) (62, 2.88736164569854736328e-01) (63, 2.70687580108642578125e-01) (64, 1.28518193960189819336e-01) (65, 2.86947548389434814453e-01) (66, 2.08922386169433593750e-01) (67, 2.40472733974456787109e-01) (68, 3.06733369827270507812e-01) (69, 1.49642929434776306152e-01) (70, 1.30822926759719848633e-01) (71, 2.22597956657409667969e-01) (72, 2.85881519317626953125e-01) (73, 2.92101323604583740234e-01) (74, 2.28992223739624023438e-01) (75, 1.54290810227394104004e-01) (76, 2.47782051563262939453e-01) (77, 1.54654845595359802246e-01) (78, 1.65888115763664245605e-01) (79, 1.63472428917884826660e-01) (80, 1.63286551833152770996e-01) (81, 2.39370942115783691406e-01) (82, 1.89235344529151916504e-01) (83, 1.60307362675666809082e-01) (84, 1.67659774422645568848e-01) (85, 1.39651879668235778809e-01) (86, 2.11135149002075195312e-01) (87, 2.30257153511047363281e-01) (88, 2.13470876216888427734e-01) (89, 2.86910533905029296875e-01) (90, 1.87294229865074157715e-01) (91, 1.35958746075630187988e-01) (92, 1.40565261244773864746e-01) (93, 1.62154600024223327637e-01) (94, 2.14350104331970214844e-01) (95, 2.63721823692321777344e-01) (96, 2.54331588745117187500e-01) (97, 2.32688724994659423828e-01) (98, 2.81647264957427978516e-01) (99, 1.27767771482467651367e-01) (100, 2.74872422218322753906e-01) (101, 2.62704074382781982422e-01) (102, 1.48956313729286193848e-01) (103, 1.90620735287666320801e-01) (104, 2.44615256786346435547e-01) (105, 1.30234837532043457031e-01) (106, 1.38646468520164489746e-01) (107, 1.13391898572444915771e-01) (108, 2.59401023387908935547e-01) (109, 2.34515607357025146484e-01) (110, 1.85647472739219665527e-01) (111, 2.59323358535766601562e-01) (112, 1.30068033933639526367e-01) (113, 1.35269179940223693848e-01) (114, 1.51215031743049621582e-01) (115, 1.53169885277748107910e-01) (116, 2.08401083946228027344e-01) (117, 2.79168486595153808594e-01) (118, 2.67033755779266357422e-01) (119, 1.17900602519512176514e-01) (120, 2.37599968910217285156e-01) (121, 2.24111437797546386719e-01) (122, 1.22738324105739593506e-01) (123, 1.44851699471473693848e-01) (124, 2.04592689871788024902e-01) (125, 2.71531522274017333984e-01) (126, 1.12369291484355926514e-01) (127, 2.72388875484466552734e-01) (128, 1.21779464185237884521e-01) (129, 2.29499638080596923828e-01) (0, 3.52370440959930419922e-01) (1, 3.68894755840301513672e-01) (2, 2.92790532112121582031e-01) (3, 2.09374025464057922363e-01) (4, 2.29309141635894775391e-01) (5, 2.78730154037475585938e-01) (6, 2.96765625476837158203e-01) (7, 2.18391016125679016113e-01) (8, 1.77706912159919738770e-01) (9, 1.99994713068008422852e-01) (10, 1.91186830401420593262e-01) (11, 3.57282876968383789062e-01) (12, 3.32086265087127685547e-01) (13, 2.52439200878143310547e-01) (14, 2.24488615989685058594e-01) (15, 2.60207235813140869141e-01) (16, 1.82056888937950134277e-01) (17, 3.10023188591003417969e-01) (18, 2.39126235246658325195e-01) (19, 2.74567753076553344727e-01) (20, 3.39449167251586914062e-01) (21, 2.00724914669990539551e-01) (22, 2.63572543859481811523e-01) (23, 3.42574834823608398438e-01) (24, 3.34682345390319824219e-01) (25, 2.85145938396453857422e-01) (26, 3.26557517051696777344e-01) (27, 3.31439316272735595703e-01) (28, 1.79121866822242736816e-01) (29, 1.81433573365211486816e-01) (30, 2.34064757823944091797e-01) (31, 2.06343233585357666016e-01) (32, 2.90722787380218505859e-01) (33, 2.56503492593765258789e-01) (34, 3.33048939704895019531e-01) (35, 2.32966080307960510254e-01) (36, 3.40901553630828857422e-01) (37, 2.11831182241439819336e-01) (38, 3.26580405235290527344e-01) (39, 3.15590381622314453125e-01) (40, 2.06222653388977050781e-01) (41, 2.64189302921295166016e-01) (42, 3.08870196342468261719e-01) (43, 2.59977877140045166016e-01) (44, 3.27216327190399169922e-01) (45, 2.03854620456695556641e-01) (46, 2.64584660530090332031e-01) (47, 3.53609502315521240234e-01) (48, 1.93944454193115234375e-01) (49, 3.04503142833709716797e-01) (50, 2.63670235872268676758e-01) (51, 1.84831947088241577148e-01) (52, 3.50610256195068359375e-01) (53, 1.85776099562644958496e-01) (54, 2.19099819660186767578e-01) (55, 2.90575802326202392578e-01) (56, 1.86527892947196960449e-01) (57, 2.54339486360549926758e-01) (58, 3.62339496612548828125e-01) (59, 3.18677008152008056641e-01) (60, 2.83112585544586181641e-01) (61, 3.51836502552032470703e-01) (62, 1.94664701819419860840e-01) (63, 2.09719046950340270996e-01) (64, 2.28115007281303405762e-01) (65, 2.08867028355598449707e-01) (66, 3.08229148387908935547e-01) (67, 2.86207377910614013672e-01) (68, 3.65903794765472412109e-01) (69, 2.24047318100929260254e-01) (70, 2.43358954787254333496e-01) (71, 2.13908538222312927246e-01) (72, 2.40796238183975219727e-01) (73, 3.42275857925415039062e-01) (74, 3.09066951274871826172e-01) (75, 3.67713034152984619141e-01) (76, 2.31689542531967163086e-01) (77, 2.86106109619140625000e-01) (78, 2.64610767364501953125e-01) (79, 1.92275866866111755371e-01) (80, 2.60662376880645751953e-01) (81, 2.31691077351570129395e-01) (82, 3.11834514141082763672e-01) (83, 2.81935513019561767578e-01) (84, 3.69212150573730468750e-01) (85, 2.27106019854545593262e-01) (86, 2.50707417726516723633e-01) (87, 3.18263649940490722656e-01) (88, 3.36406886577606201172e-01) (89, 2.69082337617874145508e-01) (90, 3.46110641956329345703e-01) (91, 3.60133528709411621094e-01) (92, 2.42993161082267761230e-01) (93, 2.65788406133651733398e-01) (94, 1.84561088681221008301e-01) (95, 1.98466703295707702637e-01) (96, 3.09912562370300292969e-01) (97, 1.79408714175224304199e-01) (98, 2.02273547649383544922e-01) (99, 2.91578531265258789062e-01) (100, 2.39077001810073852539e-01) (101, 2.47084170579910278320e-01) (102, 2.22801148891448974609e-01) (103, 2.98888206481933593750e-01) (104, 2.93394267559051513672e-01) (105, 3.56009840965270996094e-01) (106, 3.36120009422302246094e-01) (107, 2.48464614152908325195e-01) (108, 2.24270045757293701172e-01) (109, 1.86590835452079772949e-01) (110, 3.12295556068420410156e-01) (111, 2.30080157518386840820e-01) (112, 2.37162739038467407227e-01) (113, 2.74105757474899291992e-01) (114, 3.74562263488769531250e-01) (115, 3.47137928009033203125e-01) (116, 2.25667551159858703613e-01) (117, 2.74357765913009643555e-01) (118, 2.10133776068687438965e-01) (119, 1.98393732309341430664e-01) (120, 2.83439099788665771484e-01) (121, 2.40013688802719116211e-01) (122, 1.89990237355232238770e-01) (123, 2.45944693684577941895e-01) (124, 2.72195309400558471680e-01) (125, 2.65411019325256347656e-01) (126, 2.42176339030265808105e-01) (127, 3.37561905384063720703e-01) (128, 2.81917035579681396484e-01) (129, 2.58409768342971801758e-01) (0, 1.02504417300224304199e-01) (1, 3.13799791038036346436e-02) (2, 4.28433492779731750488e-02) (3, -9.23300534486770629883e-02) (4, 4.84317168593406677246e-02) (5, 3.12512330710887908936e-02) (6, 7.90729373693466186523e-02) (7, 1.86139941215515136719e-02) (8, 8.49148631095886230469e-02) (9, 3.70812765322625637054e-03) (10, -3.80354225635528564453e-02) (11, -2.17566564679145812988e-02) (12, -2.48102657496929168701e-02) (13, 5.34790381789207458496e-02) (14, 6.19093999266624450684e-02) (15, -4.91446405649185180664e-02) (16, 6.55223801732063293457e-02) (17, 7.41439461708068847656e-02) (18, -2.30678990483283996582e-02) (19, -6.27719610929489135742e-02) (20, 3.10506783425807952881e-02) (21, -9.17677730321884155273e-02) (22, 9.86473709344863891602e-02) (23, 5.82950189709663391113e-03) (24, 1.59382987767457962036e-02) (25, -8.54905545711517333984e-02) (26, -1.85739481821656227112e-04) (27, -8.21477025747299194336e-02) (28, -1.66702829301357269287e-02) (29, 6.20263442397117614746e-02) (30, -8.35050493478775024414e-02) (31, -2.97587346285581588745e-02) (32, 8.44451636075973510742e-02) (33, -9.05345529317855834961e-02) (34, 2.55075357854366302490e-02) (35, -5.55479079484939575195e-02) (36, 4.58622053265571594238e-02) (37, 4.54771444201469421387e-02) (38, -2.60661952197551727295e-02) (39, -5.50887882709503173828e-02) (40, -3.77165079116821289062e-02) (41, -6.18426389992237091064e-02) (42, 5.03205135464668273926e-02) (43, -2.36786380410194396973e-02) (44, 7.24375993013381958008e-02) (45, 9.82522368431091308594e-02) (46, -3.50514352321624755859e-02) (47, -6.98987841606140136719e-02) (48, 5.06464466452598571777e-02) (49, 5.45137301087379455566e-02) (50, 5.18530234694480895996e-02) (51, -6.67921900749206542969e-02) (52, 6.31904974579811096191e-02) (53, 8.22036415338516235352e-02) (54, 3.64637747406959533691e-02) (55, 8.63469094038009643555e-02) (56, 7.22604617476463317871e-02) (57, -7.87843614816665649414e-02) (58, -8.92093926668167114258e-02) (59, 9.73759144544601440430e-02) (60, 3.67546901106834411621e-02) (61, -2.41961888968944549561e-02) (62, -2.58220694959163665771e-02) (63, 4.80512157082557678223e-02) (64, 3.63186523318290710449e-02) (65, 4.71509322524070739746e-02) (66, 1.05364158749580383301e-01) (67, 9.52001065015792846680e-02) (68, 6.78048506379127502441e-02) (69, 3.56485471129417419434e-02) (70, -1.53012089431285858154e-02) (71, 7.19448551535606384277e-02) (72, 1.68328303843736648560e-02) (73, -5.11181652545928955078e-02) (74, 9.65367257595062255859e-02) (75, -6.76274448633193969727e-02) (76, 2.50632576644420623779e-02) (77, 7.77624100446701049805e-02) (78, -7.53615424036979675293e-03) (79, -2.06836424767971038818e-02) (80, 9.58320870995521545410e-03) (81, 1.04535683989524841309e-01) (82, -2.91348528116941452026e-02) (83, -2.98119019716978073120e-02) (84, -9.20880958437919616699e-03) (85, 6.71263262629508972168e-02) (86, 3.17926816642284393311e-02) (87, -2.08615772426128387451e-02) (88, 1.88582837581634521484e-02) (89, -9.21372696757316589355e-03) (90, -1.55686549842357635498e-02) (91, -2.27843895554542541504e-02) (92, 1.02183029055595397949e-01) (93, 2.98343710601329803467e-02) (94, 6.56023249030113220215e-02) (95, 1.78767740726470947266e-02) (96, 9.43917483091354370117e-02) (97, 8.18116515874862670898e-02) (98, 4.81510087847709655762e-02) (99, -8.64747613668441772461e-02) (100, 5.82255944609642028809e-02) (101, 3.71212139725685119629e-02) (102, -6.42284303903579711914e-02) (103, -4.76832538843154907227e-02) (104, 2.71970443427562713623e-02) (105, -5.99572211503982543945e-02) (106, -6.15008361637592315674e-02) (107, -4.80358023196458816528e-03) (108, 1.05867743492126464844e-01) (109, -4.12530452013015747070e-02) (110, 9.97394472360610961914e-02) (111, -3.93341630697250366211e-02) (112, -4.98073250055313110352e-02) (113, -7.22228437662124633789e-02) (114, -9.85152646899223327637e-03) (115, 6.48897364735603332520e-02) (116, 4.12371084094047546387e-02) (117, -8.83467644453048706055e-02) (118, -4.62721008807420730591e-03) (119, 7.00894519686698913574e-02) (120, 3.29306051135063171387e-02) (121, 1.04310169816017150879e-01) (122, -1.91684179008007049561e-02) (123, 7.58280456066131591797e-02) (124, 8.16805362701416015625e-02) (125, 4.44504842162132263184e-02) (126, -8.13258290290832519531e-02) (127, -3.64507385529577732086e-03) (128, -2.33949646353721618652e-02) (129, 4.02179285883903503418e-02) (0, -9.32660847902297973633e-02) (1, 2.03964430838823318481e-02) (2, -5.34153059124946594238e-02) (3, -7.26211769506335258484e-03) (4, -1.10790207982063293457e-01) (5, -1.06842532753944396973e-01) (6, -1.58361971378326416016e-01) (7, -4.58772554993629455566e-02) (8, -1.15312948822975158691e-01) (9, -1.20984561741352081299e-01) (10, -4.39645126461982727051e-02) (11, -1.67737364768981933594e-01) (12, -1.80983953177928924561e-02) (13, -3.59689667820930480957e-02) (14, 1.33910793811082839966e-02) (15, 7.65448855236172676086e-03) (16, -7.70974857732653617859e-03) (17, -3.39533761143684387207e-02) (18, -1.10612556338310241699e-01) (19, -1.21406652033329010010e-01) (20, -1.37849777936935424805e-01) (21, -9.75201874971389770508e-02) (22, -7.80996233224868774414e-02) (23, -7.64754563570022583008e-02) (24, 2.07093674689531326294e-02) (25, 5.70136355236172676086e-03) (26, -3.36124077439308166504e-02) (27, 1.99865121394395828247e-02) (28, -1.43093377351760864258e-01) (29, -2.67691705375909805298e-02) (30, -1.65603637695312500000e-01) (31, -1.56376838684082031250e-01) (32, -8.17316919565200805664e-02) (33, -1.20948858559131622314e-01) (34, -4.36804071068763732910e-02) (35, 6.92078517749905586243e-03) (36, -1.38764977455139160156e-01) (37, -7.91204124689102172852e-02) (38, -3.29459384083747863770e-02) (39, 2.10376698523759841919e-02) (40, -7.62371569871902465820e-02) (41, 2.56033856421709060669e-02) (42, -1.40425592660903930664e-01) (43, 1.06506068259477615356e-02) (44, -5.18058910965919494629e-02) (45, -1.57899320125579833984e-01) (46, -6.98597282171249389648e-02) (47, 1.13164205104112625122e-02) (48, -6.11904077231884002686e-02) (49, -8.35298150777816772461e-02) (50, -1.41623795032501220703e-01) (51, -1.27591460943222045898e-01) (52, -8.59973579645156860352e-02) (53, -1.37830451130867004395e-02) (54, -1.07865527272224426270e-01) (55, -1.51984214782714843750e-01) (56, -5.54292574524879455566e-02) (57, -5.57159297168254852295e-02) (58, -7.39450603723526000977e-02) (59, -5.04525974392890930176e-02) (60, -1.32508948445320129395e-02) (61, -1.63928270339965820312e-01) (62, 9.24408901482820510864e-04) (63, -1.20130307972431182861e-01) (64, -8.64744335412979125977e-02) (65, -3.23131456971168518066e-02) (66, -1.43320977687835693359e-01) (67, -5.16551211476325988770e-02) (68, -2.40418110042810440063e-02) (69, -1.27108275890350341797e-01) (70, -1.65175020694732666016e-01) (71, -1.53128981590270996094e-01) (72, -9.55124646425247192383e-02) (73, -1.34417414665222167969e-01) (74, -9.69047099351882934570e-03) (75, -1.24128766357898712158e-01) (76, -8.87257903814315795898e-02) (77, -7.05686062574386596680e-02) (78, -1.02878227829933166504e-01) (79, -1.30224883556365966797e-01) (80, -1.46223932504653930664e-01) (81, -4.20127585530281066895e-02) (82, -1.64952218532562255859e-01) (83, -8.35687667131423950195e-03) (84, -1.10488846898078918457e-01) (85, -4.20060828328132629395e-02) (86, -5.24575486779212951660e-02) (87, -1.10497668385505676270e-01) (88, 9.29135270416736602783e-03) (89, -9.67398434877395629883e-02) (90, -1.62740439176559448242e-01) (91, -3.49452272057533264160e-02) (92, 1.91958863288164138794e-02) (93, -3.10725066810846328735e-02) (94, -9.20622497797012329102e-02) (95, -1.46197557449340820312e-01) (96, 1.35731743648648262024e-03) (97, -4.40237000584602355957e-02) (98, -1.62370264530181884766e-01) (99, -1.35952606797218322754e-02) (100, -1.51792883872985839844e-01) (101, -3.93847301602363586426e-02) (102, 4.64656995609402656555e-03) (103, -1.61406278610229492188e-01) (104, -1.19120553135871887207e-02) (105, -6.24310784041881561279e-02) (106, -1.35453760623931884766e-01) (107, -2.77933571487665176392e-02) (108, 2.05570477992296218872e-02) (109, -1.54343158006668090820e-01) (110, -1.01802989840507507324e-01) (111, -5.89301101863384246826e-02) (112, -9.44962054491043090820e-02) (113, -5.39628639817237854004e-02) (114, -1.02474763989448547363e-02) (115, -8.55636745691299438477e-02) (116, -1.24942906200885772705e-01) (117, 2.82199699431657791138e-02) (118, -1.63407146930694580078e-01) (119, -4.01365533471107482910e-02) (120, -3.11502609401941299438e-02) (121, 1.33952545002102851868e-03) (122, -1.43160045146942138672e-01) (123, -1.47093594074249267578e-01) (124, -5.79780749976634979248e-02) (125, -9.36752110719680786133e-02) (126, -5.56261949241161346436e-02) (127, -1.65789604187011718750e-01) (128, -8.19094330072402954102e-02) (129, -1.07574328780174255371e-01) (0, 1.75071358680725097656e-02) (1, 8.19982737302780151367e-02) (2, -1.53548084199428558350e-02) (3, -2.88060586899518966675e-02) (4, 9.60274040699005126953e-02) (5, -2.77391653507947921753e-02) (6, 2.72834263741970062256e-02) (7, -7.96223804354667663574e-03) (8, 1.81822180747985839844e-02) (9, 2.82019786536693572998e-02) (10, 3.02429758012294769287e-02) (11, -6.67649060487747192383e-02) (12, -7.82578438520431518555e-02) (13, -3.98663580417633056641e-02) (14, 5.65438345074653625488e-03) (15, 7.27663785219192504883e-02) (16, 2.43608020246028900146e-02) (17, 7.13181123137474060059e-02) (18, 8.30813795328140258789e-02) (19, -1.15439258515834808350e-02) (20, 2.07505151629447937012e-02) (21, -6.60727545619010925293e-03) (22, -9.00068506598472595215e-03) (23, -3.50594967603683471680e-02) (24, -5.47341722995042800903e-03) (25, 4.78500053286552429199e-02) (26, 5.46384081244468688965e-02) (27, -5.26522696018218994141e-02) (28, -8.70924443006515502930e-02) (29, 7.69975632429122924805e-02) (30, -6.22741021215915679932e-02) (31, -1.25358649529516696930e-03) (32, -2.94321011751890182495e-02) (33, -2.58373282849788665771e-02) (34, -8.57229158282279968262e-03) (35, -3.51394414901733398438e-02) (36, 5.08782938122749328613e-02) (37, -4.90015447139739990234e-02) (38, 7.05922618508338928223e-02) (39, 8.36688131093978881836e-02) (40, 6.15007206797599792480e-02) (41, 8.21785479784011840820e-02) (42, 1.45160350948572158813e-02) (43, 1.06520839035511016846e-02) (44, 6.91617801785469055176e-02) (45, 4.14631739258766174316e-02) (46, -8.89403373003005981445e-02) (47, 1.93879008293151855469e-02) (48, 9.21339541673660278320e-02) (49, -6.49955421686172485352e-02) (50, 5.94722256064414978027e-02) (51, -1.08633749186992645264e-02) (52, 5.87136968970298767090e-02) (53, 4.06338199973106384277e-02) (54, -2.79199909418821334839e-02) (55, -1.17380134761333465576e-02) (56, -4.14022952318191528320e-02) (57, -8.69483873248100280762e-03) (58, 1.05265393853187561035e-01) (59, 3.50127443671226501465e-02) (60, 9.88042801618576049805e-02) (61, 4.32251468300819396973e-02) (62, -7.52957910299301147461e-02) (63, -5.69325685501098632812e-02) (64, -2.60690562427043914795e-02) (65, 9.67602431774139404297e-02) (66, 8.91957134008407592773e-02) (67, -4.80269193649291992188e-02) (68, 5.12488707900047302246e-02) (69, -2.08301059901714324951e-02) (70, -5.20603656768798828125e-02) (71, 6.09554424881935119629e-02) (72, -8.23354870080947875977e-02) (73, 2.68939547240734100342e-02) (74, 4.60734590888023376465e-02) (75, -3.66781302727758884430e-03) (76, -5.43449539691209793091e-03) (77, 1.02012380957603454590e-01) (78, -3.82623225450515747070e-02) (79, -3.51597815752029418945e-02) (80, -9.10056978464126586914e-02) (81, 1.06876343488693237305e-01) (82, -9.00603830814361572266e-02) (83, -5.23405987769365310669e-03) (84, 7.06085041165351867676e-02) (85, -4.33333367109298706055e-02) (86, -6.36808276176452636719e-02) (87, -4.40937131643295288086e-02) (88, -4.33122366666793823242e-02) (89, 9.08740460872650146484e-02) (90, -4.02925759553909301758e-02) (91, 4.23570498824119567871e-02) (92, -6.56594783067703247070e-02) (93, 1.00757017731666564941e-01) (94, 6.27915933728218078613e-02) (95, -2.22289487719535827637e-02) (96, 3.74794229865074157715e-02) (97, -4.38533574342727661133e-02) (98, -3.84130724705755710602e-03) (99, 7.86951035261154174805e-02) (100, 6.82838782668113708496e-02) (101, 8.68474841117858886719e-02) (102, 8.51894766092300415039e-02) (103, 1.93516537547111511230e-02) (104, 8.28260630369186401367e-02) (105, 9.72765833139419555664e-02) (106, -3.27976979315280914307e-02) (107, 8.68596509099006652832e-03) (108, 2.44260095059871673584e-02) (109, -3.26912291347980499268e-02) (110, -1.83505960740149021149e-03) (111, -2.31331237591803073883e-03) (112, -4.03451621532440185547e-02) (113, -4.16611135005950927734e-02) (114, 4.13261577486991882324e-02) (115, 8.31486657261848449707e-03) (116, -1.24796591699123382568e-02) (117, 9.37898308038711547852e-02) (118, -3.46612483263015747070e-02) (119, 8.79756659269332885742e-02) (120, 4.67024967074394226074e-02) (121, -3.16704846918582916260e-02) (122, -4.61456328630447387695e-02) (123, 6.98871091008186340332e-02) (124, 3.21822129189968109131e-02) (125, -7.41600543260574340820e-02) (126, 3.15679721534252166748e-02) (127, 2.44410685263574123383e-03) (128, -8.24956446886062622070e-02) (129, -6.46132379770278930664e-02) (0, 9.59682650864124298096e-03) (1, -1.62867009639739990234e-01) (2, -1.62006825208663940430e-01) (3, -1.05018571019172668457e-01) (4, -1.03386148810386657715e-01) (5, -6.70265704393386840820e-02) (6, 2.81444508582353591919e-02) (7, -3.28458026051521301270e-02) (8, -9.56809371709823608398e-02) (9, -1.65531337261199951172e-01) (10, -1.41788482666015625000e-01) (11, -9.56217497587203979492e-02) (12, 2.90921945124864578247e-02) (13, -1.04136988520622253418e-01) (14, -8.65242034196853637695e-02) (15, -6.85121864080429077148e-02) (16, -1.40449762344360351562e-01) (17, 4.42135380581021308899e-03) (18, -1.47007018327713012695e-01) (19, -3.26890451833605766296e-03) (20, 3.31276701763272285461e-03) (21, 2.13051158934831619263e-02) (22, 1.84513945132493972778e-02) (23, -1.43743336200714111328e-01) (24, -1.50525808334350585938e-01) (25, -1.43395692110061645508e-01) (26, -1.07699766755104064941e-01) (27, -1.65815562009811401367e-01) (28, -1.18540979921817779541e-01) (29, 2.55327243357896804810e-02) (30, -1.27740621566772460938e-01) (31, 7.42477225139737129211e-03) (32, -6.84201270341873168945e-02) (33, 6.53699086979031562805e-03) (34, 1.08541864901781082153e-02) (35, -2.99638602882623672485e-02) (36, -5.87824694812297821045e-02) (37, -1.31317451596260070801e-02) (38, -1.61464035511016845703e-01) (39, 1.72440428286790847778e-02) (40, -3.56670990586280822754e-02) (41, -1.13340362906455993652e-01) (42, -1.67628169059753417969e-01) (43, 1.68439764529466629028e-02) (44, -1.59696936607360839844e-01) (45, -8.29462558031082153320e-02) (46, -1.33555233478546142578e-01) (47, -1.19188137352466583252e-01) (48, -5.13799563050270080566e-02) (49, 7.44492281228303909302e-04) (50, -1.43802702426910400391e-01) (51, -1.48004382848739624023e-01) (52, -1.66032314300537109375e-01) (53, -1.61618828773498535156e-01) (54, 1.62206608802080154419e-02) (55, -3.57163920998573303223e-02) (56, -1.41723990440368652344e-01) (57, -1.11217573285102844238e-02) (58, 2.03951913863420486450e-02) (59, -7.46404081583023071289e-02) (60, -1.37743562459945678711e-01) (61, -1.12423971295356750488e-01) (62, -1.66000306606292724609e-01) (63, -2.31098327785730361938e-02) (64, -6.31905943155288696289e-02) (65, -1.00312128663063049316e-01) (66, -2.09671957418322563171e-03) (67, -9.58171635866165161133e-02) (68, -5.48711493611335754395e-02) (69, -7.57325440645217895508e-02) (70, -9.31700021028518676758e-02) (71, -1.64627552032470703125e-01) (72, -1.51909291744232177734e-01) (73, 4.33602975681424140930e-03) (74, 1.91223043948411941528e-02) (75, -6.77421838045120239258e-02) (76, 1.11234234645962715149e-03) (77, -1.61094605922698974609e-01) (78, 2.63316649943590164185e-02) (79, -1.00062355399131774902e-01) (80, -4.07136185094714164734e-03) (81, -8.39460939168930053711e-02) (82, -1.38072341680526733398e-01) (83, -3.82194593548774719238e-02) (84, -1.08583047986030578613e-02) (85, -1.51877105236053466797e-01) (86, -5.49949184060096740723e-02) (87, -1.55859410762786865234e-01) (88, 1.47310514003038406372e-02) (89, -7.18239992856979370117e-02) (90, -2.03246576711535453796e-03) (91, -1.61992423236370086670e-02) (92, -1.16840407252311706543e-01) (93, 7.16406153514981269836e-03) (94, -5.03416731953620910645e-02) (95, -1.48742079734802246094e-01) (96, -1.64200246334075927734e-01) (97, 3.03732771426439285278e-02) (98, 2.71283704787492752075e-02) (99, -1.09883353114128112793e-01) (100, -6.57256394624710083008e-02) (101, -1.06812790036201477051e-01) (102, -5.89237920939922332764e-02) (103, 1.17655415087938308716e-02) (104, -1.12798139452934265137e-01) (105, -5.45458868145942687988e-02) (106, -9.26250964403152465820e-03) (107, -1.31053686141967773438e-01) (108, -7.53235965967178344727e-02) (109, -1.98349468410015106201e-02) (110, -2.23297290503978729248e-02) (111, -1.52129650115966796875e-01) (112, -9.93351489305496215820e-02) (113, 1.79468709975481033325e-02) (114, -2.32434663921594619751e-02) (115, -1.09087780117988586426e-01) (116, -9.43017452955245971680e-02) (117, 1.43774766474962234497e-02) (118, -1.43846049904823303223e-02) (119, -1.82620398700237274170e-02) (120, 1.37791652232408523560e-02) (121, -7.02798515558242797852e-02) (122, -4.96495738625526428223e-02) (123, -1.16728767752647399902e-01) (124, -1.16424813866615295410e-01) (125, -7.94539600610733032227e-03) (126, 5.28082298114895820618e-03) (127, -1.01820960640907287598e-01) (128, -1.60620987415313720703e-01) (129, -1.31535604596138000488e-02) (0, 1.47065952420234680176e-01) (1, 2.19455957412719726562e-01) (2, 2.77957379817962646484e-01) (3, 1.11331306397914886475e-01) (4, 2.27342933416366577148e-01) (5, 2.34475791454315185547e-01) (6, 1.17000065743923187256e-01) (7, 3.02085816860198974609e-01) (8, 2.38245248794555664062e-01) (9, 2.69518256187438964844e-01) (10, 2.75733292102813720703e-01) (11, 1.31294131278991699219e-01) (12, 1.42205879092216491699e-01) (13, 1.36309906840324401855e-01) (14, 2.42741823196411132812e-01) (15, 2.43397355079650878906e-01) (16, 2.60909199714660644531e-01) (17, 1.82480528950691223145e-01) (18, 2.32200145721435546875e-01) (19, 2.69674360752105712891e-01) (20, 2.99110352993011474609e-01) (21, 2.29573905467987060547e-01) (22, 1.30510777235031127930e-01) (23, 1.76310285925865173340e-01) (24, 1.28974109888076782227e-01) (25, 1.49568781256675720215e-01) (26, 2.84539341926574707031e-01) (27, 1.34753569960594177246e-01) (28, 2.85406649112701416016e-01) (29, 1.11253641545772552490e-01) (30, 1.21679119765758514404e-01) (31, 1.43125221133232116699e-01) (32, 1.87824651598930358887e-01) (33, 2.50957190990447998047e-01) (34, 1.19348429143428802490e-01) (35, 1.71214178204536437988e-01) (36, 2.78863787651062011719e-01) (37, 1.45216628909111022949e-01) (38, 1.37975856661796569824e-01) (39, 2.42111563682556152344e-01) (40, 2.51356661319732666016e-01) (41, 2.33344912528991699219e-01) (42, 1.09375678002834320068e-01) (43, 1.58767744898796081543e-01) (44, 2.91779637336730957031e-01) (45, 2.22060501575469970703e-01) (46, 2.52744019031524658203e-01) (47, 1.50406107306480407715e-01) (48, 1.57594099640846252441e-01) (49, 1.66035756468772888184e-01) (50, 2.44838476181030273438e-01) (51, 2.82092928886413574219e-01) (52, 2.17983543872833251953e-01) (53, 1.30861937999725341797e-01) (54, 2.78463363647460937500e-01) (55, 2.15603470802307128906e-01) (56, 1.29311919212341308594e-01) (57, 2.27347671985626220703e-01) (58, 1.14320449531078338623e-01) (59, 2.65514731407165527344e-01) (60, 1.87582835555076599121e-01) (61, 1.86891093850135803223e-01) (62, 1.60874351859092712402e-01) (63, 2.97352194786071777344e-01) (64, 2.80468761920928955078e-01) (65, 1.20047383010387420654e-01) (66, 1.18242256343364715576e-01) (67, 1.79666176438331604004e-01) (68, 1.31591886281967163086e-01) (69, 1.46736994385719299316e-01) (70, 2.90941596031188964844e-01) (71, 1.36871740221977233887e-01) (72, 2.85275101661682128906e-01) (73, 3.00482749938964843750e-01) (74, 2.95590281486511230469e-01) (75, 2.67406463623046875000e-01) (76, 1.82779297232627868652e-01) (77, 2.53481268882751464844e-01) (78, 1.41480192542076110840e-01) (79, 1.39750853180885314941e-01) (80, 2.74464011192321777344e-01) (81, 1.98525831103324890137e-01) (82, 3.05870592594146728516e-01) (83, 2.49068081378936767578e-01) (84, 1.68940737843513488770e-01) (85, 2.69078016281127929688e-01) (86, 2.76395797729492187500e-01) (87, 2.65792965888977050781e-01) (88, 2.64326870441436767578e-01) (89, 2.23264634609222412109e-01) (90, 2.90657997131347656250e-01) (91, 1.70944705605506896973e-01) (92, 1.49498119950294494629e-01) (93, 2.96931624412536621094e-01) (94, 2.12014466524124145508e-01) (95, 2.09153354167938232422e-01) (96, 1.22174970805644989014e-01) (97, 2.76898384094238281250e-01) (98, 1.12771384418010711670e-01) (99, 2.30763971805572509766e-01) (100, 1.31814837455749511719e-01) (101, 2.93822586536407470703e-01) (102, 1.58535376191139221191e-01) (103, 1.86216309666633605957e-01) (104, 2.19487011432647705078e-01) (105, 2.00109228491783142090e-01) (106, 1.17942862212657928467e-01) (107, 1.47623792290687561035e-01) (108, 1.95327326655387878418e-01) (109, 1.48778483271598815918e-01) (110, 2.02120050787925720215e-01) (111, 1.13905213773250579834e-01) (112, 2.86833584308624267578e-01) (113, 2.94041514396667480469e-01) (114, 2.37232625484466552734e-01) (115, 2.50309765338897705078e-01) (116, 2.38405168056488037109e-01) (117, 1.57738372683525085449e-01) (118, 1.90895393490791320801e-01) (119, 2.60814428329467773438e-01) (120, 1.90279260277748107910e-01) (121, 3.05657625198364257812e-01) (122, 2.69563794136047363281e-01) (123, 2.41081774234771728516e-01) (124, 1.43134430050849914551e-01) (125, 1.42268672585487365723e-01) (126, 1.91360846161842346191e-01) (127, 2.83655583858489990234e-01) (128, 2.81187534332275390625e-01) (129, 2.00973406434059143066e-01) (0, 2.42007791996002197266e-01) (1, 3.07023286819458007812e-01) (2, 2.22661316394805908203e-01) (3, 1.50770142674446105957e-01) (4, 2.76014804840087890625e-01) (5, 2.62672424316406250000e-01) (6, 2.17570900917053222656e-01) (7, 1.95726737380027770996e-01) (8, 2.61175215244293212891e-01) (9, 2.53957629203796386719e-01) (10, 1.48081347346305847168e-01) (11, 2.85309612751007080078e-01) (12, 2.80502796173095703125e-01) (13, 2.92607367038726806641e-01) (14, 1.33439674973487854004e-01) (15, 2.02706262469291687012e-01) (16, 1.66213110089302062988e-01) (17, 2.25738167762756347656e-01) (18, 2.63303101062774658203e-01) (19, 2.17495858669281005859e-01) (20, 1.34458795189857482910e-01) (21, 1.31081670522689819336e-01) (22, 1.71532914042472839355e-01) (23, 2.35691070556640625000e-01) (24, 1.41843751072883605957e-01) (25, 2.50079095363616943359e-01) (26, 1.61027744412422180176e-01) (27, 2.75355100631713867188e-01) (28, 1.75267979502677917480e-01) (29, 2.10936307907104492188e-01) (30, 2.88237810134887695312e-01) (31, 2.94562876224517822266e-01) (32, 1.99984684586524963379e-01) (33, 2.24500238895416259766e-01) (34, 2.57132112979888916016e-01) (35, 3.01235735416412353516e-01) (36, 1.51320829987525939941e-01) (37, 1.31407082080841064453e-01) (38, 2.40782916545867919922e-01) (39, 1.20029769837856292725e-01) (40, 2.22158193588256835938e-01) (41, 2.94680297374725341797e-01) (42, 1.73284724354743957520e-01) (43, 2.78406143188476562500e-01) (44, 2.53922700881958007812e-01) (45, 1.60518243908882141113e-01) (46, 1.12172327935695648193e-01) (47, 1.62060067057609558105e-01) (48, 2.25683212280273437500e-01) (49, 1.39644399285316467285e-01) (50, 2.85584509372711181641e-01) (51, 3.01059722900390625000e-01) (52, 1.92892208695411682129e-01) (53, 2.21494227647781372070e-01) (54, 1.35271653532981872559e-01) (55, 1.92691668868064880371e-01) (56, 2.50831961631774902344e-01) (57, 2.14366614818572998047e-01) (58, 1.41407653689384460449e-01) (59, 1.20285116136074066162e-01) (60, 1.14004485309123992920e-01) (61, 1.55248031020164489746e-01) (62, 1.35564938187599182129e-01) (63, 1.21970675885677337646e-01) (64, 2.43323028087615966797e-01) (65, 2.12202578783035278320e-01) (66, 1.70536920428276062012e-01) (67, 2.96317517757415771484e-01) (68, 2.90745854377746582031e-01) (69, 2.47060537338256835938e-01) (70, 2.28644251823425292969e-01) (71, 3.05540204048156738281e-01) (72, 2.96096265316009521484e-01) (73, 1.72267183661460876465e-01) (74, 1.76389947533607482910e-01) (75, 2.67873346805572509766e-01) (76, 2.29290485382080078125e-01) (77, 1.67275980114936828613e-01) (78, 2.89532423019409179688e-01) (79, 2.53653824329376220703e-01) (80, 2.41638362407684326172e-01) (81, 2.98215866088867187500e-01) (82, 1.96109369397163391113e-01) (83, 2.92171716690063476562e-01) (84, 2.12007433176040649414e-01) (85, 2.90655851364135742188e-01) (86, 1.34832248091697692871e-01) (87, 2.07836091518402099609e-01) (88, 1.82853952050209045410e-01) (89, 1.08575753867626190186e-01) (90, 1.14566467702388763428e-01) (91, 2.00697407126426696777e-01) (92, 2.03630223870277404785e-01) (93, 2.95194804668426513672e-01) (94, 2.21288144588470458984e-01) (95, 2.71854400634765625000e-01) (96, 1.38536646962165832520e-01) (97, 2.67511367797851562500e-01) (98, 1.45916268229484558105e-01) (99, 2.96854615211486816406e-01) (100, 1.17432825267314910889e-01) (101, 1.75310775637626647949e-01) (102, 1.30135804414749145508e-01) (103, 2.74356544017791748047e-01) (104, 1.92282781004905700684e-01) (105, 1.78667709231376647949e-01) (106, 1.50121852755546569824e-01) (107, 1.80184200406074523926e-01) (108, 2.38016009330749511719e-01) (109, 2.17158615589141845703e-01) (110, 2.67043590545654296875e-01) (111, 2.83639669418334960938e-01) (112, 2.13339447975158691406e-01) (113, 2.78019547462463378906e-01) (114, 1.56582042574882507324e-01) (115, 1.56638368964195251465e-01) (116, 3.03281605243682861328e-01) (117, 1.35369107127189636230e-01) (118, 2.30478405952453613281e-01) (119, 1.32375299930572509766e-01) (120, 1.13236807286739349365e-01) (121, 2.52994656562805175781e-01) (122, 1.62775620818138122559e-01) (123, 2.51923263072967529297e-01) (124, 1.56269058585166931152e-01) (125, 2.96313345432281494141e-01) (126, 2.20197379589080810547e-01) (127, 1.39130666851997375488e-01) (128, 2.51148879528045654297e-01) (129, 1.41521021723747253418e-01) (0, 2.61195562779903411865e-02) (1, 3.08245234191417694092e-02) (2, 1.07265219092369079590e-01) (3, 4.59972843527793884277e-02) (4, -8.39162617921829223633e-02) (5, 5.90281412005424499512e-02) (6, -7.44397193193435668945e-02) (7, -6.89525455236434936523e-02) (8, -4.57298010587692260742e-02) (9, 5.87519034743309020996e-02) (10, 8.26934874057769775391e-02) (11, 6.91436901688575744629e-02) (12, -6.23157955706119537354e-02) (13, 9.81204360723495483398e-02) (14, -5.00720292329788208008e-02) (15, 7.89933651685714721680e-02) (16, 8.12377482652664184570e-02) (17, 2.44672945700585842133e-03) (18, -3.82328182458877563477e-02) (19, 6.05014041066169738770e-02) (20, 8.65005403757095336914e-02) (21, 5.42626455426216125488e-02) (22, 3.18246297538280487061e-02) (23, -8.40008407831192016602e-02) (24, 3.75888720154762268066e-02) (25, -4.29030973464250564575e-03) (26, -6.76591843366622924805e-02) (27, 9.17400270700454711914e-02) (28, -8.58879238367080688477e-02) (29, -7.88539499044418334961e-02) (30, -5.87334930896759033203e-02) (31, 1.05850100517272949219e-01) (32, 6.21588751673698425293e-02) (33, -5.62800206243991851807e-02) (34, -5.86240738630294799805e-02) (35, -5.52067011594772338867e-02) (36, -1.94518081843852996826e-02) (37, -8.71766209602355957031e-02) (38, 6.21136650443077087402e-02) (39, -1.60733275115489959717e-02) (40, 9.50576364994049072266e-02) (41, 7.33882188796997070312e-02) (42, 7.53608942031860351562e-02) (43, 3.00947241485118865967e-02) (44, 4.15539070963859558105e-02) (45, 3.61310318112373352051e-02) (46, 9.37063992023468017578e-02) (47, -3.68460863828659057617e-02) (48, -3.26085276901721954346e-02) (49, -1.17904804646968841553e-02) (50, 7.68539011478424072266e-02) (51, -7.68279880285263061523e-02) (52, -8.27012583613395690918e-03) (53, 4.34698238968849182129e-02) (54, 3.69822755455970764160e-02) (55, 6.24034320935606956482e-04) (56, -7.23012983798980712891e-02) (57, 7.16979578137397766113e-02) (58, 6.71008899807929992676e-02) (59, 4.08629700541496276855e-03) (60, -8.20609480142593383789e-02) (61, 4.13635149598121643066e-02) (62, 3.62667366862297058105e-02) (63, -2.54328809678554534912e-02) (64, -1.09417103230953216553e-02) (65, -5.78663200139999389648e-02) (66, 8.03763270378112792969e-02) (67, -7.53988027572631835938e-02) (68, 1.19293369352817535400e-02) (69, -6.40418082475662231445e-02) (70, 8.87279659509658813477e-02) (71, 9.05651599168777465820e-02) (72, -3.15718241035938262939e-02) (73, 1.19473971426486968994e-02) (74, 3.93755659461021423340e-02) (75, 2.46213935315608978271e-02) (76, 5.10592237114906311035e-02) (77, -8.06733593344688415527e-03) (78, 5.18677309155464172363e-02) (79, -1.95133499801158905029e-02) (80, 7.85295516252517700195e-02) (81, 8.57215970754623413086e-02) (82, -3.74280214309692382812e-02) (83, -1.31266973912715911865e-02) (84, 1.91280171275138854980e-02) (85, -7.59082883596420288086e-02) (86, 4.88388910889625549316e-02) (87, 7.48961716890335083008e-02) (88, 1.96176916360855102539e-02) (89, -4.59566563367843627930e-02) (90, 4.61032465100288391113e-02) (91, 9.67408418655395507812e-02) (92, -3.71059626340866088867e-02) (93, -4.12848079577088356018e-04) (94, 1.00792706012725830078e-01) (95, 6.26796707510948181152e-02) (96, 9.66171026229858398438e-02) (97, 8.31835418939590454102e-02) (98, 1.05298519134521484375e-01) (99, -8.20055231451988220215e-03) (100, 1.27434898167848587036e-02) (101, 1.92988812923431396484e-02) (102, -4.15044650435447692871e-03) (103, 8.29783082008361816406e-02) (104, 5.59483543038368225098e-02) (105, -3.63351702690124511719e-02) (106, -4.55709546804428100586e-02) (107, -7.14043229818344116211e-02) (108, -5.28709590435028076172e-02) (109, 3.73675003647804260254e-02) (110, 7.52478390932083129883e-02) (111, -7.00052976608276367188e-02) (112, 6.05804994702339172363e-02) (113, 1.59189421683549880981e-02) (114, -1.08921937644481658936e-02) (115, -2.57260315120220184326e-02) (116, 6.20082244277000427246e-02) (117, 1.16046480834484100342e-02) (118, 7.89361149072647094727e-02) (119, -8.09705257415771484375e-02) (120, -3.19938547909259796143e-02) (121, -8.12069028615951538086e-02) (122, -4.77786082774400711060e-03) (123, -6.18427582085132598877e-02) (124, 4.84750494360923767090e-02) (125, -4.02890890836715698242e-02) (126, 1.00702613592147827148e-01) (127, -5.14488667249679565430e-02) (128, -6.15660138428211212158e-02) (129, 9.95250642299652099609e-02) (0, -1.93379417061805725098e-01) (1, -1.72691866755485534668e-01) (2, -7.71448239684104919434e-02) (3, -2.18282416462898254395e-01) (4, -1.17504745721817016602e-01) (5, -1.47082224488258361816e-01) (6, -5.60701899230480194092e-02) (7, -2.16662093997001647949e-01) (8, -8.48984345793724060059e-02) (9, -1.32995292544364929199e-01) (10, -9.71395075321197509766e-02) (11, -6.87617212533950805664e-02) (12, -1.23561106622219085693e-01) (13, -1.36501148343086242676e-01) (14, -2.19920203089714050293e-01) (15, -4.38597016036510467529e-02) (16, -1.95279076695442199707e-01) (17, -1.00679904222488403320e-01) (18, -1.71693965792655944824e-01) (19, -1.05511009693145751953e-01) (20, -1.68421760201454162598e-01) (21, -1.09348148107528686523e-01) (22, -5.88549189269542694092e-02) (23, -2.19702675938606262207e-01) (24, -1.87724366784095764160e-01) (25, -1.28321275115013122559e-01) (26, -1.40784516930580139160e-01) (27, -2.10665121674537658691e-01) (28, -9.39504802227020263672e-02) (29, -7.07734674215316772461e-02) (30, -1.34615823626518249512e-01) (31, -1.33181586861610412598e-01) (32, -2.27937653660774230957e-01) (33, -1.93228229880332946777e-01) (34, -2.31809452176094055176e-01) (35, -6.60747438669204711914e-02) (36, -1.63436666131019592285e-01) (37, -1.25084921717643737793e-01) (38, -1.47192612290382385254e-01) (39, -1.11098140478134155273e-01) (40, -7.15136080980300903320e-02) (41, -1.74060001969337463379e-01) (42, -7.14841634035110473633e-02) (43, -7.94992074370384216309e-02) (44, -1.88190951943397521973e-01) (45, -1.70221164822578430176e-01) (46, -1.52514472603797912598e-01) (47, -1.56061545014381408691e-01) (48, -1.71195700764656066895e-01) (49, -1.31491556763648986816e-01) (50, -2.23553255200386047363e-01) (51, -1.04732483625411987305e-01) (52, -8.39501246809959411621e-02) (53, -1.94852575659751892090e-01) (54, -1.32332965731620788574e-01) (55, -1.65087178349494934082e-01) (56, -6.53533488512039184570e-02) (57, -2.38830104470252990723e-01) (58, -6.26161843538284301758e-02) (59, -2.35411241650581359863e-01) (60, -2.01912418007850646973e-01) (61, -1.86975017189979553223e-01) (62, -1.33976027369499206543e-01) (63, -1.80271461606025695801e-01) (64, -6.74456506967544555664e-02) (65, -2.03846707940101623535e-01) (66, -9.66454148292541503906e-02) (67, -1.64168432354927062988e-01) (68, -2.24103704094886779785e-01) (69, -1.55577674508094787598e-01) (70, -2.38605692982673645020e-01) (71, -9.06192883849143981934e-02) (72, -8.30377861857414245605e-02) (73, -6.08272962272167205811e-02) (74, -1.69393196702003479004e-01) (75, -2.36232891678810119629e-01) (76, -2.10828796029090881348e-01) (77, -4.42148856818675994873e-02) (78, -1.64904847741127014160e-01) (79, -2.00888380408287048340e-01) (80, -1.76040783524513244629e-01) (81, -1.62836685776710510254e-01) (82, -2.40895763039588928223e-01) (83, -1.80393353104591369629e-01) (84, -1.16229474544525146484e-01) (85, -1.13411724567413330078e-01) (86, -1.55647471547126770020e-01) (87, -2.12243333458900451660e-01) (88, -2.18406543135643005371e-01) (89, -2.03790947794914245605e-01) (90, -1.59420445561408996582e-01) (91, -2.24655166268348693848e-01) (92, -2.24439099431037902832e-01) (93, -1.93249538540840148926e-01) (94, -1.89837649464607238770e-01) (95, -4.63462583720684051514e-02) (96, -1.86747923493385314941e-01) (97, -1.17479950189590454102e-01) (98, -1.30342140793800354004e-01) (99, -1.05619579553604125977e-01) (100, -1.93344786763191223145e-01) (101, -1.90943732857704162598e-01) (102, -2.36584141850471496582e-01) (103, -1.14594072103500366211e-01) (104, -2.27628603577613830566e-01) (105, -1.99344351887702941895e-01) (106, -2.25623860955238342285e-01) (107, -1.05658560991287231445e-01) (108, -4.85371164977550506592e-02) (109, -2.08415940403938293457e-01) (110, -9.17370319366455078125e-02) (111, -6.90381675958633422852e-02) (112, -1.69675841927528381348e-01) (113, -1.86586990952491760254e-01) (114, -2.12714895606040954590e-01) (115, -1.44295915961265563965e-01) (116, -2.26448133587837219238e-01) (117, -1.58892527222633361816e-01) (118, -1.51656165719032287598e-01) (119, -1.30042210221290588379e-01) (120, -6.45909458398818969727e-02) (121, -2.25391939282417297363e-01) (122, -2.06954285502433776855e-01) (123, -1.25681146979331970215e-01) (124, -1.68285563588142395020e-01) (125, -2.20249369740486145020e-01) (126, -1.76274731755256652832e-01) (127, -9.47983264923095703125e-02) (128, -1.20428673923015594482e-01) (129, -8.97798761725425720215e-02) (0, -1.00125864148139953613e-01) (1, -7.18119889497756958008e-02) (2, -2.29537021368741989136e-04) (3, -1.14331975579261779785e-01) (4, -3.36076095700263977051e-02) (5, -9.91843491792678833008e-02) (6, -4.71249893307685852051e-02) (7, -8.61225873231887817383e-02) (8, -1.18771143257617950439e-01) (9, -4.29022982716560363770e-02) (10, -1.15047171711921691895e-01) (11, -5.35615161061286926270e-02) (12, -6.46575540304183959961e-02) (13, -1.55659019947052001953e-01) (14, -1.74742750823497772217e-02) (15, -1.46364510059356689453e-01) (16, -4.53851325437426567078e-03) (17, -1.35060727596282958984e-01) (18, -2.23940722644329071045e-02) (19, -3.33222225308418273926e-02) (20, -1.02768883109092712402e-01) (21, -9.27405506372451782227e-02) (22, -1.46478354930877685547e-01) (23, -1.17741450667381286621e-01) (24, -1.36599063873291015625e-01) (25, -7.70365744829177856445e-02) (26, -9.97168570756912231445e-03) (27, -5.05577102303504943848e-02) (28, 2.04064566642045974731e-02) (29, -8.51797014474868774414e-02) (30, -7.09681957960128784180e-02) (31, -1.87842957675457000732e-02) (32, -1.63606703281402587891e-01) (33, 6.17346214130520820618e-03) (34, -9.92079526185989379883e-02) (35, -4.42428067326545715332e-02) (36, -4.50307801365852355957e-02) (37, -8.84246379137039184570e-02) (38, -9.24620777368545532227e-03) (39, -5.74406795203685760498e-02) (40, -6.16349987685680389404e-02) (41, -1.55528903007507324219e-01) (42, -3.02576515823602676392e-02) (43, 3.59717058017849922180e-03) (44, 1.40255736187100410461e-03) (45, -8.34524184465408325195e-02) (46, -4.11958470940589904785e-02) (47, -3.50211337208747863770e-02) (48, -5.67824952304363250732e-02) (49, 4.07338608056306838989e-04) (50, -1.02505460381507873535e-02) (51, -1.37375801801681518555e-01) (52, -1.31407976150512695312e-01) (53, -3.01340315490961074829e-02) (54, -1.19010515511035919189e-01) (55, -6.58016651868820190430e-02) (56, 1.52444262057542800903e-02) (57, -4.34287562966346740723e-02) (58, -1.63358628749847412109e-01) (59, -2.51594875007867813110e-02) (60, -1.11887767910957336426e-01) (61, -1.54128611087799072266e-01) (62, -9.58925634622573852539e-02) (63, -1.22573919594287872314e-01) (64, -1.56195521354675292969e-01) (65, -3.42906489968299865723e-02) (66, 2.08436865359544754028e-02) (67, -1.36597722768783569336e-01) (68, -5.43307140469551086426e-02) (69, 7.45928334072232246399e-03) (70, -8.83969813585281372070e-02) (71, -1.43830835819244384766e-01) (72, -2.08704881370067596436e-02) (73, -2.65768263489007949829e-02) (74, -1.32943689823150634766e-01) (75, -4.12901118397712707520e-02) (76, -1.90939418971538543701e-02) (77, 3.18217612802982330322e-02) (78, -2.80155930668115615845e-02) (79, -1.14252135157585144043e-01) (80, -9.17624980211257934570e-02) (81, -1.08639165759086608887e-01) (82, -1.54545068740844726562e-01) (83, -9.54340845346450805664e-02) (84, -1.69358067214488983154e-02) (85, -9.62798148393630981445e-02) (86, -3.09168491512537002563e-02) (87, -7.58979469537734985352e-02) (88, -7.31433182954788208008e-02) (89, 2.37972456961870193481e-02) (90, -9.59848910570144653320e-02) (91, -7.44239836931228637695e-02) (92, -1.00209936499595642090e-01) (93, -8.44810158014297485352e-02) (94, -1.28834724426269531250e-01) (95, 1.82854551821947097778e-02) (96, -1.32799923419952392578e-01) (97, -2.48578879982233047485e-02) (98, -4.30082455277442932129e-02) (99, -9.58028584718704223633e-02) (100, -1.48035362362861633301e-02) (101, -5.93114905059337615967e-02) (102, -1.04395940899848937988e-01) (103, -3.87509241700172424316e-02) (104, -1.43115460872650146484e-01) (105, 2.20930622890591621399e-03) (106, -1.24911017715930938721e-01) (107, -3.56440022587776184082e-02) (108, -1.25075757503509521484e-01) (109, -4.26597101613879203796e-03) (110, -1.54242992401123046875e-01) (111, -1.83822624385356903076e-02) (112, -6.85165030881762504578e-03) (113, -1.21133401989936828613e-02) (114, -4.51866462826728820801e-02) (115, -1.08549073338508605957e-01) (116, -4.04212549328804016113e-02) (117, -1.61736421287059783936e-02) (118, -8.66405516862869262695e-02) (119, -2.36973259598016738892e-02) (120, -1.36991262435913085938e-01) (121, -6.82905167341232299805e-02) (122, -1.46941617131233215332e-02) (123, -2.10726670920848846436e-02) (124, -2.44075749069452285767e-02) (125, -7.41265565156936645508e-02) (126, -1.00889608263969421387e-01) (127, -1.07708707451820373535e-01) (128, -1.16728320717811584473e-01) (129, -1.09094634652137756348e-01) (0, 6.57905116677284240723e-02) (1, -1.93308852612972259521e-02) (2, -5.46638220548629760742e-02) (3, 1.04617118835449218750e-01) (4, -6.05360865592956542969e-02) (5, 9.50824841856956481934e-03) (6, 4.46045026183128356934e-02) (7, 1.07425823807716369629e-01) (8, -5.48476129770278930664e-02) (9, 1.58434454351663589478e-02) (10, -7.96953588724136352539e-02) (11, -4.02014935389161109924e-04) (12, 8.27792733907699584961e-02) (13, -8.91326516866683959961e-02) (14, -1.28258876502513885498e-02) (15, 7.47011452913284301758e-02) (16, -5.81299364566802978516e-02) (17, 4.97591271996498107910e-02) (18, -5.87956756353378295898e-02) (19, 6.05602189898490905762e-02) (20, 7.51744657754898071289e-02) (21, 9.68876034021377563477e-02) (22, 2.97562293708324432373e-02) (23, -4.74354773759841918945e-02) (24, -8.37780162692070007324e-03) (25, 3.38817760348320007324e-02) (26, 9.05287265777587890625e-02) (27, -4.40368801355361938477e-02) (28, -8.81242156028747558594e-02) (29, -6.40813261270523071289e-02) (30, 2.47075073421001434326e-02) (31, 9.84679460525512695312e-02) (32, -9.52814146876335144043e-03) (33, 1.00154474377632141113e-01) (34, -6.41154348850250244141e-02) (35, 5.14165535569190979004e-02) (36, -2.35888012684881687164e-03) (37, -6.10531587153673171997e-03) (38, 2.76109389960765838623e-02) (39, 9.64234322309494018555e-02) (40, 2.82670073211193084717e-02) (41, -7.69501328468322753906e-02) (42, -6.12535774707794189453e-02) (43, -4.92722839117050170898e-02) (44, -7.98356980085372924805e-02) (45, 4.08883765339851379395e-02) (46, 5.04962429404258728027e-02) (47, -7.00147300958633422852e-02) (48, 1.02145031094551086426e-01) (49, -8.75667855143547058105e-03) (50, 6.60863444209098815918e-02) (51, -4.72666770219802856445e-02) (52, 2.86074988543987274170e-02) (53, 4.56284657120704650879e-02) (54, -8.28655958175659179688e-02) (55, -8.25258642435073852539e-02) (56, 2.74256728589534759521e-02) (57, -1.72537378966808319092e-02) (58, 5.58658465743064880371e-02) (59, -2.29956135153770446777e-02) (60, -4.77985888719558715820e-02) (61, 8.88198018074035644531e-02) (62, 3.40551063418388366699e-02) (63, 3.77729884348809719086e-03) (64, -7.54673928022384643555e-02) (65, 5.89830502867698669434e-02) (66, -3.22248078882694244385e-02) (67, 3.73256132006645202637e-02) (68, -2.88092028349637985229e-02) (69, 4.31884750723838806152e-02) (70, -9.19620543718338012695e-02) (71, 3.35111543536186218262e-02) (72, 6.15370944142341613770e-02) (73, 9.34555530548095703125e-02) (74, -5.28485924005508422852e-02) (75, 1.32210645824670791626e-02) (76, 4.59856316447257995605e-02) (77, -8.00122022628784179688e-02) (78, 7.45159834623336791992e-02) (79, 2.97284238040447235107e-02) (80, 8.50720107555389404297e-02) (81, 4.49230447411537170410e-02) (82, 6.11710920929908752441e-02) (83, -5.78014552593231201172e-02) (84, -2.94292103499174118042e-02) (85, 2.27988623082637786865e-02) (86, 1.98583379387855529785e-02) (87, -1.42518826760351657867e-03) (88, 8.62581133842468261719e-02) (89, -2.02813707292079925537e-02) (90, -2.94402223080396652222e-02) (91, 3.77318337559700012207e-02) (92, -1.60276540555059909821e-03) (93, 1.01762980222702026367e-01) (94, -2.99514215439558029175e-02) (95, 4.59624454379081726074e-02) (96, -6.97356462478637695312e-02) (97, -7.48994573950767517090e-03) (98, -4.40166741609573364258e-02) (99, 5.13727292418479919434e-02) (100, 6.10154196619987487793e-02) (101, -7.42631405591964721680e-02) (102, 9.90806072950363159180e-02) (103, 8.73566567897796630859e-02) (104, 4.31145355105400085449e-02) (105, 6.54734894633293151855e-02) (106, 5.24237081408500671387e-02) (107, -7.52886533737182617188e-02) (108, 6.31505474448204040527e-02) (109, 1.08295418322086334229e-02) (110, 5.14608249068260192871e-02) (111, -5.83701282739639282227e-02) (112, 1.28035936504602432251e-02) (113, 2.96283774077892303467e-02) (114, 3.53432050906121730804e-03) (115, 4.08364310860633850098e-02) (116, -2.25712433457374572754e-02) (117, 8.46440792083740234375e-02) (118, 5.26697114109992980957e-02) (119, 5.92366680502891540527e-02) (120, 3.00237350165843963623e-02) (121, 4.82861623167991638184e-02) (122, -1.47364698350429534912e-02) (123, -3.63159030675888061523e-02) (124, 7.82998502254486083984e-02) (125, 2.53446213901042938232e-02) (126, 6.57212361693382263184e-03) (127, 9.71267521381378173828e-02) (128, 4.90664318203926086426e-02) (129, 9.90433245897293090820e-02) (0, -1.45548656582832336426e-02) (1, -7.98111706972122192383e-02) (2, -4.24694195389747619629e-02) (3, -3.97497490048408508301e-02) (4, -1.30464643239974975586e-01) (5, 2.44700331240892410278e-02) (6, 1.14454049617052078247e-02) (7, -9.33362394571304321289e-02) (8, -1.58055961132049560547e-01) (9, -1.03249862790107727051e-01) (10, 2.35905069857835769653e-02) (11, 2.90555078536272048950e-02) (12, -1.20508976280689239502e-01) (13, -5.02596572041511535645e-02) (14, 2.98541206866502761841e-02) (15, -9.85095053911209106445e-02) (16, -1.05574861168861389160e-01) (17, -5.28936460614204406738e-02) (18, -3.96545603871345520020e-02) (19, -1.30555987358093261719e-01) (20, -1.10573723912239074707e-01) (21, -6.83227628469467163086e-02) (22, -1.56657695770263671875e-01) (23, -2.44111521169543266296e-03) (24, -8.40010792016983032227e-02) (25, -6.19220249354839324951e-02) (26, 2.03472096472978591919e-02) (27, -8.10272544622421264648e-02) (28, -8.11298042535781860352e-02) (29, -4.55421907827258110046e-03) (30, 1.11705111339688301086e-03) (31, -8.23097079992294311523e-02) (32, -3.53702083230018615723e-02) (33, -1.23525924980640411377e-01) (34, -1.56653344631195068359e-01) (35, -1.29273951053619384766e-01) (36, -1.63527250289916992188e-01) (37, -5.88858835399150848389e-02) (38, -1.51299476623535156250e-01) (39, -1.46678119897842407227e-01) (40, -7.54886418581008911133e-02) (41, 6.15388201549649238586e-03) (42, -2.84178946167230606079e-02) (43, -7.60708004236221313477e-02) (44, 2.15753633528947830200e-02) (45, -3.93039062619209289551e-02) (46, -3.68741825222969055176e-02) (47, -4.46199905127286911011e-04) (48, -1.55780375003814697266e-01) (49, -5.67521862685680389404e-02) (50, -9.01320427656173706055e-02) (51, -1.05316266417503356934e-01) (52, -1.06685414910316467285e-01) (53, -1.17610380053520202637e-01) (54, -1.33707791566848754883e-01) (55, -8.31928104162216186523e-02) (56, -7.76913315057754516602e-02) (57, -1.44651606678962707520e-02) (58, 2.78277415782213211060e-02) (59, -1.55420243740081787109e-01) (60, -4.02445299550890922546e-03) (61, -9.53814536333084106445e-02) (62, -1.32537305355072021484e-01) (63, -1.05289295315742492676e-02) (64, -1.60560421645641326904e-02) (65, -1.10230281949043273926e-01) (66, -9.66743975877761840820e-02) (67, -6.26456290483474731445e-02) (68, -1.41445577144622802734e-01) (69, -1.32142543792724609375e-01) (70, 2.39610094577074050903e-02) (71, -1.43976747989654541016e-01) (72, -7.36734122037887573242e-02) (73, -8.50715786218643188477e-02) (74, -5.43724074959754943848e-02) (75, -9.33952480554580688477e-02) (76, -1.49940282106399536133e-01) (77, -1.02675512433052062988e-01) (78, -1.23644299805164337158e-01) (79, -1.45793974399566650391e-01) (80, -1.56630687415599822998e-02) (81, -1.05489984154701232910e-01) (82, -2.60353777557611465454e-02) (83, -3.30394580960273742676e-02) (84, -1.50724232196807861328e-01) (85, -7.86921828985214233398e-02) (86, -3.56477275490760803223e-02) (87, 1.22303385287523269653e-02) (88, -1.00871667265892028809e-01) (89, -6.23697740957140922546e-03) (90, -8.11290293931961059570e-02) (91, 7.91633129119873046875e-03) (92, -6.57132966443896293640e-03) (93, -1.00789323449134826660e-01) (94, -2.22500078380107879639e-02) (95, -1.22098401188850402832e-02) (96, -6.70858770608901977539e-02) (97, 3.16175259649753570557e-02) (98, -6.04874007403850555420e-02) (99, -6.79928213357925415039e-02) (100, -1.16390958428382873535e-02) (101, -7.44678527116775512695e-02) (102, -3.74413803219795227051e-02) (103, -1.33663654327392578125e-01) (104, -1.41216993331909179688e-01) (105, -9.03015285730361938477e-02) (106, -1.54136598110198974609e-01) (107, -2.98753175884485244751e-02) (108, 2.94157583266496658325e-02) (109, -6.59483224153518676758e-02) (110, -4.93590906262397766113e-02) (111, -3.46004739403724670410e-02) (112, 1.35078448802232742310e-02) (113, -2.99335215240716934204e-02) (114, -1.49174690246582031250e-01) (115, -3.52870300412178039551e-02) (116, -1.25393569469451904297e-01) (117, -1.46335840225219726562e-01) (118, -1.23216815292835235596e-01) (119, -1.61089956760406494141e-01) (120, -9.50790792703628540039e-02) (121, -5.02089336514472961426e-02) (122, -1.17668047547340393066e-01) (123, -1.02781370282173156738e-01) (124, -1.02581158280372619629e-01) (125, -1.37654006481170654297e-01) (126, -7.64013035222887992859e-03) (127, -6.39362186193466186523e-02) (128, -3.22060659527778625488e-02) (129, -1.43675506114959716797e-01) (0, 6.46358951926231384277e-02) (1, -2.49386839568614959717e-02) (2, 9.50305759906768798828e-02) (3, 1.85493752360343933105e-02) (4, -1.04239233769476413727e-03) (5, -7.99310356378555297852e-02) (6, 3.87570187449455261230e-02) (7, 2.88081429898738861084e-02) (8, 1.78419277071952819824e-02) (9, -9.11709219217300415039e-02) (10, -7.02669769525527954102e-02) (11, 6.24286308884620666504e-02) (12, 7.75748193264007568359e-02) (13, 3.97362038493156433105e-02) (14, 8.59674960374832153320e-02) (15, 9.52220857143402099609e-02) (16, 3.72924432158470153809e-02) (17, 1.35494638234376907349e-02) (18, -3.46771925687789916992e-02) (19, 1.98630467057228088379e-02) (20, 7.77713805437088012695e-02) (21, -5.65561093389987945557e-02) (22, 1.01094976067543029785e-01) (23, -5.70252686738967895508e-02) (24, 1.59606505185365676880e-02) (25, 9.01955068111419677734e-02) (26, -4.43566143512725830078e-02) (27, -6.21084906160831451416e-02) (28, -1.78476087749004364014e-02) (29, 7.46169537305831909180e-02) (30, -7.32674151659011840820e-02) (31, 3.41355577111244201660e-02) (32, -4.40968871116638183594e-02) (33, 1.03116258978843688965e-01) (34, -8.52857977151870727539e-02) (35, 4.12770137190818786621e-02) (36, -1.77959762513637542725e-02) (37, -5.73995560407638549805e-02) (38, -7.48734027147293090820e-02) (39, 4.23936024308204650879e-02) (40, -5.12159168720245361328e-02) (41, 5.35814687609672546387e-02) (42, -1.67260728776454925537e-02) (43, -7.55617171525955200195e-02) (44, 7.36283063888549804688e-02) (45, -8.95102471113204956055e-02) (46, 4.07509282231330871582e-02) (47, -5.97023814916610717773e-02) (48, 2.15282738208770751953e-02) (49, 6.52920678257942199707e-02) (50, 3.19198123179376125336e-03) (51, 8.70728790760040283203e-02) (52, 7.35701471567153930664e-02) (53, -6.70691579580307006836e-02) (54, 8.09267535805702209473e-03) (55, 5.30445799231529235840e-02) (56, -4.01197224855422973633e-02) (57, -5.27106970548629760742e-02) (58, -6.91436827182769775391e-02) (59, -5.83510845899581909180e-02) (60, -6.69820755720138549805e-02) (61, 7.19226822257041931152e-02) (62, 4.41708639264106750488e-02) (63, 1.92540585994720458984e-02) (64, 4.23940196633338928223e-02) (65, -4.40391451120376586914e-02) (66, 7.37331807613372802734e-02) (67, 7.33543783426284790039e-02) (68, 1.06609255075454711914e-01) (69, 2.11850106716156005859e-02) (70, 9.60635989904403686523e-02) (71, -1.93360112607479095459e-02) (72, 5.92429861426353454590e-02) (73, -6.36675804853439331055e-02) (74, -2.13223658502101898193e-02) (75, 7.45970159769058227539e-02) (76, -8.11393186450004577637e-03) (77, 6.87925294041633605957e-02) (78, 3.55561897158622741699e-02) (79, 3.24120186269283294678e-02) (80, -1.18781290948390960693e-02) (81, 3.86547646485269069672e-03) (82, 6.52605667710304260254e-03) (83, -7.69919455051422119141e-02) (84, 3.59807237982749938965e-02) (85, -3.23434956371784210205e-02) (86, 4.24999222159385681152e-02) (87, -6.42476379871368408203e-02) (88, 2.95197181403636932373e-02) (89, -2.25673690438270568848e-02) (90, -5.03500998020172119141e-02) (91, 5.53802028298377990723e-03) (92, -8.29571932554244995117e-02) (93, -2.19805166125297546387e-02) (94, 1.29601154476404190063e-02) (95, 6.02651759982109069824e-02) (96, -8.37336182594299316406e-02) (97, -7.13618248701095581055e-02) (98, 6.12914934754371643066e-02) (99, -3.42341959476470947266e-02) (100, 6.53823837637901306152e-02) (101, -7.85471647977828979492e-02) (102, 9.72081422805786132812e-02) (103, 1.68387237936258316040e-02) (104, 4.79730591177940368652e-02) (105, -7.72200375795364379883e-02) (106, 2.47793248854577541351e-03) (107, 8.61135572195053100586e-02) (108, -4.96912598609924316406e-02) (109, 7.85137712955474853516e-02) (110, 2.06111669540405273438e-02) (111, 5.15364184975624084473e-02) (112, 1.21892727911472320557e-02) (113, 1.04559227824211120605e-01) (114, -3.33084017038345336914e-02) (115, 2.53612212836742401123e-02) (116, 8.55665206909179687500e-02) (117, -4.38015162944793701172e-02) (118, 6.75920471549034118652e-02) (119, 5.89461550116539001465e-02) (120, -5.26320487260818481445e-02) (121, 5.27066066861152648926e-02) (122, 7.94529318809509277344e-02) (123, 5.12070581316947937012e-03) (124, 1.03254154324531555176e-01) (125, 3.22680734097957611084e-02) (126, -3.10526955872774124146e-02) (127, -6.30611926317214965820e-02) (128, -2.99542378634214401245e-02) (129, -1.21022411622107028961e-03) (0, 9.94000881910324096680e-02) (1, 5.69910630583763122559e-02) (2, 8.81781727075576782227e-02) (3, 5.01259490847587585449e-02) (4, 1.06415763497352600098e-01) (5, -3.09828985482454299927e-02) (6, -9.01138484477996826172e-02) (7, 9.62001234292984008789e-02) (8, 7.51535296440124511719e-02) (9, -5.49483746290206909180e-02) (10, -7.78173059225082397461e-02) (11, -3.58158200979232788086e-02) (12, 8.32115560770034790039e-02) (13, -2.38295271992683410645e-02) (14, -6.34844750165939331055e-02) (15, 5.58322891592979431152e-02) (16, 1.27560291439294815063e-02) (17, 3.01350168883800506592e-02) (18, -8.13681036233901977539e-02) (19, 8.58739763498306274414e-02) (20, -7.64177292585372924805e-02) (21, 8.68269205093383789062e-02) (22, -6.02586269378662109375e-02) (23, 7.29207992553710937500e-02) (24, 1.95097029209136962891e-02) (25, -6.08963817358016967773e-02) (26, -4.58898395299911499023e-02) (27, -3.08393854647874832153e-02) (28, -7.78890997171401977539e-02) (29, -4.24290746450424194336e-02) (30, -6.58922791481018066406e-02) (31, -1.20472423732280731201e-02) (32, -3.85434925556182861328e-02) (33, 3.90921905636787414551e-02) (34, 6.19141086935997009277e-02) (35, 2.99283079802989959717e-02) (36, 4.44111004471778869629e-02) (37, 5.69562092423439025879e-02) (38, 1.02674961090087890625e-01) (39, 9.77344959974288940430e-02) (40, 6.32938221096992492676e-02) (41, 1.88076868653297424316e-02) (42, -5.95722347497940063477e-02) (43, 9.13623347878456115723e-03) (44, -7.85685703158378601074e-03) (45, -1.06008462607860565186e-02) (46, 7.11878165602684020996e-02) (47, 9.31302160024642944336e-02) (48, 7.91912078857421875000e-02) (49, 6.30987063050270080566e-03) (50, 8.94282907247543334961e-02) (51, 6.09283521771430969238e-02) (52, 6.22997358441352844238e-02) (53, -8.88487100601196289062e-02) (54, -4.06299382448196411133e-02) (55, -2.77535747736692428589e-02) (56, -1.47157423198223114014e-02) (57, -8.79094153642654418945e-02) (58, -5.39853721857070922852e-02) (59, 1.07472792267799377441e-01) (60, -6.55050426721572875977e-02) (61, 9.62346345186233520508e-02) (62, 5.51641955971717834473e-02) (63, -1.57766453921794891357e-02) (64, 8.14895033836364746094e-02) (65, 3.37310060858726501465e-02) (66, -4.33772802352905273438e-02) (67, -2.32259579934179782867e-03) (68, 3.61425033770501613617e-03) (69, -1.57735459506511688232e-02) (70, -6.64667040109634399414e-02) (71, -6.62853866815567016602e-02) (72, -1.91057436168193817139e-02) (73, -7.06753283739089965820e-02) (74, -8.10411060228943824768e-04) (75, 1.90236940979957580566e-02) (76, -2.91777979582548141479e-02) (77, 4.83088269829750061035e-02) (78, -3.38662117719650268555e-02) (79, 5.01440986990928649902e-02) (80, 1.13044939935207366943e-02) (81, 3.40146645903587341309e-02) (82, -7.58192241191864013672e-02) (83, -5.40705770254135131836e-02) (84, 7.53145068883895874023e-02) (85, 5.04897311329841613770e-02) (86, 2.04787179827690124512e-02) (87, 2.54133455455303192139e-02) (88, -3.84248346090316772461e-02) (89, 3.34404781460762023926e-02) (90, 7.35474526882171630859e-02) (91, -4.83276098966598510742e-02) (92, -2.64159985817968845367e-03) (93, 4.20159921050071716309e-02) (94, 2.16368190012872219086e-03) (95, 4.42567095160484313965e-03) (96, 2.16780230402946472168e-02) (97, -1.80121175944805145264e-02) (98, -9.01184231042861938477e-02) (99, 1.92309170961380004883e-02) (100, 5.36222681403160095215e-02) (101, 6.89499601721763610840e-02) (102, 8.15952718257904052734e-02) (103, 1.15111432969570159912e-02) (104, 1.07197701930999755859e-01) (105, -8.88121575117111206055e-02) (106, -2.64289937913417816162e-02) (107, 4.73994389176368713379e-02) (108, 8.20015966892242431641e-02) (109, 4.06037196516990661621e-02) (110, 6.63791522383689880371e-02) (111, 7.40810930728912353516e-02) (112, -7.92959183454513549805e-02) (113, -8.69690924882888793945e-02) (114, -4.97799962759017944336e-02) (115, -1.28118358552455902100e-02) (116, -8.90724211931228637695e-02) (117, -4.55286586657166481018e-04) (118, -1.25589333474636077881e-02) (119, -3.84037792682647705078e-02) (120, -1.28060691058635711670e-02) (121, 7.87908211350440979004e-03) (122, 6.33566603064537048340e-02) (123, 7.50513523817062377930e-02) (124, 2.77004651725292205811e-02) (125, 1.17753795348107814789e-03) (126, 3.04874889552593231201e-02) (127, 4.26534041762351989746e-02) (128, -8.46090167760848999023e-02) (129, 1.57166887074708938599e-02) (0, 1.64773419499397277832e-01) (1, 1.52462527155876159668e-01) (2, 2.43726879358291625977e-01) (3, 1.22845076024532318115e-01) (4, 2.63047009706497192383e-01) (5, 2.36816018819808959961e-01) (6, 1.72517552971839904785e-01) (7, 1.08066916465759277344e-01) (8, 8.64362418651580810547e-02) (9, 1.39445438981056213379e-01) (10, 2.65085995197296142578e-01) (11, 1.05271935462951660156e-01) (12, 1.11073099076747894287e-01) (13, 2.11292594671249389648e-01) (14, 2.00654834508895874023e-01) (15, 2.11292177438735961914e-01) (16, 1.93582922220230102539e-01) (17, 1.53746828436851501465e-01) (18, 2.28613764047622680664e-01) (19, 1.17487631738185882568e-01) (20, 2.20138043165206909180e-01) (21, 2.65966892242431640625e-01) (22, 1.10622845590114593506e-01) (23, 2.43808716535568237305e-01) (24, 9.83905494213104248047e-02) (25, 2.55307942628860473633e-01) (26, 1.65913298726081848145e-01) (27, 1.10674135386943817139e-01) (28, 1.05626583099365234375e-01) (29, 2.71315097808837890625e-01) (30, 1.97693139314651489258e-01) (31, 2.34220355749130249023e-01) (32, 1.47109672427177429199e-01) (33, 2.78139293193817138672e-01) (34, 9.27276611328125000000e-02) (35, 2.79493510723114013672e-01) (36, 2.52401143312454223633e-01) (37, 1.11670576035976409912e-01) (38, 2.53106683492660522461e-01) (39, 1.69253930449485778809e-01) (40, 2.56704419851303100586e-01) (41, 2.36410528421401977539e-01) (42, 1.57229110598564147949e-01) (43, 1.55236169695854187012e-01) (44, 2.60210245847702026367e-01) (45, 1.59415021538734436035e-01) (46, 9.43078398704528808594e-02) (47, 2.37266391515731811523e-01) (48, 1.41782745718955993652e-01) (49, 1.48331776261329650879e-01) (50, 2.18191832304000854492e-01) (51, 1.55885055661201477051e-01) (52, 1.65981873869895935059e-01) (53, 2.63369947671890258789e-01) (54, 2.64600336551666259766e-01) (55, 1.43347099423408508301e-01) (56, 2.40263313055038452148e-01) (57, 1.10908471047878265381e-01) (58, 2.44325131177902221680e-01) (59, 1.78575977683067321777e-01) (60, 1.32141008973121643066e-01) (61, 9.96121466159820556641e-02) (62, 1.87009721994400024414e-01) (63, 2.78250813484191894531e-01) (64, 1.66283771395683288574e-01) (65, 1.36904612183570861816e-01) (66, 1.61602482199668884277e-01) (67, 2.58481770753860473633e-01) (68, 1.08624212443828582764e-01) (69, 2.52660840749740600586e-01) (70, 2.76788949966430664062e-01) (71, 1.96754574775695800781e-01) (72, 2.59681612253189086914e-01) (73, 2.74534046649932861328e-01) (74, 9.92409884929656982422e-02) (75, 1.48607656359672546387e-01) (76, 2.54706710577011108398e-01) (77, 2.61719971895217895508e-01) (78, 1.33288368582725524902e-01) (79, 1.83554351329803466797e-01) (80, 2.03475981950759887695e-01) (81, 2.26221770048141479492e-01) (82, 1.15299247205257415771e-01) (83, 2.39977985620498657227e-01) (84, 1.15522973239421844482e-01) (85, 2.00313597917556762695e-01) (86, 2.76592135429382324219e-01) (87, 8.94686579704284667969e-02) (88, 1.05477392673492431641e-01) (89, 1.64028093218803405762e-01) (90, 2.25732415914535522461e-01) (91, 9.07806754112243652344e-02) (92, 1.56246140599250793457e-01) (93, 2.34892994165420532227e-01) (94, 2.51958876848220825195e-01) (95, 2.78064548969268798828e-01) (96, 2.36246317625045776367e-01) (97, 1.97911143302917480469e-01) (98, 9.81914699077606201172e-02) (99, 1.09700970351696014404e-01) (100, 1.50083199143409729004e-01) (101, 2.54268556833267211914e-01) (102, 9.76120829582214355469e-02) (103, 1.71986773610115051270e-01) (104, 1.87472611665725708008e-01) (105, 2.58134514093399047852e-01) (106, 2.72580504417419433594e-01) (107, 2.65727996826171875000e-01) (108, 9.52023565769195556641e-02) (109, 2.71610617637634277344e-01) (110, 1.64969161152839660645e-01) (111, 2.42672890424728393555e-01) (112, 2.08784908056259155273e-01) (113, 2.53659099340438842773e-01) (114, 2.53697723150253295898e-01) (115, 1.03084444999694824219e-01) (116, 1.45825371146202087402e-01) (117, 9.29502546787261962891e-02) (118, 2.20726519823074340820e-01) (119, 1.56036987900733947754e-01) (120, 1.19355224072933197021e-01) (121, 2.08749920129776000977e-01) (122, 2.65540301799774169922e-01) (123, 1.41377463936805725098e-01) (124, 1.36663839221000671387e-01) (125, 1.14741884171962738037e-01) (126, 2.72681176662445068359e-01) (127, 1.57502517104148864746e-01) (128, 1.50715842843055725098e-01) (129, 5.72843663394451141357e-02) (0, -3.80433350801467895508e-02) (1, 4.51809689402580261230e-02) (2, -3.97671386599540710449e-03) (3, 2.91215232573449611664e-03) (4, -1.59035287797451019287e-02) (5, -5.11616766452789306641e-02) (6, -3.47717404365539550781e-02) (7, 3.09880040585994720459e-02) (8, 5.47888502478599548340e-02) (9, 7.55952745676040649414e-02) (10, -3.06275356560945510864e-02) (11, 8.26111584901809692383e-02) (12, 8.53727310895919799805e-02) (13, 9.92079526185989379883e-02) (14, 2.78295390307903289795e-02) (15, -2.95172464102506637573e-02) (16, -5.69327920675277709961e-02) (17, -2.97458898276090621948e-02) (18, 1.00307375192642211914e-01) (19, 1.05815351009368896484e-01) (20, 7.81411081552505493164e-02) (21, -4.27992790937423706055e-02) (22, -8.78558456897735595703e-02) (23, 4.63789328932762145996e-02) (24, -6.96885436773300170898e-02) (25, -1.57869569957256317139e-02) (26, -9.18285697698593139648e-02) (27, 7.67974555492401123047e-02) (28, -2.54794172942638397217e-02) (29, 7.04590603709220886230e-03) (30, 6.00348636507987976074e-02) (31, 4.54615429043769836426e-02) (32, -8.83106142282485961914e-02) (33, 3.01367393694818019867e-03) (34, 9.02684330940246582031e-02) (35, -1.87330953776836395264e-02) (36, -7.71724805235862731934e-03) (37, -6.43022954463958740234e-02) (38, -8.91536027193069458008e-02) (39, 3.50923612713813781738e-02) (40, 3.68410721421241760254e-02) (41, 2.74826101958751678467e-02) (42, -6.02656602859497070312e-02) (43, -4.53982502222061157227e-02) (44, 3.12285684049129486084e-02) (45, 9.78426635265350341797e-02) (46, 8.14157426357269287109e-02) (47, -5.93457836657762527466e-03) (48, 9.71319824457168579102e-02) 